/*
 * author : shtsno24
 * Date : 2020-01-05 15:41:57.162450
 *
 */
#pragma once
#include <stdint.h>

const uint16_t shape_Conv2D_2_w[] = {8, 8, 3, 3};
const float Conv2D_2_w[8][8][3][3] =
{{{{      -0.036477,        0.102762,       -0.047997},
{       0.094466,       -0.372663,       -0.073219},
{       0.005402,        0.106492,        0.017956}},

{{      -0.036804,       -0.023559,        0.068346},
{       0.000315,        0.836248,        0.102533},
{      -0.029478,       -0.201858,        0.058907}},

{{      -0.012173,        0.170678,       -0.238418},
{       0.086872,       -0.166019,       -0.354724},
{       0.002032,        0.060891,        0.020465}},

{{       0.059786,        0.022942,        0.035827},
{      -0.012454,        0.365116,       -0.347234},
{       0.018635,       -0.085773,       -0.154699}},

{{      -0.061291,       -0.115978,        0.008669},
{      -0.059532,        0.117208,       -0.055730},
{      -0.005084,        0.128263,       -0.050275}},

{{       0.018286,       -0.030016,        0.075908},
{      -0.041785,        0.178555,       -0.146500},
{      -0.042409,       -0.032213,        0.194287}},

{{      -0.020277,        0.070794,       -0.107875},
{       0.079131,       -0.027526,       -0.042220},
{       0.083446,       -0.206125,        0.077819}},

{{       0.035248,        0.047059,       -0.078559},
{      -0.007099,        0.374814,        0.230041},
{      -0.011902,       -0.070551,       -0.066650}}},

{{{      -0.132897,        0.149106,       -0.016933},
{       0.113899,        0.381327,        0.254586},
{      -0.082468,        0.133811,       -0.072237}},

{{      -0.140216,       -0.026864,       -0.057295},
{       0.138369,       -0.799050,       -0.013598},
{       0.130935,       -0.051563,        0.036966}},

{{      -0.047627,        0.099537,       -0.082046},
{       0.062346,       -0.098203,       -0.036887},
{      -0.050708,        0.051625,        0.091825}},

{{       0.035110,        0.064208,       -0.031371},
{      -0.118592,        0.574435,        0.431646},
{      -0.028389,       -0.030536,       -0.129928}},

{{      -0.078567,       -0.017066,        0.018119},
{       0.035125,        0.475001,       -0.141295},
{      -0.046450,       -0.030892,       -0.077009}},

{{       0.106814,       -0.045500,        0.018465},
{      -0.050535,       -0.568498,        0.153712},
{      -0.105836,       -0.096472,       -0.006385}},

{{       0.080369,       -0.014685,        0.042753},
{      -0.125019,       -2.125813,        0.281344},
{       0.068086,        0.122480,        0.067833}},

{{      -0.001956,        0.017593,       -0.044852},
{       0.157001,        0.247476,       -0.142959},
{       0.075244,        0.173348,       -0.017470}}},

{{{      -0.003247,        0.026073,        0.008118},
{       0.114560,       -0.084906,        0.022699},
{       0.061928,        0.035850,       -0.057266}},

{{      -0.014626,       -0.054207,        0.029770},
{      -0.146284,        0.064215,        0.011419},
{       0.010189,       -0.088781,        0.022599}},

{{       0.038889,        0.184847,       -0.016855},
{      -0.097454,        0.114275,       -0.022733},
{       0.029241,       -0.030553,        0.058774}},

{{      -0.014675,        0.001919,        0.029062},
{       0.065652,       -0.412861,       -0.018598},
{      -0.015832,        0.267565,       -0.125968}},

{{      -0.051541,       -0.015286,       -0.053105},
{       0.024942,        0.080502,       -0.066541},
{      -0.015330,        0.004934,       -0.049113}},

{{       0.056868,        0.036814,        0.002066},
{       0.015056,       -2.118279,        0.038847},
{       0.004689,       -0.036192,        0.002603}},

{{      -0.013285,        0.012245,       -0.013095},
{      -0.017203,        0.035683,       -0.010271},
{      -0.077837,       -0.019516,        0.048916}},

{{      -0.006554,        0.110926,        0.041340},
{       0.027161,        0.423023,        0.196099},
{       0.024074,        0.111896,       -0.063278}}},

{{{      -0.104131,       -0.093410,        0.034061},
{       0.312153,        0.353036,        0.054484},
{      -0.027420,       -0.049390,       -0.029304}},

{{       0.036727,        0.071965,       -0.039004},
{      -0.208927,       -0.333581,       -0.072481},
{       0.003699,       -0.022269,        0.001238}},

{{       0.064415,        0.249194,        0.149282},
{       0.145512,        0.513199,        0.267927},
{      -0.065322,        0.073041,        0.035977}},

{{      -0.074153,       -0.148027,       -0.081219},
{       0.062225,        0.665438,        0.150615},
{       0.049641,       -0.123203,        0.055381}},

{{      -0.074302,        0.106981,        0.011525},
{      -0.210173,        0.350209,       -0.019829},
{       0.013574,        0.018273,       -0.003098}},

{{       0.066717,       -0.087805,        0.016487},
{       0.035273,        0.708912,        0.096397},
{       0.015700,       -0.134829,       -0.102214}},

{{       0.019221,       -0.000415,        0.031474},
{      -0.024175,       -0.335689,        0.104106},
{      -0.061814,        0.067494,        0.017032}},

{{       0.039113,        0.069085,        0.013867},
{      -0.156826,       -0.667631,       -0.085349},
{       0.005289,        0.065469,       -0.012318}}},

{{{       0.021566,        0.110096,       -0.027539},
{       0.039330,       -0.575048,        0.027792},
{       0.036123,       -0.016783,       -0.078317}},

{{      -0.015131,       -0.111424,        0.064792},
{      -0.081098,        0.771558,       -0.004693},
{       0.021815,        0.017830,        0.001313}},

{{       0.016191,       -0.044352,       -0.125787},
{       0.024285,       -0.005766,        0.138524},
{       0.018156,        0.087898,        0.115786}},

{{       0.014402,        0.128970,        0.040327},
{      -0.001207,       -0.024654,       -0.201667},
{      -0.001969,        0.138853,       -0.041237}},

{{      -0.032369,       -0.249611,        0.018424},
{      -0.055843,        0.713956,       -0.034683},
{      -0.050249,       -0.009070,       -0.018503}},

{{       0.025666,        0.002021,        0.042587},
{       0.036132,       -0.101136,       -0.060373},
{      -0.022754,        0.053549,       -0.085904}},

{{       0.013569,        0.095977,       -0.071738},
{      -0.001008,        0.085445,        0.020914},
{      -0.018760,        0.151991,        0.071745}},

{{      -0.023269,       -0.049503,       -0.069282},
{      -0.024401,        0.202600,        0.230882},
{       0.005470,        0.005620,       -0.101717}}},

{{{       0.048476,       -0.162405,        0.014590},
{      -0.364470,        0.437993,        0.066474},
{       0.014940,       -0.032439,       -0.038022}},

{{      -0.067359,        0.202996,       -0.039472},
{       0.454271,       -0.218485,       -0.045196},
{       0.004133,        0.056252,        0.019749}},

{{      -0.093053,        0.334299,        0.129417},
{      -0.012107,       -0.073393,        0.306344},
{       0.078794,        0.047370,        0.104567}},

{{       0.170657,       -0.207264,       -0.054061},
{      -0.131627,       -0.349993,        0.093442},
{      -0.018007,        0.209804,       -0.138648}},

{{      -0.023172,        0.306630,       -0.026850},
{       0.018306,        0.278290,       -0.081305},
{      -0.046715,       -0.107133,        0.004656}},

{{      -0.083771,        0.006148,       -0.057575},
{      -0.164907,       -0.723089,        0.067966},
{      -0.101710,       -0.067423,       -0.159468}},

{{       0.013694,       -0.180501,        0.040877},
{       0.216268,       -0.507411,        0.077469},
{       0.070715,        0.290300,        0.012273}},

{{       0.086983,        0.067676,        0.047380},
{       0.271636,        0.956884,        0.025902},
{       0.012465,        0.027357,        0.044815}}},

{{{       0.044939,       -0.004893,        0.049600},
{      -0.092435,       -0.165577,        0.023036},
{      -0.068777,        0.076458,       -0.061851}},

{{      -0.046161,       -0.047041,        0.012357},
{       0.010987,        0.049075,       -0.031131},
{       0.085575,       -0.068296,        0.021950}},

{{       0.046809,       -0.026240,        0.026895},
{      -0.030126,       -2.675321,        0.034561},
{       0.086921,        0.084220,        0.069570}},

{{      -0.047935,        0.060858,       -0.000171},
{      -0.085012,        0.432889,       -0.057525},
{      -0.164632,       -0.494098,       -0.010017}},

{{      -0.075305,       -0.088147,        0.026778},
{       0.192600,        0.449206,       -0.033833},
{      -0.156633,       -0.057612,        0.005401}},

{{       0.067380,       -0.013620,        0.070503},
{      -0.065157,        0.015146,       -0.097104},
{      -0.079384,        0.089976,       -0.098585}},

{{       0.115128,        0.066769,       -0.024543},
{       0.054198,       -0.269589,        0.098111},
{       0.114231,        0.132639,       -0.025928}},

{{      -0.013672,       -0.036592,       -0.080097},
{       0.172327,       -0.056807,        0.135169},
{       0.036282,        0.167683,        0.024356}}},

{{{       0.000386,       -0.163045,        0.016837},
{      -0.089385,       -0.121761,        0.036910},
{       0.052447,        0.092171,        0.006873}},

{{       0.028061,        0.252744,       -0.044928},
{       0.004673,        0.302747,        0.030224},
{      -0.110363,       -0.284633,        0.046580}},

{{      -0.118787,       -0.062841,        0.062608},
{      -0.109543,        0.482153,       -0.175202},
{      -0.042248,        0.154062,        0.062480}},

{{       0.080253,       -0.191138,       -0.068826},
{       0.083527,       -0.932004,        0.022681},
{       0.083910,       -0.165870,       -0.172214}},

{{       0.140127,        0.249598,       -0.006430},
{      -0.044343,        0.768712,       -0.075594},
{       0.038007,        0.163108,       -0.063052}},

{{      -0.094426,        0.215558,        0.016530},
{      -0.016966,        0.038004,       -0.004132},
{       0.052129,       -0.134077,        0.134509}},

{{      -0.075190,       -0.264454,        0.044092},
{       0.080650,       -1.026961,        0.028059},
{      -0.028136,       -0.124950,        0.116195}},

{{       0.104729,        0.077602,        0.017330},
{       0.034076,        0.264749,        0.191251},
{      -0.054643,       -0.034475,       -0.050888}}}};

const uint16_t shape_Conv2D_2_b = 8;
const float Conv2D_2_b[8] = {       0.224893,        0.160902,        0.596804,        0.286427,        0.121965,       -0.253933,        0.729238,        0.380643};
