/*
 * author : shtsno24
 * Date : 2020-01-05 15:41:57.220397
 *
 */
#pragma once
#include <stdint.h>

const uint16_t shape_Conv2D_4_w[] = {1, 16, 3, 3};
const float Conv2D_4_w[1][16][3][3] =
{{{{      -0.010895,        0.013950,       -0.034164},
{      -0.025126,       -0.078037,       -0.104972},
{       0.016467,       -0.004380,       -0.069146}},

{{       0.110892,       -0.080101,        0.041314},
{      -0.255542,       -0.142485,        0.031206},
{       0.083595,        0.035720,        0.064086}},

{{       0.004645,        0.034217,        0.010049},
{       0.062700,        0.037800,        0.000067},
{      -0.071371,       -0.063982,       -0.059336}},

{{       0.030389,       -0.009064,        0.031176},
{      -0.192502,        0.030428,        0.018986},
{      -0.090932,        0.031973,        0.016900}},

{{       0.025351,        0.000490,        0.087984},
{       0.142686,        0.167484,        0.028113},
{       0.096540,       -0.000634,       -0.017597}},

{{      -0.024112,       -0.302008,        0.026988},
{       0.630953,       -0.189883,       -0.032088},
{      -0.036822,       -0.260691,        0.058532}},

{{      -0.279537,       -0.142291,       -0.197779},
{      -0.235302,        0.773345,       -0.275882},
{      -0.190637,       -0.197701,       -0.128049}},

{{       0.072873,       -0.222177,       -0.107062},
{       0.096360,        0.035636,        0.050964},
{      -0.002362,        0.006690,        0.002654}},

{{      -0.323047,        0.012634,        0.048012},
{       0.102052,        0.233337,       -0.027001},
{       0.007933,       -0.048635,       -0.059255}},

{{       0.194468,       -0.033907,       -0.064712},
{      -0.157896,       -0.258030,        0.061233},
{      -0.012991,        0.047187,        0.254862}},

{{      -0.405376,       -0.059721,        0.048447},
{       0.008331,        0.100597,        0.020573},
{       0.003719,       -0.019602,        0.039257}},

{{       0.055936,       -0.015261,        0.038434},
{      -0.355223,       -0.183196,        0.051225},
{       0.040773,        0.115973,        0.020075}},

{{       0.110525,        0.044561,        0.013090},
{      -0.052191,       -0.398689,       -0.046847},
{       0.051068,       -0.055836,        0.148732}},

{{      -0.051257,       -0.125577,       -0.072476},
{      -0.156193,        0.231032,        0.094516},
{       0.110660,       -0.127220,       -0.093117}},

{{       0.354000,       -0.027478,       -0.096986},
{      -0.164324,       -0.167955,       -0.011406},
{      -0.098616,        0.031282,        0.004528}},

{{       0.024878,        0.009530,       -0.025274},
{       0.087515,        0.013508,        0.044591},
{      -0.094640,       -0.388707,        0.180779}}}};

const uint16_t shape_Conv2D_4_b = 1;
const float Conv2D_4_b[1] = {       0.028264};
