/*
 * author : shtsno24
 * Date : 2020-01-05 15:41:57.119512
 *
 */
#pragma once
#include <stdint.h>

const uint16_t shape_Conv2D_0_w[] = {16, 1, 3, 3};
const float Conv2D_0_w[16][1][3][3] =
{{{{      -0.000515,       -0.017413,        0.033837},
{       0.031898,       -0.012200,        0.094807},
{       0.063656,       -0.003106,        0.030864}}},

{{{       0.137215,        0.217716,        0.089302},
{      -0.052832,       -0.102031,       -0.010068},
{      -0.075284,       -0.104116,       -0.042362}}},

{{{       0.072306,       -0.166104,       -0.075020},
{      -0.207442,        0.061442,        0.137878},
{      -0.181029,       -0.007336,        0.079556}}},

{{{      -0.125536,       -0.097033,       -0.107050},
{      -0.113542,       -0.157203,       -0.106180},
{      -0.066791,       -0.078122,       -0.034632}}},

{{{       0.025861,       -0.024414,       -0.059314},
{       0.066459,        0.326582,        0.136086},
{      -0.018097,       -0.006263,       -0.009980}}},

{{{      -0.053747,        0.033238,        0.147802},
{      -0.181603,        0.016808,        0.097111},
{      -0.027012,       -0.152984,       -0.042920}}},

{{{       0.047944,       -0.020100,       -0.029276},
{       0.054749,       -0.055402,       -0.185617},
{       0.020156,        0.058691,       -0.046613}}},

{{{      -0.056231,       -0.108688,       -0.161842},
{       0.099866,       -0.092554,       -0.171909},
{       0.156128,       -0.008774,       -0.069024}}},

{{{      -0.078795,       -0.084164,       -0.048387},
{      -0.096049,       -0.232918,       -0.057381},
{      -0.051385,       -0.086141,       -0.078853}}},

{{{       0.440953,       -0.158437,       -0.238855},
{      -0.170354,        0.080592,        0.102172},
{      -0.192212,        0.039222,        0.209812}}},

{{{      -0.004586,        0.076297,        0.178391},
{      -0.128963,       -0.090985,       -0.025639},
{      -0.029033,       -0.013338,        0.042175}}},

{{{       0.084801,        0.143777,        0.075708},
{       0.076252,        0.036081,        0.068907},
{       0.043963,        0.089926,        0.093377}}},

{{{       0.083858,        0.222934,        0.119518},
{       0.002573,       -0.090857,        0.137434},
{      -0.062179,       -0.154982,       -0.000492}}},

{{{       0.103900,        0.123209,        0.052792},
{       0.084142,        0.076096,       -0.019300},
{       0.044920,        0.022517,       -0.003925}}},

{{{      -0.060783,       -0.110439,       -0.046796},
{       0.007768,       -0.081143,        0.019416},
{       0.069995,        0.111887,        0.061073}}},

{{{       0.021108,        0.018275,        0.045076},
{       0.124898,        0.091056,        0.168549},
{       0.156790,        0.133972,        0.227189}}}};

const uint16_t shape_Conv2D_0_b = 16;
const float Conv2D_0_b[16] = {       0.999526,        0.118624,       -0.000442,        0.158750,        0.013109,        0.000483,        0.162690,        0.000783,        0.809937,       -0.068999,        0.000001,        0.000267,       -0.255189,        0.001329,        0.033475,       -0.196480};
