/*
 * author : shtsno24
 * Date : 2020-01-05 15:41:57.167945
 * array_type : int16
 * fractal_width : 14 bit
 * bit_width : 16 bit
 *
 */
#pragma once
#include <stdint.h>

#define data_width_Conv2D_2 16
#define fractal_width_Conv2D_2 14

const uint16_t shape_Conv2D_2_w[] = {8, 8, 3, 3};
const int16_t Conv2D_2_w[8][8][3][3] =
{{{{ -597,  1683,  -786},
{ 1547, -6105, -1199},
{   88,  1744,   294}},

{{ -602,  -385,  1119},
{    5, 13700,  1679},
{ -482, -3307,   965}},

{{ -199,  2796, -3906},
{ 1423, -2719, -5811},
{   33,   997,   335}},

{{  979,   375,   586},
{ -204,  5981, -5688},
{  305, -1405, -2534}},

{{-1004, -1900,   142},
{ -975,  1920,  -913},
{  -83,  2101,  -823}},

{{  299,  -491,  1243},
{ -684,  2925, -2400},
{ -694,  -527,  3182}},

{{ -332,  1159, -1767},
{ 1296,  -450,  -691},
{ 1367, -3376,  1274}},

{{  577,   770, -1287},
{ -116,  6140,  3768},
{ -194, -1155, -1091}}},

{{{-2177,  2442,  -277},
{ 1866,  6247,  4170},
{-1351,  2192, -1183}},

{{-2297,  -440,  -938},
{ 2266, -13090,  -222},
{ 2145,  -844,   605}},

{{ -780,  1630, -1344},
{ 1021, -1608,  -604},
{ -830,   845,  1504}},

{{  575,  1051,  -513},
{-1942,  9410,  7071},
{ -465,  -500, -2128}},

{{-1287,  -279,   296},
{  575,  7781, -2314},
{ -760,  -506, -1261}},

{{ 1749,  -745,   302},
{ -827, -9313,  2518},
{-1733, -1580,  -104}},

{{ 1316,  -240,   700},
{-2048, 30709,  4609},
{ 1115,  2006,  1111}},

{{  -32,   288,  -734},
{ 2572,  4054, -2342},
{ 1232,  2839,  -286}}},

{{{  -53,   427,   132},
{ 1876, -1391,   371},
{ 1014,   587,  -938}},

{{ -239,  -888,   487},
{-2396,  1052,   187},
{  166, -1454,   370}},

{{  637,  3028,  -276},
{-1596,  1872,  -372},
{  479,  -500,   962}},

{{ -240,    31,   476},
{ 1075, -6763,  -304},
{ -259,  4383, -2063}},

{{ -844,  -250,  -870},
{  408,  1318, -1090},
{ -251,    80,  -804}},

{{  931,   603,    33},
{  246, 30833,   636},
{   76,  -592,    42}},

{{ -217,   200,  -214},
{ -281,   584,  -168},
{-1275,  -319,   801}},

{{ -107,  1817,   677},
{  444,  6930,  3212},
{  394,  1833, -1036}}},

{{{-1705, -1530,   558},
{ 5114,  5783,   892},
{ -449,  -809,  -480}},

{{  601,  1179,  -639},
{-3422, -5465, -1187},
{   60,  -364,    20}},

{{ 1055,  4082,  2445},
{ 2383,  8407,  4389},
{-1070,  1196,   589}},

{{-1214, -2425, -1330},
{ 1019, 10901,  2467},
{  813, -2018,   907}},

{{-1217,  1752,   188},
{-3443,  5737,  -324},
{  222,   299,   -50}},

{{ 1093, -1438,   270},
{  577, 11614,  1579},
{  257, -2208, -1674}},

{{  314,    -6,   515},
{ -396, -5499,  1705},
{-1012,  1105,   279}},

{{  640,  1131,   227},
{-2569, -10937, -1398},
{   86,  1072,  -201}}},

{{{  353,  1803,  -451},
{  644, -9421,   455},
{  591,  -274, -1283}},

{{ -247, -1825,  1061},
{-1328, 12640,   -76},
{  357,   292,    21}},

{{  265,  -726, -2060},
{  397,   -94,  2269},
{  297,  1440,  1896}},

{{  235,  2112,   660},
{  -19,  -403, -3303},
{  -32,  2274,  -675}},

{{ -530, -4089,   301},
{ -914, 11696,  -568},
{ -823,  -148,  -303}},

{{  420,    33,   697},
{  591, -1656,  -989},
{ -372,   877, -1407}},

{{  222,  1572, -1175},
{  -16,  1399,   342},
{ -307,  2490,  1175}},

{{ -381,  -811, -1135},
{ -399,  3319,  3782},
{   89,    92, -1666}}},

{{{  794, -2660,   239},
{-5971,  7175,  1089},
{  244,  -531,  -622}},

{{-1103,  3325,  -646},
{ 7442, -3579,  -740},
{   67,   921,   323}},

{{-1524,  5476,  2120},
{ -198, -1202,  5018},
{ 1290,   776,  1713}},

{{ 2795, -3395,  -885},
{-2156, -5733,  1530},
{ -295,  3437, -2271}},

{{ -379,  5023,  -439},
{  299,  4559, -1332},
{ -765, -1755,    76}},

{{-1372,   100,  -943},
{-2701, -11846,  1113},
{-1666, -1104, -2612}},

{{  224, -2957,   669},
{ 3543, -8312,  1269},
{ 1158,  4755,   201}},

{{ 1425,  1108,   776},
{ 4450, 15676,   424},
{  204,   448,   734}}},

{{{  736,   -80,   812},
{-1514, -2712,   377},
{-1126,  1252, -1013}},

{{ -756,  -770,   202},
{  180,   803,  -510},
{ 1401, -1118,   359}},

{{  766,  -429,   440},
{ -493, 21707,   566},
{ 1424,  1379,  1139}},

{{ -785,   997,    -2},
{-1392,  7092,  -942},
{-2697, -8094,  -164}},

{{-1233, -1444,   438},
{ 3155,  7359,  -554},
{-2566,  -943,    88}},

{{ 1103,  -223,  1155},
{-1067,   248, -1590},
{-1300,  1474, -1615}},

{{ 1886,  1093,  -402},
{  887, -4416,  1607},
{ 1871,  2173,  -424}},

{{ -223,  -599, -1312},
{ 2823,  -930,  2214},
{  594,  2747,   399}}},

{{{    6, -2671,   275},
{-1464, -1994,   604},
{  859,  1510,   112}},

{{  459,  4140,  -736},
{   76,  4959,   495},
{-1808, -4663,   763}},

{{-1946, -1029,  1025},
{-1794,  7899, -2870},
{ -692,  2524,  1023}},

{{ 1314, -3131, -1127},
{ 1368, -15269,   371},
{ 1374, -2717, -2821}},

{{ 2295,  4089,  -105},
{ -726, 12593, -1238},
{  622,  2672, -1032}},

{{-1546,  3531,   270},
{ -277,   622,   -67},
{  854, -2196,  2203}},

{{-1231, -4332,   722},
{ 1321, -16824,   459},
{ -460, -2047,  1903}},

{{ 1715,  1271,   283},
{  558,  4337,  3133},
{ -895,  -564,  -833}}}};

const uint16_t shape_Conv2D_2_b = 8;
const int16_t Conv2D_2_b[8] = { 3684,  2636,  9777,  4692,  1998, -4160, 11947,  6236};
