/*
 * author : shtsno24
 * Date : 2020-01-05 15:41:57.125432
 *
 */
#pragma once
#include <stdint.h>

const uint16_t shape_Conv2D_1_w[] = {8, 16, 3, 3};
const float Conv2D_1_w[8][16][3][3] =
{{{{       0.008867,        0.106386,       -0.032029},
{      -0.212383,        0.417919,        0.105670},
{       0.013795,       -0.106026,        0.096181}},

{{      -0.030855,        0.149232,        0.002343},
{       0.147954,        0.204644,        0.197649},
{       0.060168,       -0.053877,        0.118707}},

{{      -0.029755,       -0.064741,       -0.246306},
{       0.048646,        0.048444,       -0.217594},
{      -0.011244,        0.119691,        0.165815}},

{{       0.095173,       -0.111060,       -0.382572},
{       0.181058,        0.059799,       -0.695895},
{       0.051041,        0.056171,       -0.250600}},

{{       0.046444,        0.033395,       -0.189294},
{       0.002300,       -0.129382,       -0.384857},
{       0.048959,        0.135344,        0.042511}},

{{      -0.136945,       -0.120452,        0.018640},
{       0.046133,        0.134567,       -0.294283},
{      -0.149478,        0.063915,       -0.097719}},

{{      -0.006534,        0.227386,        0.201871},
{       0.234262,        0.254788,       -0.073249},
{      -0.093304,        0.093846,        0.132723}},

{{      -0.047534,       -0.063451,       -0.050953},
{       0.020665,        0.003937,       -0.678356},
{       0.054814,        0.250582,       -0.160027}},

{{       0.028415,        0.042924,       -0.151521},
{       0.104606,       -0.065362,        0.125346},
{      -0.020578,       -0.175631,        0.126949}},

{{       0.011732,        0.060752,        0.055101},
{      -0.053468,        0.065709,        0.141795},
{      -0.045387,        0.013530,        0.042221}},

{{       0.158363,       -0.140385,        0.039336},
{      -0.030536,       -0.170701,        0.376043},
{       0.026927,        0.209607,        0.145462}},

{{       0.103146,        0.130624,       -0.380811},
{      -0.037496,       -0.135919,       -0.664416},
{       0.090099,        0.012605,       -0.207948}},

{{      -0.023862,       -0.194704,        0.031218},
{       0.027377,        0.040169,        0.383067},
{       0.175374,       -0.044236,       -0.066767}},

{{      -0.063069,       -0.197832,        0.039089},
{       0.039193,        0.293286,       -0.735228},
{       0.011512,       -0.122664,       -0.032923}},

{{       0.035498,       -0.089828,        0.462007},
{      -0.008950,        0.069108,       -0.045944},
{      -0.045453,       -0.013182,       -0.023334}},

{{      -0.109869,       -0.157099,        0.085783},
{      -0.036092,        0.122118,        0.034940},
{      -0.069585,        0.095984,       -0.000190}}},

{{{       0.123341,        0.057568,       -0.012613},
{      -0.073940,        0.392064,        0.639275},
{      -0.061100,       -0.085630,        0.216045}},

{{       0.034864,        0.131399,       -0.085772},
{       0.053170,       -0.138040,        0.324381},
{       0.048824,       -0.056571,        0.237875}},

{{       0.070366,        0.042566,       -0.035105},
{      -0.011714,       -0.008903,        0.326830},
{       0.022164,       -0.032499,       -0.146127}},

{{       0.017446,       -0.257986,       -0.164686},
{      -0.164733,       -0.114170,       -1.356040},
{      -0.024778,       -0.219822,       -0.146153}},

{{      -0.045804,       -0.100434,        0.014960},
{      -0.118421,       -0.096134,        0.104924},
{      -0.005917,       -0.167705,       -0.091188}},

{{       0.059751,       -0.093527,       -0.045443},
{      -0.001322,       -0.066243,        0.428614},
{       0.093720,        0.027649,       -0.002476}},

{{      -0.052503,        0.150257,        0.033125},
{       0.095672,       -0.278247,       -0.183330},
{       0.010106,        0.080467,        0.031801}},

{{      -0.002945,        0.033560,        0.201995},
{      -0.072613,       -0.215655,        0.448132},
{       0.027580,       -0.004869,       -0.034574}},

{{       0.010123,        0.038686,       -0.094087},
{       0.019520,       -0.065439,       -0.527276},
{      -0.030989,        0.038896,       -0.046562}},

{{       0.009856,       -0.027845,       -0.035648},
{       0.002673,       -0.003156,       -0.103913},
{       0.005087,        0.002555,        0.041831}},

{{      -0.069430,       -0.048963,       -0.089865},
{      -0.059043,       -0.041241,        0.006974},
{      -0.092447,       -0.157325,       -0.010843}},

{{      -0.016273,       -0.011625,        0.024169},
{       0.077384,        0.048082,       -0.060078},
{      -0.029964,        0.019496,        0.503713}},

{{      -0.063779,       -0.018449,       -0.118436},
{      -0.103456,        0.101254,       -0.434993},
{      -0.034982,       -0.085674,       -0.113758}},

{{       0.019488,       -0.107575,        0.211778},
{       0.036669,       -0.034745,       -0.218625},
{      -0.002174,       -0.116937,       -0.062408}},

{{      -0.089854,       -0.048286,        0.099628},
{      -0.091319,       -0.013157,       -0.220080},
{       0.021468,        0.124656,       -0.182998}},

{{       0.007733,        0.096966,        0.061677},
{       0.022922,        0.104300,       -0.181741},
{      -0.008314,       -0.035435,       -0.163931}}},

{{{       0.103913,       -0.081622,       -0.091926},
{       0.002411,        0.217178,        0.074817},
{       0.603651,        0.233432,       -0.014474}},

{{      -0.022688,        0.038648,       -0.014620},
{       0.044501,       -0.233234,        0.046689},
{      -0.031554,        0.526061,       -0.040313}},

{{       0.015946,       -0.031622,       -0.049976},
{       0.060499,        0.045581,       -0.050493},
{       0.133296,        0.385057,        0.155379}},

{{       0.092804,        0.042258,        0.091092},
{      -0.091769,       -0.053528,       -0.076579},
{       0.099521,       -0.404216,        0.097009}},

{{       0.068050,       -0.004321,        0.040206},
{       0.010112,       -0.037650,       -0.074815},
{       0.127655,        0.120819,       -0.024308}},

{{       0.000818,        0.050058,        0.082468},
{      -0.045877,       -0.181013,        0.045230},
{       0.055048,        0.330032,       -0.162405}},

{{       0.020743,        0.012003,        0.045035},
{       0.142097,        0.010448,       -0.024013},
{      -0.886851,       -0.096477,        0.024205}},

{{      -0.044776,       -0.020626,        0.058617},
{       0.111490,        0.060888,       -0.135689},
{      -0.156886,        0.552235,       -0.047743}},

{{       0.035072,        0.034789,       -0.010427},
{       0.042280,       -0.013870,        0.037217},
{      -0.055445,       -0.722014,        0.012979}},

{{      -0.023628,       -0.004372,       -0.007177},
{      -0.002441,       -0.031171,        0.016304},
{      -0.055595,       -0.126897,       -0.004936}},

{{      -0.007531,       -0.131385,       -0.107858},
{       0.055838,       -0.060089,        0.065196},
{       0.180148,        0.081248,       -0.108190}},

{{       0.021563,       -0.093094,        0.017379},
{       0.031256,        0.054517,       -0.005479},
{      -0.012018,        0.143662,        0.131271}},

{{      -0.020499,        0.087916,        0.106332},
{       0.100927,       -0.111596,        0.133547},
{      -0.005202,       -0.391147,        0.117335}},

{{       0.030268,        0.114862,        0.054616},
{      -0.046511,        0.205009,       -0.052222},
{       0.112363,       -0.325353,       -0.074670}},

{{      -0.016575,       -0.019012,       -0.050591},
{      -0.003590,        0.008677,       -0.014680},
{       0.040790,       -0.313513,        0.013392}},

{{      -0.020728,        0.030103,        0.006703},
{       0.018558,       -0.040216,        0.036545},
{      -0.161610,       -0.106571,       -0.044039}}},

{{{      -0.196905,        0.437187,        0.326632},
{       0.590706,        0.196133,       -0.245264},
{      -0.119355,       -0.039560,        0.148070}},

{{      -0.084117,       -0.409680,        0.001585},
{      -0.015861,        0.344041,       -0.033169},
{      -0.057890,        0.010985,        0.053429}},

{{      -0.047736,        0.116329,       -0.479583},
{      -0.012801,        0.049101,       -0.013580},
{      -0.019007,        0.053044,        0.059167}},

{{      -0.430946,       -0.206418,        0.073342},
{      -0.064148,       -0.709752,       -0.079580},
{      -0.077182,       -0.070788,        0.040355}},

{{      -0.122110,        0.278681,       -0.040863},
{      -0.262994,       -0.298808,       -0.173571},
{      -0.065289,       -0.139782,        0.015097}},

{{      -0.118187,        0.443446,       -0.017230},
{      -0.198298,       -0.055633,       -0.127475},
{       0.038306,       -0.032545,       -0.021836}},

{{       0.252865,       -0.105125,        0.139033},
{      -0.145143,        0.034321,       -0.037798},
{      -0.020558,       -0.036302,        0.021441}},

{{      -0.039339,        0.238657,       -0.147868},
{      -0.182926,        0.035555,       -0.099497},
{       0.144622,       -0.082399,        0.054891}},

{{       0.035178,       -0.498722,        0.079161},
{       0.115145,       -0.208088,        0.042065},
{       0.000851,        0.024700,        0.009421}},

{{       0.093943,       -0.094520,        0.024085},
{       0.007530,       -0.092090,        0.054573},
{       0.027885,       -0.012705,       -0.012728}},

{{       0.155018,       -0.327987,       -0.015139},
{       0.115105,        0.435684,        0.088587},
{       0.067441,       -0.019244,       -0.033284}},

{{       0.144340,        0.252044,        0.100001},
{      -0.017354,        0.443675,        0.016714},
{       0.104784,        0.031021,        0.072440}},

{{       0.191927,       -0.131251,       -0.047114},
{      -0.006123,       -0.156781,        0.175034},
{       0.041790,        0.137242,       -0.087689}},

{{      -0.231653,        0.184214,       -0.089552},
{       0.168481,        0.006345,        0.010582},
{      -0.075074,       -0.027732,        0.014034}},

{{       0.052645,        0.457936,       -0.000844},
{       0.102296,       -0.806506,        0.300881},
{       0.024916,        0.302866,       -0.107333}},

{{       0.055013,       -0.699802,       -0.014268},
{      -0.039746,        0.118688,        0.077440},
{       0.035132,       -0.017213,       -0.042929}}},

{{{      -0.159267,        0.081693,       -0.074670},
{       0.275259,       -0.254589,        0.341119},
{      -0.256118,        0.872706,        0.045376}},

{{      -0.025150,       -0.029845,        0.174114},
{       0.050446,       -0.006696,       -0.285216},
{      -0.077004,        0.144519,        0.538919}},

{{      -0.015176,        0.000495,        0.034775},
{      -0.004507,       -0.056024,        0.103543},
{      -0.107953,        0.158602,        0.284302}},

{{       0.090546,        0.175579,        0.052061},
{       0.135012,        0.028552,        0.316314},
{       0.062698,        0.202872,       -0.767341}},

{{       0.091855,        0.141387,       -0.028716},
{      -0.008557,        0.231446,        0.324687},
{       0.006576,        0.054766,        0.123389}},

{{      -0.100906,        0.081123,       -0.055948},
{      -0.053397,       -0.066032,        0.027880},
{      -0.087640,       -0.222131,        0.164940}},

{{      -0.027570,        0.014480,        0.001947},
{      -0.071798,        0.182190,        0.123399},
{       0.172097,       -0.353943,       -0.083856}},

{{      -0.012564,       -0.039609,       -0.234145},
{      -0.060120,        0.062546,        0.156495},
{       0.072824,       -0.222429,        0.379470}},

{{      -0.005721,        0.023283,        0.128977},
{       0.054129,        0.090354,       -0.145645},
{       0.063951,       -0.054229,       -0.315260}},

{{       0.010034,       -0.027330,        0.035226},
{      -0.032836,        0.010790,       -0.138731},
{       0.034240,       -0.156689,       -0.130624}},

{{       0.144080,        0.020867,        0.094698},
{      -0.015377,        0.217194,       -0.323782},
{       0.003929,        0.237623,        0.347542}},

{{       0.023009,        0.102325,        0.127458},
{      -0.081196,        0.283945,        0.148182},
{       0.047508,       -0.116125,       -0.080396}},

{{       0.019055,       -0.073997,        0.075032},
{      -0.096442,        0.110464,       -0.390719},
{       0.080045,        0.061854,       -0.171491}},

{{      -0.073066,        0.065910,       -0.179642},
{       0.275498,       -0.160876,        0.531894},
{      -0.018305,        0.470773,        0.077828}},

{{      -0.017941,        0.006321,       -0.040024},
{      -0.097957,        0.100860,        0.161328},
{       0.003019,       -0.265287,       -0.697068}},

{{      -0.023762,       -0.090010,        0.029130},
{      -0.024529,       -0.206963,       -0.494966},
{       0.023807,       -0.024502,        0.154398}}},

{{{       0.077050,       -0.048862,        0.022327},
{       0.126403,        0.300918,        0.045196},
{      -0.108701,        0.158323,       -0.076339}},

{{       0.064840,        0.024387,        0.049613},
{      -0.059297,        0.354486,       -0.076983},
{       0.008490,        0.097630,       -0.086172}},

{{      -0.007188,        0.069998,        0.136711},
{       0.010469,        0.393940,       -0.102785},
{       0.030914,       -0.138150,        0.017489}},

{{      -0.265435,       -0.249534,       -0.186412},
{      -0.052733,       -0.321927,        0.129951},
{      -0.070657,       -0.250918,       -0.077606}},

{{      -0.217831,       -0.156054,       -0.061364},
{       0.058183,        0.514870,       -0.071148},
{      -0.147543,       -0.099322,       -0.128215}},

{{      -0.013925,       -0.098037,        0.081549},
{      -0.063128,        0.607115,       -0.039524},
{      -0.088455,       -0.067682,        0.011456}},

{{       0.115311,       -0.062150,       -0.103986},
{      -0.377896,       -0.010631,        0.061113},
{       0.111804,       -0.009833,       -0.062320}},

{{       0.017304,        0.051558,       -0.115821},
{      -0.233459,        0.662950,        0.047585},
{       0.134328,       -0.156806,       -0.005686}},

{{       0.035571,       -0.019847,        0.089606},
{      -0.052482,       -1.005948,       -0.044458},
{       0.127762,       -0.063828,        0.069809}},

{{      -0.030018,        0.011736,       -0.013487},
{      -0.004018,       -0.159374,        0.019866},
{      -0.045630,       -0.010310,        0.060928}},

{{      -0.088700,        0.227281,        0.011420},
{       0.138793,       -0.066200,       -0.031927},
{      -0.033178,        0.215013,        0.092331}},

{{      -0.319574,        0.080443,       -0.092589},
{       0.115500,        0.174511,        0.097690},
{      -0.186593,        0.264602,       -0.167836}},

{{      -0.026799,       -0.082348,        0.077290},
{      -0.039097,       -0.438467,       -0.092839},
{      -0.066739,        0.050192,        0.050977}},

{{       0.416284,       -0.109045,       -0.015126},
{      -0.015259,       -0.181262,       -0.086222},
{       0.214933,        0.232261,        0.019228}},

{{      -0.078053,        0.016901,        0.015135},
{       0.293553,        0.271378,        0.069869},
{       0.093712,       -0.339711,        0.193408}},

{{       0.105596,        0.104816,       -0.015997},
{      -0.132942,       -0.611318,        0.053059},
{       0.048804,        0.000478,        0.062287}}},

{{{       0.087217,        0.282409,        0.394807},
{      -0.235118,        0.068431,        0.172752},
{      -0.036070,       -0.060503,        0.062150}},

{{       0.060337,        0.032138,       -0.172335},
{       0.040243,        0.207232,        0.094312},
{       0.011595,       -0.052463,       -0.177878}},

{{      -0.063228,       -0.087791,        0.451750},
{      -0.066152,        0.040410,        0.085813},
{       0.021674,        0.085009,        0.182848}},

{{       0.047903,        0.069131,       -0.203797},
{       0.253937,        0.194284,        0.106932},
{       0.095341,        0.167367,        0.113493}},

{{       0.013100,        0.308616,        0.137155},
{       0.273136,        0.246562,        0.253902},
{       0.113855,        0.161323,        0.101119}},

{{       0.010142,        0.157480,        0.543624},
{       0.071035,       -0.115374,        0.005548},
{       0.019147,        0.030418,       -0.096096}},

{{       0.025053,       -0.241637,       -0.066014},
{       0.130116,       -0.135719,        0.031800},
{      -0.011343,        0.004703,       -0.040531}},

{{      -0.165515,       -0.225891,        0.277551},
{       0.119184,       -0.053739,       -0.295754},
{      -0.017835,        0.066840,       -0.002807}},

{{       0.064430,       -0.030607,       -0.741332},
{       0.035011,        0.017431,        0.066946},
{      -0.039250,        0.023568,        0.019374}},

{{      -0.091498,        0.018766,       -0.150965},
{       0.010908,       -0.118774,       -0.036947},
{      -0.054398,       -0.031440,       -0.026227}},

{{      -0.086645,        0.075054,       -0.422092},
{      -0.050659,        0.070454,        0.348719},
{       0.109634,        0.022937,        0.028657}},

{{      -0.040416,        0.216669,        0.084600},
{       0.034507,        0.220797,        0.263249},
{       0.155650,        0.091100,       -0.268416}},

{{      -0.096219,        0.009902,       -0.370393},
{      -0.044372,       -0.033581,        0.039291},
{       0.057029,        0.038899,        0.129521}},

{{       0.220795,       -0.193787,        0.007204},
{      -0.080020,        0.023595,        0.189472},
{      -0.067143,       -0.079932,       -0.019909}},

{{      -0.043951,        0.036707,        0.194098},
{      -0.009579,       -0.010890,       -0.542211},
{      -0.105738,        0.028312,        0.198065}},

{{      -0.057019,       -0.255093,       -0.525349},
{      -0.062774,       -0.119384,        0.019456},
{      -0.034647,        0.035572,        0.065728}}},

{{{      -0.296210,        0.462162,        0.144759},
{       0.304363,       -0.382425,       -0.026293},
{       0.079358,        0.095401,        0.072354}},

{{      -0.152760,       -0.042436,        0.066065},
{       0.217433,        0.290304,        0.249742},
{       0.196589,       -0.027937,        0.347317}},

{{      -0.041497,       -0.099688,       -0.189113},
{       0.174778,       -0.614322,       -0.161313},
{      -0.001749,        0.178562,        0.077434}},

{{      -0.046768,       -0.028437,        0.125677},
{      -0.082134,       -0.291163,        0.033751},
{       0.337365,       -0.158102,       -0.179894}},

{{       0.143259,        0.158988,        0.196252},
{       0.006142,       -0.460239,        0.388859},
{       0.443546,        0.192573,        0.053016}},

{{      -0.136304,        0.232033,        0.126705},
{       0.023742,       -0.654851,        0.296723},
{      -0.060921,       -0.061972,        0.104394}},

{{       0.083929,        0.203063,        0.023761},
{       0.087375,        0.161720,       -0.117435},
{      -0.075080,        0.108779,       -0.064293}},

{{       0.126132,        0.048278,       -0.106625},
{       0.225573,       -0.805334,        0.210738},
{       0.158005,        0.268797,       -0.010127}},

{{      -0.190009,       -0.047437,       -0.117509},
{       0.081408,        0.336624,       -0.035757},
{      -0.140275,       -0.051730,       -0.200591}},

{{       0.051364,       -0.015284,        0.026557},
{       0.047597,        0.228942,        0.011933},
{      -0.020949,        0.152771,       -0.102771}},

{{       0.319434,       -0.217580,       -0.132316},
{       0.012538,        0.198573,       -0.069869},
{       0.198106,       -0.078083,       -0.037446}},

{{       0.337048,       -0.351069,        0.279994},
{       0.035780,       -0.424107,       -0.283155},
{       0.509038,       -0.320629,        0.463045}},

{{      -0.039833,       -0.201663,       -0.202623},
{      -0.145333,        0.186390,       -0.281227},
{      -0.033557,        0.158910,        0.056523}},

{{      -0.391289,        0.376473,       -0.177449},
{       0.057485,       -0.495390,        0.993135},
{      -0.112749,       -0.403262,        0.202421}},

{{       0.291807,        0.028911,        0.278753},
{       0.044371,        0.259619,       -0.014880},
{      -0.148864,        0.160528,       -0.179854}},

{{      -0.173023,       -0.102517,       -0.205650},
{      -0.139523,       -0.074827,       -0.293510},
{      -0.140803,       -0.015769,       -0.261850}}}};

const uint16_t shape_Conv2D_1_b = 8;
const float Conv2D_1_b[8] = {       0.452022,        0.172591,       -0.371407,       -0.500682,       -0.592656,        0.437890,       -0.331918,       -0.187654};
