/*
 * author : shtsno24
 * Date : 2020-01-05 15:41:57.192428
 * array_type : int16
 * fractal_width : 14 bit
 * bit_width : 16 bit
 *
 */
#pragma once
#include <stdint.h>

#define data_width_Conv2D_3 16
#define fractal_width_Conv2D_3 14

const uint16_t shape_Conv2D_3_w[] = {16, 8, 3, 3};
const int16_t Conv2D_3_w[16][8][3][3] =
{{{{ 2679,   673,  -400},
{ 2425,   601,    24},
{ -529, -7453,   417}},

{{ -511,  1919,  -483},
{-18142,  2502, -2079},
{ 1654,  3408, -1306}},

{{  784,   165,  -896},
{-14879, -27772,  5699},
{-1777, -1941,  -958}},

{{ 3970,  -822, -1539},
{-1418, -1994,  3629},
{ -490, -3544,   650}},

{{ 7042,  -308, -1400},
{ 2714,    48,   539},
{ -661,  -873,   698}},

{{ 4884,  1470, -2969},
{-4711,   380,   617},
{ 1797, -1907,  -498}},

{{ 1598, -24259,  4995},
{  221, -3819, -1724},
{ -585,  1100,  -395}},

{{ 3963,  -486,  -370},
{-2742, -4590,  1036},
{ 2401,  4274,  -386}}},

{{{ 9827,  1345,  1010},
{-8513,   194,  4820},
{ 3528, -3378, -6543}},

{{ -632,  -551,   666},
{-9674,  -809,  1360},
{ 3699,  4304, -6059}},

{{ -728, -5858, -3661},
{  768,   307,  1921},
{ -590,   220,  -691}},

{{-6850,   579,  3663},
{ 6966, -1861, -4038},
{ 5110, -2916, -3465}},

{{-2190,   436,    62},
{-9655,  -272,   764},
{ -177,   143,  2422}},

{{-3933,  -975, -2591},
{ -866, 10377,  8365},
{ 2035,  1950, -10182}},

{{ -505,  3418, -6895},
{-2779,  3128,  3830},
{ -459, -2001, -1284}},

{{ 5474, -2219,  1089},
{-4334, -11615,  -239},
{-1594,  8540,  3199}}},

{{{ 9419, -1083,  5011},
{-6052, -7913, -5375},
{ 6191, -1553, -2662}},

{{-7032, -3381,  1309},
{-1577,  7067, -2433},
{ 4047, -8149, -3707}},

{{  549, -9898, -5061},
{-2919,  8561,  9084},
{ -191, -3691, -6724}},

{{  508,  2803,  -412},
{ -163, -6005,   704},
{ 7186, -1854, -2593}},

{{ -779,  -682,  1565},
{-3181,  -839,  -287},
{ -498,   815,  1408}},

{{ 2582,  -842,  3107},
{-3587, -1426, -6526},
{ 8993, -4497, -1712}},

{{ 2561, -4112, -1947},
{-2069,  2420, -5229},
{ 1582,   563,   610}},

{{ -195,  -157, -1725},
{ 1623, 15793,  4616},
{-1506,  3356, -3315}}},

{{{ 1444,  2406,  2192},
{ 1154, -7387,   537},
{  802,  2008, -2611}},

{{ 1130,  -465, -1419},
{-14692,  9581,  1074},
{-13434, 16391, -4769}},

{{  -16, -1816,  1637},
{-1470, 10510, -19454},
{ -436, -3034,   687}},

{{  500, -2920,   102},
{ 1725,  9079, -6954},
{-1948,  2446,  -546}},

{{ 3175, -9055,  1761},
{ -846, -6534,  -507},
{ 1504,   748,   559}},

{{  611, -4490,   406},
{  565,  2967,  5069},
{-1265,  3643, -5163}},

{{ -842, -24863, -1000},
{ 2306, -3779, -1523},
{-2160,  3760, -1932}},

{{ 1026,   980, -3721},
{ 1069, -7182,  5180},
{-1704,  2380,   131}}},

{{{-1144,  1022, -2019},
{ 3366, -1543,  -916},
{  -12, -1304,  3321}},

{{-1053,   442,   776},
{-2406,  6463, -4471},
{ 2534, -4548,  2300}},

{{-2850,  2214,   576},
{ 4911, -13460, 15376},
{ -444,   378, -3594}},

{{ 2855,  2400, -4616},
{-1256,  1321,  3798},
{-3687, -3429,  5130}},

{{ 5391,  2916, -1659},
{ 4363,  6470, -1064},
{ -232,  1638,  -157}},

{{ 5755,  3206, -1382},
{-1645, -3381, -4083},
{  633, -4437,  2921}},

{{ 4975,   767, 17454},
{ -636, -1632, -8433},
{ -304,  3269,    36}},

{{  973, -1248, -1574},
{-2100,  2509,  4005},
{ 2519,   587, -4687}}},

{{{ 4924,  1847,   246},
{-1010, -8643,  2584},
{ 3560,  -462, -8102}},

{{  399, -1352,   -83},
{ 3459,   363,  1949},
{-5188,  5701, -1685}},

{{ -144, -1039,  2250},
{-4398, -1193,   -48},
{ -413,   207,   285}},

{{-1819, -4063,  3880},
{ 2654,  4787, -10268},
{  363,  2708, -4350}},

{{-2325, -4671,   929},
{-4161, -7097,  3093},
{ 1763,   -24,  2274}},

{{-2591, -1135, -2778},
{ 1072,  3735,  8187},
{  -82,  3902, -10814}},

{{-3650,   426,   761},
{ -593,   615,  2158},
{ -523,   333, -1713}},

{{ 2041, -3781,   957},
{ -142, -4501,  -572},
{-2133,  4542,  5204}}},

{{{ 7404,  -939,  1785},
{-6535,  3357, -1471},
{ 3489, -3978, -1418}},

{{ -764,  -294,  -510},
{ 3614,   341,  1137},
{ 2943,  1036, -2517}},

{{ -923,   207,  -721},
{ 2634,  2720,  1554},
{-1079,   570,  -116}},

{{-2422, -3106,  3545},
{ 6733, -8831,  -359},
{ 3472, -2562,   614}},

{{-10164,  1623,  -289},
{-8205,  1102,   573},
{  560,   522,   332}},

{{-4473,  1726, -1159},
{  961,  8015,  -628},
{ 1375, -1546, -2895}},

{{ 1411,  4446,  -364},
{ -701,  2930,  -570},
{ -398,  -937,   280}},

{{ 1064, -5357,  1968},
{ -904,  1170,  -429},
{-1901,  5557,  -861}}},

{{{ 6566,  1745,   571},
{-9887,  4161,  1851},
{ 3389, -5093, -2754}},

{{ 2124,   353, -1965},
{-2574,   785,  5410},
{ 4985,  1518, -5976}},

{{  -70, -3603,  1052},
{-5510,  7425, -2048},
{-2283, -6888,   734}},

{{-3745, -1450,  4460},
{ 4586, -8142, -2346},
{10234, -4834,   141}},

{{-5676,  -564, -1397},
{-6880,  2643,  1540},
{ 1120,  2986, -1099}},

{{-4326, -2210, -3486},
{ -805, 10539,  4167},
{ 7909, -1097, -4771}},

{{-3719,  4129, -6638},
{-4213, -3425,  1645},
{ 1716, -8662, -2518}},

{{ 4448,  3941,  2232},
{-8955, -14088, -1547},
{ -911, 11691,  -893}}},

{{{-4061,  2527, -1715},
{ 4124,  3262, -1468},
{ 2867,  6283,  5391}},

{{  530,  1557,   569},
{ 4080, -2120, -1863},
{-5464, -7256,  5732}},

{{ -639,  1513,   643},
{ 2694, -6298,  -626},
{-1033,  6595,  1974}},

{{ 1962, -1194, -1043},
{ 1050, -3353,  7454},
{-5286,  2161,  5830}},

{{ 1049,  1897,  -723},
{ 6212,  -133, -3564},
{-1693, -1984, -2829}},

{{ 2726,  4591,   655},
{ 3096, -8445, -6887},
{ -980, -2039,  8712}},

{{ 1002,  1266, -2136},
{ 5390, -1388,  3723},
{-1662,  1581,  1747}},

{{-3727, -2043, -1561},
{ 4509, 16137,   461},
{ -662, -13664, -3091}}},

{{{-1879,  4323, -1203},
{ 4868, -2167,  1113},
{ 1762,  2016,  1111}},

{{-2009,   545,   956},
{  239,  2102, -1730},
{ 3211, -1331,   659}},

{{-3888,  1600,  -842},
{ 5683,  9231,  5664},
{  805,  2230, -1983}},

{{ 2938,  1599, -3318},
{ -946, -2868,  5077},
{ -833,   851,   723}},

{{  716,  3109,  -800},
{ 2297, -1618, -1578},
{-2347, -2002,  -228}},

{{ 4705,  5411, -1272},
{  112, -7900, -2052},
{  954,   467,  3869}},

{{ 4571,  9596,  7126},
{ 1898, -3260,   202},
{-1059,  2899,   165}},

{{-3458,   -53, -1763},
{ 5105,  5697,  1346},
{-1901, -2790, -1108}}},

{{{ 3410,   564,   511},
{-1454, -2396,  1908},
{ -617, -5687, -6402}},

{{ 1056, -1776,   306},
{-2748, -2592,  1579},
{ 2476,  8936, -7079}},

{{  116, -2152, -1066},
{-2008, -1332, -1707},
{-1016,  2006,    56}},

{{  744,  1975,   963},
{-3174, -2747,  -987},
{ 4972,  3024, -10662}},

{{ 1376,  1591,   473},
{-4886, -4004,  2616},
{ -831, -3723,  3589}},

{{  626,  1232, -2027},
{-2956,  1156,  5953},
{ 1061,  6195, -7395}},

{{   40,   236, -5928},
{-4393,  4005,  6981},
{  329, -1927, -1476}},

{{ 3096,  2583,  2805},
{-1901, -14648, -3880},
{-1033,  8198,  4934}}},

{{{ 9792, -5010,  2567},
{-5540, -1587,   -57},
{ 4664, -5365, -2287}},

{{  501, -3454,   698},
{ 7356,  8128,   262},
{-1320, -5487, -2013}},

{{ -255,   533,  1383},
{-1927, -2878,  6071},
{ -888, -2081, -2420}},

{{-2512,  -938,  4327},
{ 4628, -1531, -6675},
{ 1635,  2042,  -563}},

{{-9307, -1422,   744},
{-4022, -1108,  3411},
{ 3853,   361,   617}},

{{-7084,  -697, -1507},
{ 2066,  9239,  2883},
{  207,  -695, -5571}},

{{-2886,  3179,  -463},
{  292, -4949, -8035},
{  396,  1268,  -665}},

{{ 6979, -8157,  1808},
{-5563,  1264,   731},
{-1087,  7106,    16}}},

{{{ 9895,  -375,   861},
{-8428,  4027,   815},
{ 2527, -3929,   165}},

{{-1420,   236,  -150},
{ 9111, -1187,   607},
{ 6315, -1468, -1724}},

{{-2105,  1101, -1127},
{ 4372, -8138,  1748},
{-2099,     8,  -754}},

{{-5306,   166,  5867},
{10407, -8983,  1552},
{ 2944, -4177,  3288}},

{{-10919,   986,  -321},
{-9948,  4391, -1544},
{ 1677,  1437,  -177}},

{{-10322,  2991, -3027},
{ 5120,  8270,   153},
{ -576, -3969, -1385}},

{{ 1249, -1209,   467},
{-2518,  5488, -2258},
{   75, -3223,  1003}},

{{ 3464, -4568,  1573},
{-6042,   564,   593},
{  986,  6986, -3915}}},

{{{-1254,  -291,  -529},
{ 1651,   773,  -283},
{-3052,   974, -5114}},

{{  503,  3779, -2740},
{-3847,  -884, -2482},
{-1401,  3541, -3359}},

{{ 1037,  5414,  -473},
{-1346, -1085, -3670},
{ 1566, -2815, -3327}},

{{ 1316, -3671,  2312},
{-3024,  1908, -4348},
{ -110, -1926, -3466}},

{{-2368,  -239,  1386},
{-3539, -3241, -1226},
{-1261, -3748,  1001}},

{{ 1098, -1671, -5034},
{ 2584, -4677,   598},
{-1525,  1877,  2854}},

{{  484, -2143, -6059},
{-1169,  3064, -2358},
{-2274,   688, -5137}},

{{-1423, -2114, -5027},
{-2470, -1706,  1000},
{-4716, -3801,  -852}}},

{{{-4894, -2195, -1744},
{  141,  2027, -4938},
{  974,  4218,  7462}},

{{ 1003,   859,  -160},
{ 3162,  -122, -2292},
{-5930, -11768,  6310}},

{{ 1579,   439,   941},
{  161, -2061,  2312},
{-1797,  4264,  -264}},

{{  586, -1444, -1747},
{ -781,  1182,  3644},
{-5811,  -525,  8079}},

{{ 2948,   225,   301},
{ 7095,  6989, -2792},
{ 1084,  1518, -2505}},

{{ 1740,    60,  2156},
{ 1403, -4288, -8910},
{ -548, -6128,  7895}},

{{-1187, -1355,  3663},
{ 2463, -1088, -4729},
{  237,   627,  2283}},

{{-1686, -1740,  -631},
{ -559, 13588,  1446},
{ 2162, -9819, -5194}}},

{{{  336,  1825,   -98},
{-4812, -4445,  2915},
{ 2638, -1951,  2091}},

{{  -85, -1507,    49},
{14223, -6585, -1210},
{-2959,   283,  2040}},

{{  616,  7155, -6325},
{ 1794,  2912, -3543},
{  221, -1536,  1476}},

{{-1131, -3152,  3822},
{ 6299, -9503,  1137},
{  676, -1829,  2768}},

{{-11266,  5324,    -2},
{-5105,  3152,   -46},
{ 2780,    87,  -551}},

{{-7747,  7317, -2449},
{ 4714, -4275,  2431},
{-2212,  -433,   246}},

{{-2400, 14574, -9778},
{ 1471, -3642,   176},
{ -276,   807,   752}},

{{-4052, -2177,  1952},
{ 5172,  5192, -1622},
{-3130,  1067, -1058}}}};

const uint16_t shape_Conv2D_3_b = 16;
const int16_t Conv2D_3_b[16] = {-2799, 16725,  4473, 13454, -1456, 17287, 14085, 11716, -23801, -1806, 24101, 15680, 14969,  -261, -14086, 13520};
