/*
 * author : shtsno24
 * Date : 2019-10-10 18:05:28.983705
 *
 */
const float Conv2D_2_w[16][8][3][3] =
{{{{-0.1142051, 0.07929023, 0.0042793374},
{-0.16918398, 0.0861022, 0.08267856},
{-0.10917548, 0.05976223, 0.009192943}},

{{-0.08700069, 0.04831836, -0.0740862},
{-0.018881552, -0.14388768, -0.09526756},
{0.08657413, -0.11697105, -0.10369198}},

{{-0.16223522, -0.15034454, -0.14805181},
{-0.085833624, -0.11516562, -0.16713858},
{0.025714003, 0.110607535, -0.16222699}},

{{-0.021445323, -0.029132979, 0.031966683},
{0.053271737, 0.04465782, 0.1344515},
{-0.069806546, -0.15282387, 0.014622929}},

{{0.14396146, -0.12430782, 0.028682407},
{0.057026986, 0.103469156, 0.07483618},
{-0.16173624, -0.1010654, 0.012464682}},

{{0.024001567, 0.1304068, 0.12758991},
{0.02737709, 0.060791384, -0.10802686},
{0.12635209, -0.023421034, -0.1799024}},

{{0.13291217, 0.12186737, -0.09070068},
{0.13942945, -0.031854596, -0.10942896},
{0.036095757, -0.14109363, -0.11895886}},

{{-0.026167542, -0.021337045, -0.12789382},
{0.08683501, -0.03579417, -0.14222899},
{-0.18328127, -0.18446904, 0.052688442}}},

{{{0.09871527, -0.028678404, 0.015821127},
{0.038450923, -0.07155813, 0.0735351},
{0.1564707, -0.10717889, 0.09961396}},

{{-0.026950385, 0.083790615, -0.009782782},
{0.11268558, -0.10086119, -0.03616524},
{0.038762614, -0.039775625, 0.10754426}},

{{-0.027879229, -0.08275941, 0.008899183},
{-0.10070853, -0.094081186, 0.013311839},
{-0.05892344, 0.0617295, -0.1478966}},

{{-0.15510812, 0.100502305, 0.110203706},
{-0.13720568, -0.16008042, -0.03625578},
{0.025201708, -0.14988384, -0.15143971}},

{{0.028831324, -0.02363857, 0.1151728},
{0.02235216, 0.0135285035, 0.035913575},
{0.14689265, 0.16582957, -0.06765105}},

{{-0.027324328, 0.15316015, 0.14339013},
{0.14431907, 0.15096441, -0.0130617125},
{-0.14434543, 0.028106235, -0.08056387}},

{{-0.075060904, 0.009355276, 0.06139376},
{0.16219787, -0.09095597, 0.05426918},
{0.16928448, 0.13118154, -0.052261468}},

{{0.14867772, 0.10804137, -0.0045643426},
{0.08258107, 0.05833141, 0.12209341},
{-0.11273187, 0.0032093928, -0.12820028}}},

{{{-0.12736347, 0.104382485, -0.11310047},
{0.18204652, -0.04572822, -0.115788594},
{0.15471426, 0.1199073, -0.08654792}},

{{0.16152598, 0.07303359, 0.07450614},
{0.05584008, -0.068770036, 0.080482304},
{0.14813508, -0.08130473, 0.1385317}},

{{-0.15615226, 0.03330163, -0.11807605},
{-0.12327976, 0.16512819, 0.17029966},
{-0.1140076, 0.002707589, 0.06912875}},

{{-0.01822819, -0.059545908, 0.15679398},
{0.04978259, -0.04202122, 0.11278711},
{0.037430905, -0.006655474, -0.10714689}},

{{0.09868463, 0.10691091, 0.0851602},
{0.13179635, 0.092863746, 0.02859207},
{-0.009942096, 0.12667623, -0.04218389}},

{{0.08866315, 0.06240057, -0.12120532},
{-0.15660848, -0.07514625, 0.08427745},
{-0.12225248, -0.14673746, 0.029984156}},

{{0.07860924, 0.1456302, 0.15368485},
{-0.14515196, 0.16869324, -0.14227337},
{0.089103386, -0.12324813, -0.02618276}},

{{-0.0060063307, 0.12683327, -0.013597394},
{0.10410178, 0.08433834, -0.051653355},
{-0.10124747, -0.16497537, 0.11902302}}},

{{{-0.13047129, -0.13980749, 0.047042735},
{-0.060875773, 0.016295623, 0.03827031},
{-0.031641588, 0.1609055, 0.16259652}},

{{-0.14073534, 0.10918718, -0.15603466},
{-0.09805711, -0.050499294, 0.03372986},
{-0.1522588, 0.10478373, 0.13684225}},

{{-0.05173299, -0.07516313, -0.065228984},
{0.12962823, -0.103112176, -0.07758785},
{0.06479334, 0.12639733, -0.10070345}},

{{0.0048513315, 0.026858287, -0.009530926},
{-0.121875696, 0.11460369, 0.06862401},
{-0.06242117, -0.06348014, 0.070906796}},

{{-0.02182496, -0.1414961, -0.05298},
{0.17527056, 0.007024663, 0.03753515},
{-0.13571697, -0.064947754, 0.016851379}},

{{0.03046808, 0.17032829, 0.12676746},
{-0.05410299, -0.06567901, 0.14530382},
{0.109972715, -0.03057595, -0.1321097}},

{{-0.16739036, 0.040998347, 0.12096415},
{0.02521468, 0.114978, -0.09067601},
{-0.1494887, -0.09980606, -0.003518355}},

{{0.09416103, -0.09522435, 0.15234232},
{0.024638848, 0.1117732, -0.14060912},
{0.10090863, 0.19481686, 0.18112634}}},

{{{0.09338809, -0.04075485, -0.019125162},
{0.14187977, -0.01816742, -0.022322128},
{0.17125429, -0.15022989, 0.18781462}},

{{-0.024679229, 0.05813281, 0.01912775},
{-0.12590666, -0.12910461, -0.041666985},
{-0.032605655, -0.14474946, 0.19712633}},

{{0.022725653, 0.00256214, -0.025279036},
{-0.030762477, 0.076563396, 0.048370697},
{0.036784854, -0.16553538, 0.051370285}},

{{0.06371267, -0.06422357, 0.18616721},
{-0.14436132, -0.13232237, -0.025798138},
{0.1060618, -0.19075897, 0.03988241}},

{{0.09591902, 0.0155463535, 0.05485946},
{0.0065778657, -0.04712161, -0.012497722},
{0.1392544, -0.089760184, -0.014557462}},

{{0.18033816, -0.13923493, 0.1915634},
{-0.10513012, 0.18772225, 0.062466327},
{-0.09810724, 0.07492352, 0.024022479}},

{{-0.12823935, -0.01609946, 0.083789},
{0.007989949, -0.10120969, -0.13104007},
{-0.10035277, 0.043019425, 0.046662085}},

{{-0.12003175, -0.21756676, -0.07150382},
{0.12999736, -0.13093477, -0.09198137},
{0.02650385, 0.3255826, 0.2550447}}},

{{{-0.01245675, -0.105320305, -0.00019835721},
{-0.11745043, 0.06676528, -0.033653267},
{0.022376735, -0.019884275, 0.07136403}},

{{0.03382661, 0.06623143, 0.1582856},
{-0.007950745, 0.12374015, 0.13430387},
{0.019790644, 0.09159024, -0.16670817}},

{{0.12870556, 0.09128079, -0.120849416},
{-0.14377268, 0.06700451, -0.002501996},
{0.03357591, 0.06065595, 0.15451425}},

{{-0.03565606, 0.04763711, -0.038882595},
{-0.025425768, 0.03750683, 0.103731275},
{0.03712509, 0.09121169, 0.013233935}},

{{-0.03030599, 0.16490348, -0.12014636},
{-0.17187093, -0.03947663, 0.1672724},
{0.120045505, -0.00896642, 0.080597185}},

{{-0.13753478, 0.08656612, 0.11403175},
{0.10062249, -0.0741438, -0.015756277},
{0.112561785, 0.08740225, 0.036147304}},

{{-0.13840732, 0.030251985, 0.07319474},
{-0.026399659, -0.1183957, -0.12643068},
{0.031635, 0.03774608, 0.096923806}},

{{-0.08972379, 0.11219485, -0.07255792},
{0.01011518, -0.02945053, -0.04534048},
{-0.07594705, -0.018346123, -0.07648917}}},

{{{0.069247454, -0.11568153, 0.10571199},
{-0.04820732, -0.16961873, -0.09911778},
{-0.040774018, -0.045074265, -0.09305666}},

{{0.13397908, 0.019209493, 0.050533995},
{0.13713178, -0.037385598, -0.057661258},
{-0.17291753, 0.13917394, -0.12102826}},

{{-0.11642511, -0.15464035, -0.061662074},
{-0.11458402, -0.097853094, 0.0043977243},
{0.10755609, -0.07009552, -0.10064998}},

{{-0.0032127465, 0.14628981, -0.019934809},
{-0.16038124, 0.023586037, 0.123264305},
{-0.0047636465, -0.011625569, -0.035784986}},

{{0.11795974, -0.09127671, 0.025584461},
{0.111461654, 0.03885761, -0.060440075},
{0.027705543, 0.025132887, -0.08132455}},

{{0.03387212, -0.07957601, -0.10222281},
{-0.053875264, 0.1508153, 0.15692732},
{0.11618775, -0.014388061, -0.085447036}},

{{0.0026521583, -0.025282102, -0.022524912},
{-0.13226694, 0.055396963, -0.0011233283},
{0.1361801, -0.040401563, 0.14645633}},

{{-0.156791, 0.14466898, 0.09717104},
{-0.12936974, 0.16349395, -0.02993628},
{-0.15671486, 0.024299085, -0.17335461}}},

{{{-0.12481351, -0.14566725, 0.12740453},
{-0.02574589, 0.11890197, 0.16457574},
{-0.15364122, 0.057593256, -0.1488849}},

{{0.036922142, 0.06492279, -0.07192222},
{0.08223602, -0.16469973, -0.10520512},
{0.023627877, -0.020538388, 0.025290316}},

{{-0.013428938, -0.15183392, -0.10524383},
{-0.12325617, 0.028791264, -0.11129845},
{-0.0851412, -0.023041125, 0.036291637}},

{{-0.023095254, 0.099308066, -0.0027628413},
{-0.16106227, -0.0872193, -0.16920002},
{-0.06642959, -0.11363621, 0.03667176}},

{{-0.11708305, 0.06361459, -0.021997249},
{0.06961936, 0.14214553, 0.11815694},
{0.008503204, -0.16460197, -0.11555285}},

{{-0.055358052, -0.033398427, 0.099188805},
{0.10924598, -0.10810688, 0.1309931},
{-0.12467735, 0.012611762, -0.011276698}},

{{-0.013826038, 0.13149092, -0.14333586},
{-0.037091035, -0.07935902, -0.1263637},
{-0.12281648, -0.10623303, 0.028214378}},

{{-0.13199298, 0.093282536, 0.16554892},
{-0.12598678, -0.124223664, -0.061965786},
{0.06941271, -0.041750755, -0.1452393}}},

{{{-0.13172157, 0.12303225, 0.016136479},
{0.07894706, 0.13561147, 0.11452262},
{-0.04147231, 0.15766272, 0.11487415}},

{{-0.041153286, -0.12002303, -0.05091315},
{0.069229245, 0.12443448, 0.028505005},
{-0.15068978, -0.13597977, -0.058802698}},

{{-0.13578847, -0.017469041, -0.021177376},
{0.038615495, -0.024238596, -0.098177016},
{-0.063296, -0.14385179, -0.060729686}},

{{0.00187333, 0.10303263, 0.0041847513},
{0.114115864, 0.062396936, 0.11328185},
{0.12242067, -0.02330525, 0.1282369}},

{{-0.0135018835, -0.13448967, 0.09660854},
{0.06510113, 0.12705612, 0.17371577},
{0.12689762, -0.03462266, 0.10289762}},

{{0.102577485, -0.15955625, -0.15203065},
{0.049796257, 0.02228152, -0.08827872},
{0.0008478142, 0.06993894, -0.03156275}},

{{-0.09743547, -0.13206732, -0.08914746},
{-0.14425579, -0.07589492, -0.04191929},
{-0.05831998, -0.1059106, 0.08390344}},

{{0.049328707, 0.15096115, 0.022109011},
{0.10632303, -0.115857385, -0.039349474},
{-0.06232158, -0.19022188, -0.115652494}}},

{{{-0.07162562, -0.023029031, 0.013726594},
{0.12434166, -0.111345895, -0.09870366},
{0.15300605, 0.00058059674, 0.15129586}},

{{-0.12344393, 0.048439547, 0.096789785},
{-0.08118526, 0.04759542, 0.010126484},
{-0.01226832, 0.14128399, 0.10559158}},

{{-0.1532271, -0.003651019, 0.037394244},
{0.012892007, 0.049966663, -0.104022674},
{-0.015891526, -0.14691491, 0.046475146}},

{{-0.043037027, -0.02551435, -0.03894067},
{0.146765, 0.011834601, -0.06650903},
{0.07260018, -0.124552295, -0.15561906}},

{{0.20061174, -0.10972138, -0.13381697},
{-0.12983586, 0.14115854, -0.080508046},
{0.12643477, 0.15134563, 0.1594769}},

{{-0.14297415, -0.07249318, -0.088950686},
{0.035982076, 0.12991306, -0.092086755},
{-0.06392628, 0.15604067, 0.012171546}},

{{0.04673996, -0.021654848, 0.03161407},
{-0.012214665, -0.13594359, -0.061489303},
{-0.03178346, -0.118134916, -0.073206194}},

{{-0.12238213, -0.16563603, -0.040290426},
{0.12220052, -0.10881159, -0.074186064},
{-0.0059408853, -0.099454425, 0.03615673}}},

{{{-0.006423947, -0.08056712, -0.11724243},
{0.11112405, -0.15421996, -0.13400275},
{-0.16376197, -0.13186415, -0.043624174}},

{{0.023560477, 0.11026899, -0.07520525},
{0.05955253, -0.14255022, 0.088645175},
{0.033146434, 0.11658549, -0.08633633}},

{{-0.16415118, -0.058865756, -0.046236157},
{-0.15977994, 0.10226277, 0.15468743},
{-0.1478564, 0.05009234, -0.1392186}},

{{0.07928914, 0.016058363, -0.00310128},
{0.053669687, 0.06106524, -0.023681153},
{-0.076847896, -0.14196756, -0.15623416}},

{{-0.059227265, 0.09029006, 0.07122299},
{-0.12854804, -0.09857026, 0.14415434},
{0.0323711, -0.042261753, 0.028789436}},

{{-0.1037095, -0.029720487, -0.1267994},
{-0.0013884468, -0.03071761, -0.13135263},
{-0.15204486, -0.017280985, -0.04961066}},

{{0.14083675, 0.06691528, -0.16467915},
{-0.03233575, -0.09540213, 0.029169776},
{0.025004778, -0.13711739, -0.050895695}},

{{-0.014120279, 0.1484279, 0.008347795},
{0.10588508, -0.08539614, 0.14936863},
{-0.057813883, -0.07568336, -0.01512807}}},

{{{-0.01530931, 0.006475355, -0.1092082},
{-0.02484934, 0.10822453, 0.11287294},
{0.15710646, -0.120605506, -0.01921397}},

{{0.05685132, 0.07410306, 0.0012094172},
{0.0049502803, -0.07097958, -0.06798373},
{-0.028848676, -0.048312906, 0.043153938}},

{{-0.063706964, 0.04092085, -0.14147301},
{-0.08475543, 0.14083159, -0.030083874},
{0.050821137, -0.14946732, -0.011351711}},

{{-0.019519819, -0.06610387, -0.017854316},
{0.15180908, -0.15949488, -0.114919946},
{0.088478394, -0.13949114, 0.15669504}},

{{0.10159702, -0.02533282, 0.053014215},
{0.13995694, 0.07179515, -0.084219575},
{-0.062291157, 0.026591586, -0.0274936}},

{{-0.05399681, -0.028691726, 0.14231014},
{-0.14167641, -0.047908515, -0.06021675},
{-0.06815352, 0.16847289, 0.06572421}},

{{0.062444977, 0.07672903, 0.025187729},
{-0.1091426, -0.02254469, -0.10742719},
{0.026615646, 0.07300523, -0.13763088}},

{{0.10918274, 0.04748221, -0.027669564},
{-0.035987183, 0.09212934, -0.033314772},
{-0.04982067, 0.024791535, -0.025443468}}},

{{{0.07417851, 0.04846789, 0.1021025},
{-0.0283379, -0.11267342, -0.15819868},
{-0.14191608, -0.040627826, 0.03223243}},

{{-0.10659061, 0.012675267, -0.0024449104},
{-0.0077208285, 0.0005593079, -0.058681913},
{-0.13212083, -0.11123502, -0.15564035}},

{{-0.054476988, 0.13253844, 0.113691114},
{-0.049386658, 0.03713465, 0.06925602},
{-0.059692603, -0.08542056, -0.1639062}},

{{-0.13336824, -0.12744495, 0.15145613},
{0.053623732, -0.07022977, -0.068514936},
{0.08060985, -0.1360783, 0.0019826617}},

{{0.004046702, -0.10404483, -0.014616471},
{-0.040866353, 0.044432722, -0.075806655},
{-0.06870716, -0.10098321, -0.12086717}},

{{-0.15691543, -0.059865423, 0.075631455},
{0.039272856, 0.06969226, -0.16328304},
{0.1375715, -0.10406322, 0.11218341}},

{{0.06091796, -0.13308448, -0.12785433},
{0.15970302, 0.104610845, -0.039891213},
{0.14600402, 0.13910289, -0.14717227}},

{{0.045892466, -0.026491452, -0.11895174},
{-0.1615616, -0.09474396, -0.02811895},
{-0.1112996, 0.13337721, 0.12825927}}},

{{{-0.07500842, -0.09645471, -0.10367281},
{-0.044070814, -0.13623336, -0.09401731},
{-0.047076955, -0.111766756, 0.030286182}},

{{-0.031750243, 0.0048247753, -0.15208733},
{0.017965226, -0.03772632, -0.12581345},
{-0.122342564, -0.11778491, 0.09439322}},

{{-0.15203053, 0.020698229, 0.08511846},
{-0.14448957, -0.01760481, -0.10184217},
{-0.07484896, 0.021783201, -0.031994436}},

{{-0.15247078, 0.04613596, -0.10398611},
{0.15489823, 0.06748469, 0.07792634},
{-0.041330036, -0.15577027, 0.03613624}},

{{-0.13254356, 0.067157485, 0.068882756},
{-0.07697467, -0.041231513, 0.011518789},
{0.004756752, -0.16538848, -0.0662807}},

{{-0.029550971, -0.061973825, -0.060830835},
{0.15833293, -0.16547394, 0.11894173},
{0.12804204, -0.039016202, 0.06884627}},

{{-0.026717272, -0.1476102, 0.024383355},
{0.1591491, -0.02116415, -0.16259798},
{-0.15550064, 0.13091256, -0.16333583}},

{{-0.11480064, 0.003726424, 0.058767464},
{0.15707499, -0.118282326, -0.025594769},
{-0.13833702, -0.045019154, 0.020014118}}},

{{{-0.07081199, 0.080696024, 0.026572792},
{-0.067590736, -0.12640604, -0.042286947},
{0.03700105, 0.14865676, -0.12213096}},

{{-0.02010397, -0.07860754, -0.17042807},
{-0.09351875, -0.13388918, 0.100141324},
{-0.16981202, -0.1355227, -0.02511573}},

{{-0.02526479, 0.118682735, 0.12147289},
{0.1065409, 0.064840436, -0.09659083},
{0.006714802, -0.16310796, -0.08394985}},

{{0.05255888, 0.03450139, 0.05723786},
{-0.06561532, -0.13180815, -0.08321857},
{-0.08751218, -0.10022776, 0.051944826}},

{{0.09812892, -0.12369868, -0.13290578},
{-0.08018839, 0.08535552, 0.14919971},
{-0.11485518, 0.112612076, -0.030679703}},

{{0.008520759, -0.11241148, -0.13832432},
{0.05893089, -0.08703731, -0.14632143},
{-0.0055606216, 0.07818567, 0.080625035}},

{{-0.040331136, -0.13309503, -0.12873018},
{0.08684652, 0.061314296, -0.10363654},
{-0.12458633, -0.01630436, 0.11254254}},

{{0.11041651, -0.04244241, 0.13539729},
{0.041506995, 0.0008930616, 0.060098782},
{0.130228, -0.08657516, 0.04262075}}},

{{{0.03781764, 0.010698769, -0.020357769},
{-0.16199574, 0.1590721, -0.08709442},
{-0.12695438, -0.12902583, -0.1311834}},

{{0.05651288, 0.12359428, -0.07205075},
{0.037682064, -0.10560798, -0.14104825},
{0.037518602, 0.06996442, -0.012671353}},

{{-0.05860094, 0.102400415, -0.13683522},
{0.029112402, -0.029418267, 0.13303852},
{0.036475055, -0.09027865, 0.013189019}},

{{0.15230176, 0.048008233, 0.060608473},
{-0.08786319, 0.021397969, 0.1272813},
{0.10334714, 0.14654692, -0.047594648}},

{{0.07427778, 0.08728869, -0.028286044},
{0.0952094, 0.09290619, -0.048483256},
{-0.111209705, 0.12694456, -0.07956398}},

{{-0.12700205, 0.15167837, -0.0817223},
{-0.14295545, 0.0488793, -0.024295837},
{0.011215925, 0.08330024, -0.06265174}},

{{-0.107368775, -0.028508618, 0.009425366},
{-0.022557307, -0.15640272, -0.044816263},
{0.0633017, -0.10322959, 0.025886256}},

{{-0.025576422, -0.1277663, 0.08123518},
{-0.060332205, -0.080162935, 0.13685815},
{-0.107081465, -0.13053194, 0.113628946}}}};

const float Conv2D_2_b[16] = {-0.02485641, 0.005635222, 0.0011309449, 0.012187686, 0.03480037, -0.0049606557, -0.018005716, -0.004313592, -0.0058393925, 0.015397766, -0.009572996, 0.014780236, -0.00242487, -0.0049998304, -0.008452385, 0.0061556036};
