/*
 * author : shtsno24
 * Date : 2019-10-14 11:51:21.809751
 *
 */
#pragma once
#include <stdint.h>

const uint16_t shape_Conv2D_3_w[] = {1, 16, 3, 3};
const float Conv2D_3_w[1][16][3][3] =
{{{{0.11759843, -0.18879493, -0.04711956},
{0.05625842, -0.02450753, 0.19330695},
{0.007129892, 0.13069165, 0.06300884}},

{{0.0827264, -0.15310283, -0.072610326},
{0.071168095, 0.1505598, -0.050906137},
{-0.0675043, 0.17520154, 0.05195535}},

{{-0.027076133, 0.057102744, -0.08973221},
{0.009846484, -0.025981216, 0.12058989},
{0.10719384, 0.041956816, -0.13419919}},

{{0.11608648, 0.06820741, 0.08090975},
{0.14732535, -0.13632098, -0.05484515},
{0.12095253, -0.17894045, 0.10229662}},

{{0.17298198, -0.1405481, -0.098610066},
{-0.12907271, -0.025202252, 0.18637449},
{-0.111080684, -0.04452808, 0.039440148}},

{{-0.031134397, -0.11994195, 0.019398203},
{-0.059195876, -0.136207, 0.03291756},
{0.17236985, -0.10934949, -0.07940625}},

{{-0.13334654, 0.052508418, -0.12077383},
{0.16637646, -0.15236089, -0.04547309},
{-0.06495824, 0.01368456, -0.16386771}},

{{-0.017931055, -0.14553793, -0.048353836},
{0.0047139777, 0.11827128, 0.09385644},
{-0.11982752, 0.10854138, 0.12749471}},

{{0.1499209, -0.15552637, 0.15043442},
{-0.03195705, 0.13887876, 0.1671888},
{-0.0022673095, 0.087305665, -0.11663057}},

{{0.06626345, 0.0014198625, 0.18371737},
{-0.17445025, -0.035623405, -0.013717259},
{-0.13551468, -0.17954433, -0.017563706}},

{{-0.18499935, 0.07302927, -0.11606132},
{0.02720483, 0.07759349, -0.03599892},
{0.17889227, -0.1902797, -0.009561763}},

{{-0.1831419, -0.04060588, -0.021714404},
{0.08915236, 0.046898562, 0.116002426},
{0.114372864, -0.07981321, 0.16183043}},

{{-0.020190652, 0.17014395, -0.0006202498},
{-0.15503825, -0.16387478, -0.026171247},
{-0.08225116, -0.12020261, -0.0567565}},

{{-0.17538331, -0.080294825, -0.17540039},
{0.094579436, 0.07159456, -0.13300233},
{-0.016872052, -0.03157424, -0.056544986}},

{{0.008837867, 0.061472796, -0.15764964},
{-0.014397427, -0.13277677, 0.16132544},
{0.00047675497, 0.019802865, 0.024951056}},

{{-0.09592947, 0.1492212, -0.07745935},
{0.11833474, -0.08732989, 0.15653953},
{-0.1880931, 0.08747778, 0.003930205}}}};

const uint16_t shape_Conv2D_3_b = 1;
const float Conv2D_3_b[1] = {0.0014050567};
