/*
 * author : shtsno24
 * Date : 2019-10-10 18:05:28.985875
 *
 */
const float Conv2D_3_w[1][16][3][3] =
{{{{-0.17607924, 0.0609062, -0.18425639},
{-0.0775453, 0.18037567, 0.10730921},
{-0.029620208, 0.10614665, 0.10063178}},

{{0.0035327966, -0.1766426, 0.14272428},
{0.037909392, 0.0918735, -0.08256439},
{-0.052180637, -0.10962058, -0.1915351}},

{{-0.01953109, -0.13782471, 0.18841662},
{-0.09573164, -0.14457346, 0.116031334},
{0.1410006, 0.11704723, 0.03081434}},

{{-0.058811616, -0.037856184, -0.008451545},
{-0.055301074, -0.112889536, -0.17804974},
{-0.081138514, -0.12702042, -0.057440702}},

{{-0.30957624, -0.3988953, -0.18088965},
{-0.15877727, -0.05776214, -0.22764023},
{-0.07771092, -0.046628345, -0.019906119}},

{{-0.081192605, 0.13123335, 0.041479457},
{0.15240161, -0.08479341, -0.16718923},
{-0.031767894, -0.00989036, 0.20172215}},

{{0.14082365, -0.20139284, 0.08584315},
{0.17478469, 0.04482065, 0.13600656},
{0.13634673, 0.06673746, 0.0555954}},

{{0.14864476, -0.16908239, -0.17291781},
{0.13652499, -0.17350696, -0.01694884},
{0.017414743, -0.048689388, 0.04248915}},

{{0.16227534, 0.1535902, -0.060591195},
{0.14001352, 0.16789573, -0.07562506},
{0.18972099, 0.14390947, 0.13427533}},

{{0.062403504, -0.07637379, -0.08720089},
{-0.16478443, 0.043532897, 0.13091414},
{-0.19984977, -0.040693223, -0.08254728}},

{{-0.1510709, 0.08873041, 0.18024941},
{0.029755536, -0.17233272, 0.14598528},
{0.1675923, -0.01989741, 0.15757324}},

{{0.13901332, -0.009703261, 0.13145818},
{-0.12732087, 0.06028481, -0.19318807},
{-0.039261244, -0.22298948, -0.14812502}},

{{-0.036523107, 0.070676, -0.081786335},
{0.089734554, -0.11703756, 0.03907203},
{0.1422345, -0.08423023, 0.017788528}},

{{0.06148743, 0.09944269, -0.15349121},
{0.13724893, 0.049180485, -0.16904494},
{0.14311838, 0.03710631, -0.16398065}},

{{0.17194365, 0.16412616, -0.020178145},
{-0.059684373, 0.18409792, 0.06368935},
{-0.15714863, 0.1536603, -0.17974982}},

{{0.060416415, -0.020227252, -0.02183818},
{-0.15685381, -0.11898583, -0.13597183},
{-0.028983163, -0.06536889, 0.012149993}}}};

const float Conv2D_3_b[1] = {0.0029858379};
