/*
 * author : shtsno24
 * Date : 2019-10-11 14:59:05.165965
 *
 */
const float Conv2D_0_w[16][1][3][3] =
{{{{0.10957713, -0.14035052, 0.1933728},
{0.10892112, -0.01914423, 0.07561883},
{0.01794293, -0.14466235, -0.082593545}}},

{{{-0.13310732, 0.09466434, 0.117288366},
{0.011059989, -0.011480546, -0.1727108},
{-0.14593862, 0.15266158, -0.042010587}}},

{{{0.12629999, -0.045100864, -0.0571734},
{-0.17927626, -0.16895919, 0.13950466},
{-0.09025936, 0.008496132, -0.023972666}}},

{{{-0.109605476, -0.04630377, 0.09546285},
{-0.054704238, 0.19034907, 0.15641889},
{0.055993665, -0.047799293, -0.121348724}}},

{{{-0.17967452, 0.12065868, -0.035589587},
{-0.19539484, 0.19653282, -0.18713216},
{0.021793736, 0.007015091, -0.03744148}}},

{{{-0.053706452, 0.08391852, -0.19574086},
{0.056225166, -0.124902435, -0.07111587},
{0.049664192, 0.17908703, 0.08694632}}},

{{{-0.019280542, 0.03339659, 0.11141363},
{-0.07358538, -0.092380196, -0.08539178},
{0.14206196, 0.05409072, 0.103655875}}},

{{{0.11516319, -0.17501648, -0.0226623},
{0.06414714, 0.017863197, 0.18136911},
{0.08236984, -0.082639314, 0.07705109}}},

{{{-0.018102672, -0.027026251, -0.06442993},
{-0.09111859, -5.5196186e-05, 0.10406911},
{0.092168875, -0.014263611, -0.1400504}}},

{{{0.15894231, -0.07873514, 0.0942645},
{-0.107186615, 0.16325197, -0.069217406},
{0.14441201, 0.055073906, 0.032227214}}},

{{{-0.17296062, 0.077534914, -0.04254249},
{0.10587009, -0.05772329, -0.100544386},
{-0.057396848, 0.18891436, 0.11849529}}},

{{{0.079243146, 0.16067283, -0.18496622},
{0.10232901, -0.16300268, -0.11839827},
{-0.14849536, 0.070543155, 0.11326805}}},

{{{0.08349529, -0.06956017, 0.021239024},
{-0.049433686, -0.16231617, 0.17380352},
{-0.004825597, -0.18570995, -0.06337505}}},

{{{0.078943394, 0.13736114, -0.1393948},
{0.032862503, -0.057135426, 0.0071044983},
{0.0998321, 0.13526797, 0.17577754}}},

{{{-0.1765458, -0.055345297, 0.12982027},
{-0.11916799, -0.051259696, -0.02052557},
{0.018725347, -0.104076356, -0.1312482}}},

{{{-0.078587554, -0.17757511, -0.16012257},
{0.17693028, 0.08471976, 0.18008235},
{0.12315068, 0.19730854, 0.0014935633}}}};

const float Conv2D_0_b[16] = {-0.0019570591, -7.2476e-07, -5.0289333e-07, 0.0061213654, -0.00049076736, -0.00033278382, -0.0016346894, -5.375145e-07, -0.00090172625, 0.0050008697, 0.0057913237, -0.00298139, -5.3760635e-07, -0.0014902063, -4.0067836e-05, 0.0062481468};
