/*
 * author : shtsno24
 * Date : 2019-10-09 15:00:55.989143
 *
 */
const float Conv2D_1_w[8][16][3][3] =
{{{{0.20528328, 0.13950604, 0.15140592},
{0.19744238, -0.035340246, 0.00080487365},
{0.09250008, -0.12650116, -0.045804}},

{{0.15600443, 0.016090835, -0.12568802},
{-0.011593258, -0.109704114, 0.1458199},
{-0.08855874, -0.009331212, -0.00853221}},

{{-0.013037151, 0.07850172, -0.08768109},
{0.0885109, 0.0047585997, -0.04684032},
{0.077837445, -0.019954441, 0.03829034}},

{{0.12733345, 0.13981712, 0.09067181},
{-0.08238147, -0.07257515, -0.13518035},
{-0.06703628, -0.110558346, 0.024030855}},

{{0.038724788, 0.07731863, -0.093571074},
{-0.03337688, 0.06454118, -0.117284425},
{0.026572343, 0.031225702, 0.12947297}},

{{0.04532807, -0.1004464, -0.10273816},
{0.13822974, 0.132107, -0.080924705},
{-0.03373496, -0.08102831, 0.16740513}},

{{-0.0068582045, -0.07004475, -0.1426663},
{0.1685479, 0.06173226, 0.11375365},
{-0.13521211, 0.14323197, -0.09661282}},

{{0.20140411, 0.024920087, -0.084804416},
{0.07967166, -0.08538012, -0.04102094},
{0.024391083, -0.11443649, -0.028114686}},

{{-0.0017005705, 0.08573086, 0.1381354},
{-0.118444435, -0.064766854, -0.10156137},
{0.008703823, 0.022777522, -0.03230762}},

{{0.0073937853, -0.13128255, -0.14090377},
{-0.09670371, -0.04760501, -0.120030865},
{-0.116419874, -0.021123037, 0.028818581}},

{{-0.041400723, -0.09268719, -0.12199875},
{0.043247018, 0.077858955, 0.13230638},
{0.11359451, 0.02415644, 0.103106976}},

{{-0.026275963, -0.12654676, -0.16471711},
{-0.05896838, 0.09174422, 0.047740947},
{0.018079432, -0.013585456, 0.12336154}},

{{-0.0739067, -0.065986164, 0.10132555},
{0.007880916, -0.017298605, 0.16547242},
{0.12260769, -0.1438996, -0.1411815}},

{{0.0008866994, 0.036929566, -0.13938959},
{0.10433866, -0.028211616, 0.117792115},
{-0.023935158, 0.093773425, -0.14529245}},

{{-0.0072988053, -0.16191323, 0.12283132},
{0.06368948, 0.14599304, 0.015509618},
{-0.0245035, -0.081778504, 0.06483462}},

{{-0.10197314, -0.029024819, -0.1362518},
{0.1200447, 0.0708965, -0.14613365},
{-0.0027985743, 0.0833367, 0.08637922}}},

{{{0.14594771, 0.015189529, -0.09983258},
{0.088785715, 0.10789527, 0.09062258},
{-0.1196956, 0.082162134, -0.083595134}},

{{0.053905077, -0.08770212, -0.018935518},
{-0.058554422, 0.15675907, -0.16872945},
{-0.090601884, 0.019116543, 0.12851515}},

{{0.053610858, -0.018386131, -0.052358422},
{0.028301114, -0.1666539, -0.023008134},
{-0.17054105, 0.08024056, -0.09647704}},

{{0.040631007, -0.13458078, -0.09429627},
{0.05933569, -0.07011534, 0.021700857},
{0.12774633, -0.026522068, 0.12698543}},

{{0.029764788, -0.017560687, 0.16387491},
{-0.011927533, 0.008308987, 0.10707974},
{0.028238647, 0.14462157, -0.089707084}},

{{-0.013136032, -0.15057679, 0.013740063},
{0.16344088, 0.15146819, -0.049728323},
{0.1333233, -0.025865454, 0.16398603}},

{{-0.08885431, 0.16144513, -0.0076538045},
{-0.12336323, -0.15867156, -0.009053909},
{-0.059645936, -0.10106561, -0.07666686}},

{{0.17774528, -0.060254805, 0.108612224},
{0.010570698, -0.14961511, 0.04317999},
{-0.12756526, -0.026046915, 0.14717256}},

{{-0.08406537, 0.1471509, -0.0044030724},
{0.053299163, 0.15018168, -0.006735761},
{-0.02119985, -0.08531904, 0.0037562326}},

{{0.18767305, 0.05507134, -0.08922149},
{0.032989264, -0.050436586, -0.15607263},
{0.058192316, -0.03964143, -0.098416805}},

{{-0.048539214, 0.033914268, -0.106092624},
{0.10512245, 0.062047925, -0.041357044},
{0.017109482, 0.19346245, -0.009399183}},

{{-0.042225424, 0.09923926, -0.028959028},
{0.03131354, -0.19104241, -0.047572136},
{0.0911479, -0.06098874, 0.12868644}},

{{-0.005237926, -0.0419646, 0.016511815},
{-0.094123356, -0.115294784, -0.0063362382},
{0.033066113, 0.103726424, 0.09063847}},

{{0.16598901, 0.098446056, -0.13961062},
{-0.07576954, 0.04477045, -0.15894893},
{-0.077421024, 0.13598025, -0.014859506}},

{{0.065315895, -0.032568768, -0.11393973},
{0.050720006, -0.023765838, 0.11638514},
{0.0016758895, 0.029990075, -0.12962076}},

{{0.084312715, -0.10135753, 0.10461952},
{0.023206418, -0.109939665, -0.13477767},
{-0.06568187, -0.14727038, 0.073659286}}},

{{{-0.15543275, -0.04904373, -0.04064403},
{0.11041611, -0.080436595, -0.12229043},
{-0.031278573, -0.103478126, 0.07605272}},

{{-0.15108243, -0.13283733, -0.15886694},
{-0.08001095, -0.020159917, 0.07822464},
{0.11421961, -0.04373717, -0.057652317}},

{{-0.0006188912, -0.0813575, -0.13853407},
{-0.014317594, 0.069417775, 0.058545433},
{-0.022756651, 0.094379954, 0.052015305}},

{{-0.024206335, 0.11376165, 0.08185459},
{-0.11681959, 0.017034719, -0.003529011},
{-0.12655479, -0.01506074, 0.06075789}},

{{-0.14782494, -0.10496681, -0.16539778},
{0.010158169, 0.020909902, 0.046174765},
{-0.14374082, 0.01918036, 0.068215825}},

{{-0.15957114, 0.051377516, -0.079656206},
{-0.15313293, -0.14975826, 0.033886634},
{0.09405059, 0.11132767, -0.027653938}},

{{0.16413637, 0.051945366, -0.024592923},
{0.06261271, 0.120050006, 0.1305564},
{0.14582966, 0.10708128, 0.040386803}},

{{0.05684424, -0.11316138, 0.02273365},
{-0.1552565, -0.16835724, 0.10144084},
{0.054991495, -0.07069811, 0.036997676}},

{{-0.09068174, -0.070530385, -0.03162531},
{-0.1395708, 0.06881058, -0.15154074},
{-0.02125992, -0.029522443, 0.04250581}},

{{-0.019663518, -0.07492147, -0.09112225},
{0.1709118, -0.15344635, 0.025111808},
{-0.11818326, -0.03082447, -0.17701457}},

{{-0.0115777375, 0.09060302, -0.17537355},
{-0.15281251, -0.13213263, 0.1561025},
{-0.0032323606, -0.08556247, 0.037503447}},

{{0.09806891, 0.053268664, 0.028950734},
{0.09910565, -0.027409757, 0.008398638},
{0.0029280095, -0.012618217, 0.099757165}},

{{-0.11921431, -0.009148338, -0.047775846},
{0.115985565, -0.12498738, -0.016148759},
{-0.009682935, 0.11205763, 0.17289546}},

{{0.10495886, 0.053826887, 0.10139658},
{-0.09850308, -0.12488417, -0.06464577},
{0.03144776, 0.16134466, -0.10087415}},

{{0.028099602, 0.0030058906, 0.12944555},
{-0.1514805, -0.17012556, 0.06869768},
{-0.1241439, -0.054678757, -0.15309234}},

{{-0.07599759, -0.11615762, 0.097743444},
{-0.10746228, 0.1475498, 0.036550768},
{-0.14022037, -0.14142601, 0.0016962851}}},

{{{-0.046606794, 0.13470063, 0.06289104},
{-0.073174715, -0.081786096, 0.07306997},
{0.09377122, -0.124399066, 0.018537372}},

{{-0.006665865, -0.03321911, -0.014628319},
{0.16695742, 0.02035672, 0.039174583},
{0.028362608, -0.153102, -0.09687955}},

{{-0.11002264, -0.15525945, -0.14589983},
{0.11809479, -0.161237, 0.10187772},
{-0.13202845, 0.15585963, -0.06807352}},

{{0.12271916, 0.13893108, 0.20100555},
{-0.094215274, 0.14133756, -0.021938605},
{-0.042326402, -0.024488019, -0.17225946}},

{{0.016890531, 0.15741803, -0.015728557},
{-0.08712847, -0.014979759, 0.13552672},
{0.07653626, -0.15051211, 0.14676782}},

{{-0.0073797954, -0.16831961, -0.025650075},
{0.011826339, -0.051256392, -0.0991094},
{0.06474507, 0.011271736, 0.027356874}},

{{0.0105172675, -0.10367906, 0.022264382},
{-0.10818906, -0.15737602, -0.16246635},
{0.18030559, -0.022320341, -0.06010673}},

{{0.1433631, -0.1326811, 0.058703743},
{0.10347106, 0.03595048, -0.11507418},
{0.16946508, -0.056274675, -0.11328566}},

{{-0.1584722, -0.1007681, 0.10340101},
{-0.015773932, -0.07415725, -0.16476406},
{0.0098758945, 0.10520138, 0.12825143}},

{{-0.06728731, -0.16262817, 0.054420814},
{-0.09846578, -0.034701295, -0.061738063},
{-0.10125533, 0.13483709, -0.028009811}},

{{-0.053391732, -0.05585567, -0.020087607},
{0.15933438, -0.009032589, -0.0950415},
{0.01934143, 0.1326104, 0.09569877}},

{{0.10819035, -0.14399944, 0.10089316},
{0.0008393362, 0.077325165, 0.1460224},
{-0.08628545, 0.05864832, 0.12092436}},

{{0.0036347474, 0.13486215, -0.08749693},
{0.15401676, 0.009947511, 0.13193825},
{-0.057440743, -0.05358119, 0.1137216}},

{{-0.03177312, 0.08683467, 0.08394736},
{-0.033762757, 0.076579355, -0.13682212},
{-0.05244729, -0.14449444, 0.072593585}},

{{0.010881762, -0.124319516, 4.4495944e-05},
{0.18865547, 0.15381634, 0.12581582},
{0.1694466, -0.06476125, -0.0103358785}},

{{0.15182729, -0.10062015, -0.109541625},
{-0.011501912, 0.061785594, -0.10741346},
{0.11519134, 0.14011207, -0.102533184}}},

{{{-0.16072622, 0.023456268, -0.054673273},
{-0.116018236, -0.041329265, -0.13482036},
{0.048657175, 0.08250519, 0.11728049}},

{{-0.104717, -0.12832694, 0.017151618},
{-0.14096996, 0.14476742, 0.16109374},
{0.074234225, 0.15816107, 0.13146833}},

{{0.09516935, -0.11649406, 0.15532097},
{0.07242163, 0.010745518, 0.1557817},
{-0.07895133, -0.0030517895, -0.08789253}},

{{0.07643335, 0.09009623, -0.1489108},
{-0.011261557, -0.15718381, 0.07285614},
{-0.04185647, -0.024038104, -0.13782012}},

{{0.1459677, 0.030066486, 0.082372256},
{0.08002965, -0.0723662, 0.08260096},
{0.17133935, 0.00808256, -0.034630634}},

{{-0.10990795, 0.2008349, -0.12596108},
{0.07336469, 0.18115403, -0.080557995},
{0.03478402, 0.16066264, 0.087633036}},

{{-0.09506953, 0.09525611, 0.09823804},
{0.08054797, 0.12305157, 0.074274614},
{-0.046815008, 0.056716863, -0.1280199}},

{{-0.0014243694, 0.1293882, -0.114712365},
{0.17609955, -0.09714984, -0.020068167},
{0.02608944, 0.100825906, 0.07743019}},

{{-0.14384004, -0.0706133, 0.04974132},
{0.043247048, 0.02953658, 0.07615353},
{-0.097247526, -0.099557124, -0.106718555}},

{{-0.121632, -0.045579437, -0.13207199},
{-0.13877507, -0.05903201, 0.116798244},
{0.01306942, 0.15118171, 0.016958378}},

{{0.11007279, 0.19125025, -0.061299916},
{-0.101983644, 0.010257499, 0.022565046},
{0.07336922, -0.14544213, 0.042348728}},

{{0.11049006, 0.17432636, 0.10417551},
{0.08362534, -0.11032857, -0.1091882},
{-0.023645889, -0.099183574, 0.14485994}},

{{-0.06014626, -0.094697945, -0.108841054},
{-0.06000457, 0.09661669, 0.045057308},
{-0.12691908, 0.14532526, -0.12820774}},

{{-0.13508624, -0.036969434, 0.018933447},
{0.07855576, 0.003946739, -0.04967208},
{0.16105695, -0.06118473, 0.15889585}},

{{0.06014062, -0.059712477, 0.10039463},
{0.12661378, 0.0073884665, 0.047498044},
{-0.11746703, 0.1291058, -0.023368485}},

{{0.12717234, -0.07692454, -0.1602683},
{0.014405485, 0.11920694, -0.0666798},
{0.13612518, -0.06735848, -0.08130102}}},

{{{-0.104268156, -0.16709763, 0.12118409},
{0.15524827, -0.17151105, 0.17823209},
{-0.15786268, 0.11854122, -0.14164354}},

{{-0.091653205, 0.0171343, -0.12887654},
{0.102186084, 0.032008056, 0.14052817},
{-0.08592042, 0.1006811, -0.021028545}},

{{0.09788367, -0.16448773, 0.109398566},
{-0.1519234, -0.0676123, 0.11742973},
{-0.16383499, 0.025780378, 0.13879792}},

{{-0.08308037, 0.15104696, -0.16627531},
{-0.10106953, 0.07428769, 0.07209894},
{0.16928725, 0.14032112, -0.12702699}},

{{0.11996391, 0.15930171, -0.15157977},
{0.03227904, -0.05761714, 0.01967633},
{-0.0026540547, -0.07059692, -0.07191428}},

{{0.1045638, -0.020343356, 0.115550734},
{-0.12038985, -0.07885317, -0.079007864},
{0.02260699, 0.059083786, 0.023572993}},

{{-0.13735826, -0.043151073, -0.00069403683},
{0.10795859, 0.05921766, 0.117388465},
{0.030977976, 0.045092434, 0.08785972}},

{{0.014500667, -0.066101134, 0.018814312},
{0.012980172, 0.15954347, -0.13512981},
{0.12976123, -0.037939474, -0.056071147}},

{{-0.022417884, -0.0480191, -0.12629479},
{-0.13916962, -0.046426564, 0.13076429},
{0.1424569, -0.045991838, -0.16752578}},

{{0.1422685, -0.12335657, 0.096445814},
{-0.15455152, -0.03448059, -0.0115583725},
{0.12127428, 0.08998353, 0.0975589}},

{{0.051509697, -0.017672835, -0.029318497},
{0.110307686, 0.024543202, 0.065154396},
{0.0032681394, -0.01677493, -0.076070935}},

{{-0.16596556, 0.12470716, 0.12012659},
{0.09830187, -0.09034652, 0.09547424},
{0.18007958, -0.084353924, -0.16435385}},

{{-0.08760785, -0.16763838, -0.072344355},
{0.13150288, -0.15291333, -0.11624868},
{-0.13841721, 0.13811307, -0.16189091}},

{{0.0061732517, 0.12863342, -0.15613702},
{0.02119846, 0.13553241, 0.048727877},
{-0.06389878, 0.11204035, -0.11397454}},

{{-0.1574215, -0.07194867, -0.04899457},
{-0.10787307, 0.105964415, 0.038381726},
{-0.100153305, 0.104867496, -0.029895345}},

{{0.11856363, 0.020024674, 0.08319379},
{0.08613286, -0.06554705, 0.21031861},
{0.008807633, -0.020361215, 0.029663445}}},

{{{-0.06358351, -0.11064256, 0.057220567},
{-0.10345452, -0.012590174, -0.08430985},
{-0.100683704, 0.077193566, 0.05103904}},

{{0.16111343, 0.087055445, -0.16052242},
{-0.09106797, 0.09018018, 0.14078446},
{0.080946684, -0.009117259, -0.026607687}},

{{-0.024876166, 0.08241124, 0.007783278},
{-0.14392011, 0.21131499, 0.11312583},
{0.12297481, -0.08031786, -0.08276646}},

{{-0.051863234, -0.03836051, -0.017722156},
{0.24257061, -0.092749424, -0.15679957},
{-0.0067777685, 0.07637228, -0.061458793}},

{{0.0039886255, -0.08540283, -0.09839262},
{-0.0061547435, -0.008760364, -0.04638456},
{0.080406055, -0.092201, 0.074055694}},

{{-0.065872654, 0.0047119684, -0.09633612},
{0.122204654, 0.15996297, -0.15545414},
{-0.049667213, -0.11815086, 0.07204923}},

{{0.018999558, 0.19803683, 0.021402348},
{0.16450134, 0.116975226, -0.14709474},
{-0.027113015, -0.006195227, -0.17027643}},

{{-0.024913974, -0.04223802, 0.060047843},
{0.1249257, 0.028800055, 0.099543735},
{0.013256598, 0.06375959, -0.1395919}},

{{-0.10197154, -0.14936885, -0.12815972},
{-0.15625355, -0.027381603, -0.08786436},
{-0.08694205, -0.06334961, -0.11072976}},

{{-0.06903994, -0.03134183, -0.14967339},
{-0.052004024, -0.020770224, -0.031880386},
{-0.12514088, 0.20576045, -0.022530677}},

{{0.0058255997, -0.04262695, 0.07320124},
{0.20751487, 0.012370041, 0.02346655},
{0.09112963, 0.13994913, 0.11478885}},

{{-0.10618214, 0.051907092, -0.109826565},
{0.11179334, 0.13388948, -0.017736586},
{0.130387, 0.038574643, 0.08451487}},

{{0.080497004, 0.15406631, -0.057480555},
{0.15714183, 0.10343519, -0.10534267},
{-0.0648455, 0.052654054, 0.0137864}},

{{0.10977545, -0.106342755, -0.10335081},
{-0.033957303, -0.03135062, 0.04617473},
{-0.046859942, 0.14568691, 0.01198574}},

{{-0.0077732266, -0.06732887, -0.119960874},
{0.17911094, -0.00074704224, -0.07672605},
{0.16696618, 0.1663312, 0.09185682}},

{{-0.13374041, 0.049108483, 0.12620209},
{-0.00314005, -0.0012764859, 0.099990286},
{-0.17060918, -0.018064056, 0.052981965}}},

{{{0.15473637, -0.1259037, -0.12969138},
{0.14993541, 0.08517202, 0.14029388},
{0.03006276, 0.017602505, -0.057656884}},

{{0.016414678, 0.08743647, 0.095210485},
{-0.009671823, -0.06121601, -0.026638372},
{-0.022749776, -0.18533576, 0.090492554}},

{{-0.14284655, 0.13985266, -0.044385735},
{-0.12166912, -0.045824505, -0.017921288},
{0.07945073, -0.12039107, 0.04777587}},

{{0.11339467, 0.19075212, 0.15276365},
{0.06578677, 0.14025381, 0.069160834},
{-0.10316589, 0.04890642, -0.003901698}},

{{-0.05642472, 0.06059752, 0.07018229},
{0.1552732, 0.026172968, 0.037177004},
{0.038025115, -0.032290503, 0.054289963}},

{{-0.16448748, 0.1284487, 0.10957491},
{-0.08325569, 0.07851854, 0.07544608},
{0.021681573, -0.010867432, 0.07918851}},

{{-0.032021474, 0.013334398, -0.12487004},
{-0.13163732, 0.053501938, 0.022681987},
{-0.1993019, -0.1299741, -0.04789624}},

{{0.045873184, -0.052990288, -0.028274855},
{-0.066692226, -0.12728198, 0.054409306},
{0.033854757, 0.061617218, 0.2047788}},

{{-0.06968377, 0.11382024, -0.13660286},
{-0.15106612, -0.076773815, -0.13213737},
{0.10145543, -0.08344208, -0.015617976}},

{{0.059004698, -0.036765724, 0.12579252},
{-0.09097473, -0.1855002, -0.021258738},
{0.081233025, 0.10169678, 0.23912628}},

{{-0.047540292, 0.12301671, 0.1274467},
{0.05539072, 0.14020617, 0.16991013},
{0.037698373, -0.20303743, -0.0041515953}},

{{-0.008238369, 0.14254183, -0.0051192422},
{0.10850259, 0.18145777, -0.048973978},
{-0.18547188, 0.18608831, 0.027017074}},

{{0.13282135, -0.036607005, -0.07820689},
{0.056979045, -0.09690628, -0.15715261},
{0.055572532, 0.048856683, -0.015829964}},

{{-0.10019247, 0.056174137, -0.07275228},
{0.08707621, -0.027592244, -0.053854864},
{0.03550366, -0.051792175, 0.092956156}},

{{0.06480861, -0.00027486504, -0.19627653},
{0.16795266, 0.15837431, 0.09657904},
{-0.07749206, 0.032547537, 0.06589847}},

{{0.0073007145, -0.16761777, -0.0501311},
{0.095956944, 0.11181631, 0.10001545},
{-0.0869451, -0.058312036, 0.006420512}}}};

const float Conv2D_1_b[8] = {0.09768884, 0.09149613, 0.06165201, 0.053040624, 0.004081441, 0.010046391, 0.011557069, -0.0038675568};
