/*
 * author : shtsno24
 * Date : 2019-10-09 15:00:55.993762
 *
 */
const float Conv2D_3_w[1][16][3][3] =
{{{{-0.1367805, -0.009607516, -0.055633526},
{-0.054445606, -0.101750225, 0.08072938},
{0.12975562, 0.13656911, 0.16410649}},

{{0.09222295, -0.27279538, -0.13680917},
{-0.15164904, -0.33245715, -0.17086041},
{-0.20357984, -0.2140852, -0.023299158}},

{{-0.07979592, 0.03681275, 0.16852202},
{0.089554064, 0.026751066, -0.059938185},
{-0.050443318, 0.162762, 0.1839623}},

{{0.062994696, 0.13484412, 0.13513291},
{0.16722463, 0.07301806, -0.013915125},
{-0.059165504, 0.10417762, -0.113492094}},

{{0.012034707, 0.10313517, -0.11952874},
{-0.011217124, 0.041789252, -0.24063043},
{-0.017122932, -0.2336774, -0.04339159}},

{{-0.16869842, -0.26611218, -0.19563735},
{-0.23999493, -0.09502075, -0.03226624},
{0.035447024, -0.18402034, -0.08595521}},

{{-0.08660508, 0.13895297, -0.120295346},
{0.13278961, -0.091070205, 0.23029116},
{-0.05516576, -0.03655656, 0.104835175}},

{{-0.15943134, 0.021240525, -0.036091942},
{-0.077215895, -0.2872969, -0.05344645},
{-0.21172841, 0.039104287, -0.05911342}},

{{0.14833097, -0.15844357, -0.13077833},
{0.18903962, 0.04256892, -0.1985681},
{-0.086055085, 0.04265775, -0.1137395}},

{{-0.06255617, 0.054394025, 0.13416888},
{0.20792107, -0.02323588, 0.20469266},
{-0.15300721, 0.12801063, 0.054969046}},

{{0.0052330825, 0.20263168, 0.04976151},
{-0.09194923, 0.14028488, 0.22649242},
{-0.028140051, -0.16957672, 0.07682875}},

{{-0.077248365, -0.08167706, -0.22520965},
{-0.23057963, -0.19844298, 0.12548855},
{-0.16335493, -0.21304709, 0.06928547}},

{{0.1525822, 0.19426067, 0.037792906},
{0.03527773, -0.03920393, 0.09034583},
{0.050585005, 0.17839965, 0.04407069}},

{{-0.15713678, -0.08704371, -0.09780375},
{-0.17558417, 0.086300544, 0.13733204},
{-0.1942868, 0.10255838, 0.060913812}},

{{-0.25612587, -0.0023876869, 0.10722476},
{-0.0999911, 0.12123324, 0.07180518},
{-0.1646842, 0.102615744, 0.10331032}},

{{0.15090403, 0.2069607, 0.043357644},
{-0.054890987, 0.1385064, -0.1301871},
{-0.07672674, -0.1612731, -0.019325156}}}};

const float Conv2D_3_b[1] = {-0.06912594};
