/*
 * author : shtsno24
 * Date : 2019-10-11 14:59:05.175945
 *
 */
const float Conv2D_3_w[1][16][3][3] =
{{{{0.049904972, 0.18340437, -0.0967059},
{0.12600124, 0.08503164, -0.097111315},
{0.07661254, -0.1216104, -0.15019725}},

{{-0.040960893, -0.15415598, -0.10764716},
{0.16277601, 0.17107217, 0.17215705},
{-0.0077587543, 0.01930406, 0.16194329}},

{{-0.2011908, 0.1545784, 0.028420499},
{-0.1825821, -0.0927602, 0.038015366},
{-0.1756173, -0.12330855, 0.18128179}},

{{0.024367064, -0.18032153, -0.03527813},
{-0.040244393, -0.1815959, -0.17359093},
{0.18720822, -0.17505047, 0.078496136}},

{{0.12970968, 0.06879491, -0.15375587},
{-0.029434262, 0.098546125, -0.16461948},
{0.17008725, 0.17406404, 0.16228089}},

{{0.16793022, -0.00046920424, 0.112156},
{0.16395064, 0.0656521, 0.017189002},
{-0.07964003, 0.1843646, -0.0649998}},

{{-0.0464647, 0.04186168, -0.052538697},
{0.15297079, 0.14919862, -0.118842006},
{0.18003108, -0.08036246, -0.17826249}},

{{-0.06603304, -0.15226732, -0.043186404},
{-0.010621307, -0.07506059, -0.047556482},
{-0.031128861, -0.19136505, 0.15359959}},

{{0.16880415, -0.19890957, -0.06629236},
{0.02873257, -0.14342736, -0.039421976},
{-0.15780862, -0.015828844, -0.175394}},

{{-0.031366758, 0.12401214, -0.10289315},
{0.06728059, -0.07824511, -0.045925196},
{-0.028096464, 0.022815768, 0.074228086}},

{{-0.14310995, -0.088554636, -0.048412934},
{-0.10427871, -0.09657583, 0.09289272},
{-0.16382205, -0.064995214, 0.055274975}},

{{-0.06254421, -0.034260977, -0.022489328},
{-0.01646347, 0.024981445, 0.08217508},
{0.04105322, 0.067469314, 0.094901346}},

{{0.08980059, -0.17600454, 0.019770943},
{0.06713485, -0.04724713, 0.07575472},
{-0.127182, 0.12752195, -0.13691185}},

{{-0.13976242, -0.08924262, -0.07156824},
{-0.08939465, -0.19642967, 0.12127962},
{-0.07450568, 0.08685493, -0.16930117}},

{{-0.0014537807, -0.13743205, 0.11724229},
{0.027112538, -0.15522262, -0.19877695},
{-0.13084798, 0.19302547, -0.06928289}},

{{-0.15436003, 0.15618944, -0.14951114},
{0.09248587, -0.074961215, -0.15805951},
{0.014806136, 0.13823664, 0.15584047}}}};

const float Conv2D_3_b[1] = {-0.0059258235};
