/*
 * author : shtsno24
 * Date : 2019-10-14 13:59:46.237753
 *
 */
#pragma once
#include <stdint.h>

const uint16_t shape_Conv2D_2_w[] = {16, 8, 3, 3};
const float Conv2D_2_w[16][8][3][3] =
{{{{0.15634398162364959717, 0.12888640165328979492, -0.07152466475963592529},
{0.04884632676839828491, -0.10125539451837539673, 0.09299445152282714844},
{0.02233413793146610260, 0.06251354515552520752, 0.07849948853254318237}},

{{0.07830774039030075073, 0.02752924524247646332, 0.04035954922437667847},
{0.16014724969863891602, -0.03509777039289474487, 0.13642747700214385986},
{0.07150267064571380615, -0.03573703020811080933, -0.10410372167825698853}},

{{0.06290321797132492065, 0.00237344182096421719, 0.06559322774410247803},
{-0.15126189589500427246, -0.10240050405263900757, -0.00438203942030668259},
{-0.01130646932870149612, -0.16185462474822998047, 0.08946744352579116821}},

{{-0.05672408267855644226, -0.15555621683597564697, 0.08225839585065841675},
{0.08213371038436889648, 0.10086444020271301270, 0.11765888333320617676},
{-0.06777656823396682739, 0.13488252460956573486, -0.01545981317758560181}},

{{0.04140619561076164246, 0.12362463027238845825, -0.02500567957758903503},
{-0.01472752075642347336, 0.15323330461978912354, 0.05637264996767044067},
{-0.06866093724966049194, 0.12834922969341278076, 0.00905209407210350037}},

{{-0.00545503897592425346, 0.06414392590522766113, 0.14523145556449890137},
{-0.03631909564137458801, -0.00905934814363718033, 0.04901173338294029236},
{-0.02937380783259868622, -0.09875792264938354492, -0.11302744597196578979}},

{{-0.14124244451522827148, 0.01416240911930799484, -0.11836954951286315918},
{-0.04996364191174507141, 0.02631751820445060730, 0.13602660596370697021},
{0.16689123213291168213, -0.05402218550443649292, -0.10718585550785064697}},

{{0.10534870624542236328, -0.12172404676675796509, 0.09482318907976150513},
{-0.00804669503122568130, -0.07346551865339279175, -0.09333506226539611816},
{0.10596639662981033325, 0.03052600845694541931, 0.02161569707095623016}}},

{{{-0.00064976484281942248, -0.16394278407096862793, 0.08285214006900787354},
{-0.05212510004639625549, -0.03999433666467666626, 0.08212388306856155396},
{0.07182393968105316162, -0.10515294969081878662, -0.13181716203689575195}},

{{0.08234128355979919434, 0.00561637897044420242, 0.09506507217884063721},
{0.09375312924385070801, -0.11522708088159561157, -0.14752548933029174805},
{-0.10528667271137237549, -0.05755633488297462463, -0.02716371230781078339}},

{{0.09216246753931045532, -0.01702840812504291534, -0.04341587424278259277},
{-0.05559967458248138428, 0.16663473844528198242, 0.04763083159923553467},
{-0.07073659449815750122, 0.13742253184318542480, 0.10387559980154037476}},

{{0.02292725630104541779, -0.13742585480213165283, 0.10242835432291030884},
{0.07782652229070663452, 0.08367721736431121826, 0.16057114303112030029},
{-0.11086802184581756592, -0.13638082146644592285, -0.05491170287132263184}},

{{0.02398461475968360901, -0.01282962039113044739, -0.01147159002721309662},
{0.08183623105287551880, 0.02444175817072391510, 0.11041224002838134766},
{-0.06503193080425262451, 0.05495743453502655029, 0.07548905164003372192}},

{{0.10606415569782257080, -0.06897749006748199463, 0.05283729359507560730},
{0.11678654700517654419, -0.15586836636066436768, -0.16044265031814575195},
{0.04930620267987251282, 0.02640003710985183716, -0.03768144920468330383}},

{{0.09444442391395568848, -0.02512369491159915924, -0.11001431941986083984},
{-0.01344280503690242767, 0.03918320313096046448, 0.07220979779958724976},
{-0.05531522259116172791, -0.13785283267498016357, -0.06990002840757369995}},

{{0.14410135149955749512, 0.14869812130928039551, 0.13811038434505462646},
{0.10129646211862564087, -0.09780789166688919067, -0.04990600794553756714},
{0.03059610538184642792, 0.10552345961332321167, 0.14692014455795288086}}},

{{{0.02785118855535984039, 0.00819021277129650116, 0.07237016409635543823},
{0.13358509540557861328, -0.16188037395477294922, -0.14651986956596374512},
{0.01685182191431522369, 0.03966426104307174683, 0.15965549647808074951}},

{{0.01081787049770355225, -0.15510644018650054932, 0.03375690802931785583},
{0.13096997141838073730, -0.09483804553747177124, 0.04006581380963325500},
{-0.00337843736633658409, -0.09020489454269409180, 0.04451048001646995544}},

{{0.00092424673493951559, 0.13191576302051544189, 0.09206150472164154053},
{0.01450776308774948120, 0.03874276950955390930, 0.10729733854532241821},
{0.14268550276756286621, -0.14859989285469055176, -0.14689774811267852783}},

{{0.12813234329223632812, -0.05729392170906066895, 0.00214403308928012848},
{-0.08460572361946105957, -0.12680457532405853271, -0.06134193018078804016},
{-0.01084839832037687302, -0.04740409553050994873, -0.08852602541446685791}},

{{-0.06432905048131942749, -0.16305634379386901855, -0.02328290045261383057},
{-0.00647263647988438606, -0.07755480706691741943, -0.05015104636549949646},
{0.00510273128747940063, -0.10758196562528610229, -0.04756239429116249084}},

{{0.15154324471950531006, -0.08205550909042358398, 0.16087299585342407227},
{-0.07676321268081665039, -0.08336009830236434937, 0.16538614034652709961},
{-0.09138040244579315186, -0.04991054534912109375, 0.13710613548755645752}},

{{-0.01153578236699104309, -0.09286725521087646484, 0.05763758718967437744},
{-0.16306106746196746826, 0.06397166848182678223, -0.05786591395735740662},
{0.05281427875161170959, 0.11864869296550750732, 0.01216562371701002121}},

{{-0.03794116899371147156, -0.15071129798889160156, 0.14384841918945312500},
{-0.06906458735466003418, 0.11310948431491851807, 0.04197711125016212463},
{-0.02530240640044212341, -0.02098063193261623383, -0.12908506393432617188}}},

{{{0.06361395120620727539, 0.04192514717578887939, -0.10988354682922363281},
{-0.02543188817799091339, -0.04834269732236862183, 0.13665492832660675049},
{-0.15770620107650756836, -0.02892494574189186096, 0.06080323830246925354}},

{{-0.04143746942281723022, 0.15156798064708709717, 0.06239613145589828491},
{0.15131939947605133057, -0.04885854944586753845, 0.00569745060056447983},
{-0.10437974333763122559, 0.04143277928233146667, -0.10700744390487670898}},

{{0.13245078921318054199, -0.08249092847108840942, 0.11586405336856842041},
{-0.10617436468601226807, 0.05097186192870140076, 0.06194990128278732300},
{0.10871734470129013062, 0.08369112759828567505, -0.14431953430175781250}},

{{0.14375267922878265381, 0.11360082775354385376, 0.08218344300985336304},
{-0.10931048542261123657, 0.01284146774560213089, -0.04541265964508056641},
{-0.00721633154898881912, 0.12680606544017791748, 0.12535388767719268799}},

{{0.13625298440456390381, 0.07693805545568466187, -0.03219543024897575378},
{-0.02976218983530998230, -0.15330715477466583252, 0.06753159314393997192},
{0.04596627503633499146, -0.14252558350563049316, -0.00709631480276584625}},

{{0.14729773998260498047, -0.12273678928613662720, -0.05809668824076652527},
{-0.07160070538520812988, -0.06607886403799057007, 0.05252191796898841858},
{-0.05503430962562561035, 0.04024774208664894104, 0.07264424115419387817}},

{{0.08817501366138458252, 0.06098296493291854858, -0.13937804102897644043},
{0.06770101934671401978, 0.12417772412300109863, -0.00666030216962099075},
{-0.08206428587436676025, -0.16485024988651275635, -0.07234421372413635254}},

{{-0.01391633972525596619, 0.07925280183553695679, 0.03826943784952163696},
{-0.06982670724391937256, 0.13401263952255249023, 0.13503922522068023682},
{0.13615159690380096436, -0.11976426094770431519, 0.08957507461309432983}}},

{{{-0.12195834517478942871, 0.05854749307036399841, 0.13080427050590515137},
{0.13185460865497589111, 0.09101475775241851807, 0.04412359371781349182},
{-0.15161086618900299072, -0.14985722303390502930, 0.05452360585331916809}},

{{0.01221498940140008926, 0.15522319078445434570, -0.03144097700715065002},
{0.05676880851387977600, -0.12598155438899993896, -0.03864714130759239197},
{-0.05068619549274444580, 0.13154809176921844482, 0.05787378177046775818}},

{{-0.05639009177684783936, -0.01300361473113298416, -0.08918728679418563843},
{0.15288925170898437500, -0.15029984712600708008, -0.10856911540031433105},
{-0.07775580883026123047, -0.04778323322534561157, -0.02266477234661579132}},

{{0.13251501321792602539, -0.02748331241309642792, -0.04957451671361923218},
{-0.01637852005660533905, 0.13781231641769409180, -0.05596492066979408264},
{-0.03211965784430503845, -0.14309506118297576904, -0.16489240527153015137}},

{{-0.07914527505636215210, 0.08001167327165603638, 0.00007439658656949177},
{-0.06745116412639617920, 0.08261942118406295776, 0.06559388339519500732},
{-0.12467098236083984375, -0.08713998645544052124, 0.10542497783899307251}},

{{0.02598627097904682159, -0.16085854172706604004, -0.03618985787034034729},
{0.08040533214807510376, -0.06167458742856979370, 0.03528618067502975464},
{0.08985462039709091187, -0.00260271155275404453, 0.08930245041847229004}},

{{-0.11080764234066009521, 0.04777375608682632446, 0.12143982201814651489},
{0.00954531319439411163, 0.00525743467733263969, -0.04326420649886131287},
{0.13309521973133087158, 0.04241476580500602722, -0.06785084307193756104}},

{{-0.13512331247329711914, 0.11809356510639190674, -0.02912353910505771637},
{-0.00835290644317865372, 0.01422623451799154282, 0.00800861883908510208},
{0.01762313768267631531, 0.13598933815956115723, -0.06573652476072311401}}},

{{{-0.15132617950439453125, -0.04159570112824440002, 0.05435207858681678772},
{0.10306045413017272949, -0.10413262248039245605, 0.11175411194562911987},
{-0.03624067828059196472, 0.10909571498632431030, -0.16697877645492553711}},

{{0.06419959664344787598, 0.01534533035010099411, 0.16498622298240661621},
{0.10220199823379516602, -0.12376882880926132202, -0.00620970828458666801},
{-0.04700466245412826538, -0.10135544091463088989, -0.15824535489082336426}},

{{0.09399355202913284302, 0.14094473421573638916, -0.05866800248622894287},
{-0.11232011765241622925, 0.13248029351234436035, -0.15430891513824462891},
{0.01088042464107275009, 0.10869710147380828857, -0.05817321315407752991}},

{{-0.06473987549543380737, 0.00673773325979709625, 0.12523019313812255859},
{0.08560674637556076050, 0.02236784249544143677, 0.06042924523353576660},
{-0.13674895465373992920, 0.07447502017021179199, -0.06573954224586486816}},

{{0.08855766803026199341, 0.08652877807617187500, 0.03271614760160446167},
{0.00648694485425949097, 0.03119316697120666504, 0.10468284785747528076},
{0.07044697552919387817, 0.09938240796327590942, 0.11253894865512847900}},

{{0.04922312125563621521, 0.07030257582664489746, 0.10702503472566604614},
{-0.08267269283533096313, -0.13925473392009735107, -0.14053729176521301270},
{-0.15355470776557922363, -0.04302699491381645203, -0.06215296685695648193}},

{{0.01016860175877809525, 0.08641229569911956787, 0.13435862958431243896},
{-0.09421602636575698853, 0.04519215971231460571, -0.00702092749997973442},
{0.11029256135225296021, -0.16206544637680053711, -0.08775202184915542603}},

{{-0.04719995334744453430, -0.14328864216804504395, 0.05713437870144844055},
{0.01630134321749210358, -0.16661064326763153076, -0.07329399138689041138},
{-0.13169361650943756104, 0.05255904421210289001, 0.16190396249294281006}}},

{{{-0.13961254060268402100, 0.14253325760364532471, -0.03766561299562454224},
{0.05074670165777206421, -0.00384842813946306705, 0.12237280607223510742},
{0.15396046638488769531, -0.12362915277481079102, 0.04853400588035583496}},

{{-0.13262291252613067627, 0.13779939711093902588, 0.03081442601978778839},
{0.16414006054401397705, -0.08421304821968078613, -0.13597808778285980225},
{0.01573129557073116302, 0.04936317354440689087, 0.05525054037570953369}},

{{-0.03300093859434127808, 0.08274351805448532104, -0.10324709862470626831},
{0.13514071702957153320, -0.03596716746687889099, -0.09722055494785308838},
{0.16100391745567321777, -0.03654051944613456726, 0.06552952527999877930}},

{{-0.05892009288072586060, 0.01576470769941806793, 0.00955952052026987076},
{0.08374623209238052368, -0.04062592983245849609, -0.01445140875875949860},
{0.09009480476379394531, -0.16745589673519134521, -0.02741145901381969452}},

{{-0.01037224195897579193, -0.03533984348177909851, 0.05867130681872367859},
{0.07933437824249267578, 0.05721230059862136841, 0.02229157462716102600},
{0.07850366830825805664, 0.00262799207121133804, -0.09206471592187881470}},

{{-0.07001679390668869019, -0.07872782647609710693, 0.00419206544756889343},
{0.02432408183813095093, -0.15695732831954956055, 0.11990632116794586182},
{0.04064432904124259949, -0.12731702625751495361, -0.08477437496185302734}},

{{0.04953208565711975098, 0.03543094918131828308, 0.15375789999961853027},
{0.12311495095491409302, -0.06531574577093124390, -0.06256783008575439453},
{-0.14571735262870788574, 0.12184475362300872803, -0.00549600878730416298}},

{{0.00730800023302435875, -0.06809400022029876709, 0.07595766335725784302},
{0.10983531922101974487, -0.14698471128940582275, 0.00808715634047985077},
{0.05669716745615005493, 0.15513163805007934570, 0.00795064214617013931}}},

{{{-0.05535630881786346436, 0.14572577178478240967, 0.03186191618442535400},
{-0.15408560633659362793, -0.11937766522169113159, -0.06374029815196990967},
{0.13365875184535980225, 0.13064210116863250732, 0.16099722683429718018}},

{{-0.08271635323762893677, -0.01108222920447587967, -0.04047232493758201599},
{0.02896315604448318481, 0.06007901579141616821, -0.00111183384433388710},
{0.13732053339481353760, -0.06481731683015823364, -0.03924984857439994812}},

{{-0.16220200061798095703, -0.10738886147737503052, -0.15205439925193786621},
{-0.05317538976669311523, 0.08989825099706649780, 0.13342866301536560059},
{0.13816770911216735840, 0.03211319819092750549, 0.07887455075979232788}},

{{-0.10737863928079605103, 0.09190499782562255859, -0.09671184420585632324},
{0.02808014303445816040, 0.03435015305876731873, 0.07649574428796768188},
{-0.09127741307020187378, -0.06138506159186363220, -0.06764267385005950928}},

{{0.07507605105638504028, 0.15661092102527618408, 0.14175707101821899414},
{-0.02310369908809661865, -0.13697101175785064697, 0.02299853973090648651},
{0.07990605384111404419, -0.09667523205280303955, -0.13282141089439392090}},

{{0.13929206132888793945, -0.09256619960069656372, -0.10633311420679092407},
{-0.12327549606561660767, -0.14964829385280609131, -0.06771254539489746094},
{0.13496440649032592773, 0.03389304131269454956, 0.16193844377994537354}},

{{-0.08911360800266265869, 0.04769683256745338440, -0.12689736485481262207},
{0.12645332515239715576, 0.03000089898705482483, 0.00736934039741754532},
{-0.06947010010480880737, -0.05397216975688934326, 0.03775823488831520081}},

{{-0.02578690834343433380, -0.09089781343936920166, -0.14095173776149749756},
{0.08011096715927124023, -0.03698116913437843323, 0.10008168220520019531},
{0.16089968383312225342, -0.02260461263358592987, 0.08562779426574707031}}},

{{{-0.13817878067493438721, 0.11668521910905838013, -0.05940387025475502014},
{0.15786573290824890137, 0.00482422765344381332, -0.03572800755500793457},
{0.13402928411960601807, -0.02341863140463829041, -0.15713579952716827393}},

{{-0.08473726361989974976, -0.07555590569972991943, 0.05166298896074295044},
{-0.10543413460254669189, -0.08028279244899749756, 0.10126708447933197021},
{0.05138226971030235291, 0.15127007663249969482, 0.01812749356031417847}},

{{-0.05683491379022598267, -0.07071856409311294556, 0.08145577460527420044},
{-0.04490434750914573669, 0.11571022868156433105, -0.14391668140888214111},
{-0.02308229543268680573, -0.06690711528062820435, -0.06413538753986358643}},

{{0.04442925378680229187, 0.07357075065374374390, -0.03425477072596549988},
{-0.07478014379739761353, 0.14072765409946441650, 0.02939435653388500214},
{0.02136067487299442291, 0.02610080502927303314, 0.10829226672649383545}},

{{-0.09442888945341110229, -0.07227962464094161987, 0.13678869605064392090},
{0.09019538760185241699, 0.10535907745361328125, -0.14649465680122375488},
{0.06981034576892852783, 0.09435714036226272583, 0.16181647777557373047}},

{{0.04886258766055107117, 0.07254144549369812012, -0.09937357902526855469},
{-0.05011751502752304077, 0.07862736284732818604, -0.01750368624925613403},
{0.06390914320945739746, 0.05571021512150764465, -0.03266469016671180725}},

{{0.02855970337986946106, -0.15287058055400848389, -0.08483668416738510132},
{0.03627154603600502014, 0.10110834985971450806, -0.13888189196586608887},
{-0.10425064712762832642, -0.15240339934825897217, -0.02758741751313209534}},

{{-0.04630833491683006287, 0.01063563860952854156, -0.15545549988746643066},
{-0.02865096926689147949, -0.07325077801942825317, 0.00830750260502099991},
{0.03364946320652961731, -0.10194184631109237671, 0.02691822685301303864}}},

{{{-0.11316855251789093018, 0.02378047816455364227, -0.08019260317087173462},
{-0.02144984155893325806, 0.08876281976699829102, 0.06280015408992767334},
{-0.00996944680809974670, 0.03907882049679756165, 0.08645599335432052612}},

{{0.10000433772802352905, -0.02544791623950004578, 0.10866741091012954712},
{-0.03300785273313522339, -0.15266282856464385986, 0.14394330978393554688},
{-0.07707963883876800537, 0.12307923287153244019, 0.08476112037897109985}},

{{-0.16505603492259979248, -0.14063191413879394531, 0.09983301907777786255},
{-0.04092753306031227112, -0.11554783582687377930, -0.04902536794543266296},
{-0.13802233338356018066, 0.07976260036230087280, 0.10010194033384323120}},

{{0.12777848541736602783, 0.11685643345117568970, 0.14035773277282714844},
{-0.14109106361865997314, -0.01241929829120635986, -0.00292026810348033905},
{0.07557735592126846313, -0.05390679463744163513, 0.01189540047198534012}},

{{0.01257342193275690079, -0.15807807445526123047, 0.10476689785718917847},
{0.05935904011130332947, 0.04172236472368240356, -0.09194922447204589844},
{0.08447604626417160034, -0.06553380936384201050, 0.03343569114804267883}},

{{0.11732201278209686279, 0.05623208731412887573, -0.05785362794995307922},
{-0.06973537057638168335, 0.06559168547391891479, -0.11893314123153686523},
{0.14829945564270019531, 0.10301326960325241089, -0.02141179330646991730}},

{{-0.11119009554386138916, -0.03635917231440544128, 0.05321373417973518372},
{0.00671263085678219795, -0.16346521675586700439, 0.02376954257488250732},
{-0.15846751630306243896, -0.05759801715612411499, 0.13242667913436889648}},

{{0.05011518299579620361, 0.15273888409137725830, 0.08411598950624465942},
{-0.04633326083421707153, -0.12041267007589340210, 0.10613651573657989502},
{0.11415907740592956543, 0.10125685483217239380, 0.12918478250503540039}}},

{{{-0.02078621648252010345, -0.07619819790124893188, -0.12773631513118743896},
{-0.10133922100067138672, 0.04912766069173812866, -0.11678678542375564575},
{0.11017192155122756958, -0.02220788970589637756, 0.08184192329645156860}},

{{0.09128835052251815796, 0.12195181101560592651, -0.15918335318565368652},
{0.09822215139865875244, 0.05437816679477691650, 0.06742612272500991821},
{0.13318461179733276367, -0.00641772989183664322, -0.08212375640869140625}},

{{-0.06090711802244186401, -0.07140792906284332275, -0.00254896422848105431},
{0.16495503485202789307, -0.03932263702154159546, -0.14520323276519775391},
{-0.09638874232769012451, 0.15047992765903472900, 0.05397135391831398010}},

{{-0.08419102430343627930, 0.12796515226364135742, -0.07775314897298812866},
{0.01657949946820735931, 0.01523303985595703125, 0.01181475352495908737},
{-0.01550043746829032898, -0.07237339764833450317, 0.08469836413860321045}},

{{0.07538633048534393311, 0.10318011045455932617, -0.08738172799348831177},
{-0.07860462367534637451, 0.12278957664966583252, 0.06773467361927032471},
{-0.11399540305137634277, -0.13592787086963653564, -0.13350687921047210693}},

{{-0.11749584972858428955, -0.10312022268772125244, 0.01003289408981800079},
{0.08354578912258148193, -0.16249848902225494385, -0.13370481133460998535},
{0.10321503877639770508, 0.06681045144796371460, -0.13334673643112182617}},

{{0.12283444404602050781, -0.01453761104494333267, 0.11183304339647293091},
{-0.13474301993846893311, 0.10250768810510635376, -0.09812454134225845337},
{0.07319582253694534302, 0.05371069535613059998, 0.05168902873992919922}},

{{-0.00989942718297243118, 0.12661387026309967041, 0.07035112380981445312},
{0.02589262649416923523, -0.06554850935935974121, 0.09531291574239730835},
{0.09788548201322555542, 0.08561241626739501953, -0.09739416837692260742}}},

{{{0.12939375638961791992, 0.09718669205904006958, 0.12463715672492980957},
{0.15370267629623413086, -0.12487468123435974121, -0.13110366463661193848},
{0.13615430891513824463, -0.07382188737392425537, 0.09195905178785324097}},

{{0.08957308530807495117, -0.01933140680193901062, -0.15445582568645477295},
{-0.06989710777997970581, 0.07464147359132766724, 0.07628712058067321777},
{0.12414571642875671387, -0.06034259498119354248, -0.08215472847223281860}},

{{-0.09317829459905624390, -0.12682881951332092285, -0.01040343381464481354},
{-0.11804972589015960693, -0.15084370970726013184, 0.06757986545562744141},
{-0.00170895166229456663, 0.07123765349388122559, 0.15215033292770385742}},

{{-0.15774318575859069824, 0.13894571363925933838, -0.05074159055948257446},
{0.01276506856083869934, -0.00177225936204195023, 0.11665169149637222290},
{-0.12707901000976562500, -0.02413859777152538300, 0.07860675454139709473}},

{{-0.00584221631288528442, 0.08987634629011154175, 0.13766850531101226807},
{0.03450038656592369080, -0.05089826881885528564, 0.12395962327718734741},
{-0.09134952723979949951, -0.14964915812015533447, 0.02586963400244712830}},

{{-0.06529680639505386353, -0.05640903487801551819, -0.09862533211708068848},
{0.12433019280433654785, -0.08838081359863281250, 0.02890591323375701904},
{0.02701627276837825775, -0.03467202931642532349, -0.16355183720588684082}},

{{-0.09099305421113967896, -0.02296057716012001038, 0.01261549070477485657},
{-0.11045443266630172729, -0.16418491303920745850, 0.06975125521421432495},
{-0.12120612710714340210, 0.06405304372310638428, -0.16002954542636871338}},

{{-0.04889231175184249878, 0.13939994573593139648, -0.10151269286870956421},
{0.01465790625661611557, -0.09316389262676239014, 0.01829389855265617371},
{0.14489178359508514404, 0.03682466596364974976, -0.09893019497394561768}}},

{{{-0.11278697103261947632, -0.14200407266616821289, 0.09059765934944152832},
{-0.01315763778984546661, -0.07444088906049728394, 0.11374555528163909912},
{-0.13516378402709960938, 0.09064216911792755127, 0.14307239651679992676}},

{{0.02366990409791469574, -0.14469511806964874268, -0.05554204806685447693},
{-0.03087205998599529266, -0.16187231242656707764, 0.00796118658035993576},
{-0.15794372558593750000, 0.13176187872886657715, -0.00932660140097141266}},

{{-0.12017651647329330444, -0.03483562171459197998, -0.08673112094402313232},
{-0.04208688810467720032, 0.05143770202994346619, 0.05933380126953125000},
{-0.01372475456446409225, 0.05260080471634864807, 0.11846920847892761230}},

{{-0.01681570708751678467, -0.01397884730249643326, 0.08486249297857284546},
{0.09282258898019790649, -0.16340316832065582275, -0.07527659833431243896},
{-0.00271727773360908031, 0.12924745678901672363, 0.04621156305074691772}},

{{-0.08127881586551666260, 0.00071822700556367636, 0.14178277552127838135},
{0.00227669579908251762, -0.15091899037361145020, -0.01918669603765010834},
{-0.05754053592681884766, 0.10896782577037811279, 0.05757622048258781433}},

{{0.06985656172037124634, 0.07934452593326568604, -0.16324694454669952393},
{-0.02932092919945716858, -0.05990446358919143677, 0.07511691749095916748},
{0.12910072505474090576, -0.03411726281046867371, 0.05701566860079765320}},

{{0.00262290262617170811, 0.04743680730462074280, 0.13957162201404571533},
{-0.14119382202625274658, -0.02209493704140186310, 0.00373189733363687992},
{0.04339978471398353577, -0.03891225531697273254, -0.05992262810468673706}},

{{0.10656607151031494141, -0.02533782273530960083, -0.03843239694833755493},
{0.06684185564517974854, 0.16394475102424621582, -0.03809287026524543762},
{-0.05340227857232093811, -0.02012502215802669525, 0.07864223420619964600}}},

{{{0.05466457456350326538, -0.02715056575834751129, -0.05592511594295501709},
{-0.14704719185829162598, -0.10141468793153762817, 0.04626065492630004883},
{-0.06908860057592391968, -0.07650444656610488892, -0.11702373623847961426}},

{{-0.01628553494811058044, -0.15166200697422027588, 0.16055189073085784912},
{0.08077383786439895630, 0.05028357729315757751, 0.07081968337297439575},
{-0.03400705382227897644, 0.06775965541601181030, 0.10853288322687149048}},

{{-0.06008062884211540222, 0.10094002634286880493, -0.01557580288499593735},
{-0.07161317020654678345, 0.04593080654740333557, 0.08923006057739257812},
{-0.05116828903555870056, -0.01250151265412569046, -0.07304950058460235596}},

{{-0.14556944370269775391, 0.16001179814338684082, 0.09010025113821029663},
{0.12890374660491943359, 0.14568856358528137207, -0.01808065176010131836},
{0.03816119581460952759, 0.15681664645671844482, -0.10116277635097503662}},

{{-0.12900908291339874268, -0.06627001613378524780, -0.09881255775690078735},
{0.10044101625680923462, -0.12225709855556488037, -0.12926818430423736572},
{-0.02170062251389026642, 0.02305316925048828125, -0.04341725632548332214}},

{{-0.13034860789775848389, -0.11515717208385467529, 0.01136627886444330215},
{-0.07435265928506851196, -0.10090649127960205078, -0.05328628048300743103},
{0.03258718177676200867, 0.04463696107268333435, 0.14272029697895050049}},

{{0.11972825229167938232, 0.13702051341533660889, 0.03107886016368865967},
{0.02555208653211593628, 0.04099212586879730225, 0.16598306596279144287},
{-0.02233530767261981964, -0.06797306984663009644, -0.15043193101882934570}},

{{-0.06962891668081283569, 0.09043443948030471802, 0.14268122613430023193},
{0.09368474036455154419, -0.09668824076652526855, 0.11950734257698059082},
{-0.01941915228962898254, -0.16667924821376800537, -0.12266299873590469360}}},

{{{-0.05731054767966270447, 0.00909252557903528214, 0.09474367648363113403},
{-0.10236137360334396362, 0.03354708850383758545, 0.05365695059299468994},
{-0.10144054144620895386, 0.04423741996288299561, -0.02486142516136169434}},

{{0.07590473443269729614, 0.02625058963894844055, 0.11215101927518844604},
{0.00283741368912160397, -0.12321089953184127808, -0.01452968921512365341},
{-0.02923865988850593567, -0.11414323747158050537, 0.01338931918144226074}},

{{-0.04629222303628921509, -0.07850179076194763184, 0.05780892819166183472},
{-0.05347645282745361328, 0.14030766487121582031, 0.09244889765977859497},
{0.15416048467159271240, 0.07770396769046783447, -0.06515784561634063721}},

{{-0.07103987783193588257, 0.00064218207262456417, -0.11508081853389739990},
{-0.15856446325778961182, -0.02023860067129135132, -0.04585876688361167908},
{0.00178242614492774010, -0.06513476371765136719, -0.01522391568869352341}},

{{0.16680859029293060303, 0.03433032706379890442, -0.05129321664571762085},
{-0.00816751923412084579, 0.07023248076438903809, 0.03165608644485473633},
{0.00499286735430359840, -0.01268183719366788864, 0.02157109789550304413}},

{{0.07840149104595184326, 0.01997856982052326202, 0.07121473550796508789},
{-0.13765913248062133789, -0.16310836374759674072, 0.08966819941997528076},
{0.09789203852415084839, -0.05711834132671356201, 0.08825341612100601196}},

{{-0.06604455411434173584, -0.04199352115392684937, -0.13293689489364624023},
{-0.03402475640177726746, -0.11812062561511993408, -0.11478479206562042236},
{-0.08066940307617187500, -0.14220690727233886719, 0.06618435680866241455}},

{{-0.15933270752429962158, 0.07393666356801986694, 0.01417270768433809280},
{0.02839458733797073364, 0.16251100599765777588, 0.05659755319356918335},
{-0.09954553097486495972, -0.15608370304107666016, 0.03775093704462051392}}},

{{{0.06350324302911758423, -0.02365096658468246460, 0.07243390381336212158},
{0.00436421483755111694, 0.06224413216114044189, 0.04671214148402214050},
{-0.09801054745912551880, 0.03545480221509933472, 0.11075129359960556030}},

{{0.16477851569652557373, 0.05748153477907180786, -0.12721623480319976807},
{0.09530534595251083374, 0.10641804337501525879, 0.05502522736787796021},
{-0.01545413117855787277, 0.07703189551830291748, 0.05958025902509689331}},

{{0.00866749789565801620, -0.11125669628381729126, -0.00124010595027357340},
{0.00833028554916381836, -0.13160212337970733643, -0.13912546634674072266},
{-0.07149280607700347900, 0.09664090722799301147, 0.03372319042682647705}},

{{-0.06765543669462203979, 0.12056815624237060547, 0.01646972820162773132},
{0.00868187099695205688, 0.07460443675518035889, 0.11566936969757080078},
{-0.06798198819160461426, -0.06058472394943237305, -0.07295287400484085083}},

{{0.08739911764860153198, -0.11735643446445465088, 0.08782961219549179077},
{0.03093535080552101135, 0.09948983788490295410, -0.08408126980066299438},
{-0.11271072179079055786, -0.15098677575588226318, -0.05270611494779586792}},

{{0.07183352112770080566, 0.08874753862619400024, 0.11337345093488693237},
{0.02106298878788948059, 0.05618198215961456299, -0.12628443539142608643},
{-0.10533305257558822632, 0.05953674763441085815, -0.07005936652421951294}},

{{0.08627107739448547363, -0.09736511856317520142, 0.15424697101116180420},
{-0.01406443491578102112, 0.04655999690294265747, -0.15507757663726806641},
{0.14263470470905303955, -0.05341319739818572998, 0.04831207916140556335}},

{{0.14881928265094757080, -0.15096400678157806396, 0.01030351687222719193},
{0.15602043271064758301, -0.04995890334248542786, 0.07129451632499694824},
{0.13134373724460601807, 0.14233367145061492920, -0.03247401118278503418}}}};

const uint16_t shape_Conv2D_2_b = 16;
const float Conv2D_2_b[16] = {0.00141986133530735970, 0.00142318673897534609, -0.00045188431977294385, 0.00143842259421944618, -0.00109705619979649782, -0.00132402777671813965, -0.00138188630808144808, 0.00147355778608471155, 0.00155919103417545557, -0.00142186926677823067, -0.00130746234208345413, 0.00138165638782083988, 0.00018242064106743783, -0.00118025334086269140, -0.00033984004403464496, 0.00135234638582915068};
