/*
 * author : shtsno24
 * Date : 2019-10-14 18:33:03.002125
 *
 */
#pragma once
#include <stdint.h>

const uint16_t shape_Conv2D_3_w[] = {1, 16, 3, 3};
const float Conv2D_3_w[1][16][3][3] =
{{{{0.11759842932224273682, -0.18879492580890655518, -0.04711956158280372620},
{0.05625842139124870300, -0.02450753003358840942, 0.19330695271492004395},
{0.00712989177554845810, 0.13069164752960205078, 0.06300883740186691284}},

{{0.08272639662027359009, -0.15310283005237579346, -0.07261032611131668091},
{0.07116809487342834473, 0.15055979788303375244, -0.05090613663196563721},
{-0.06750430166721343994, 0.17520153522491455078, 0.05195534974336624146}},

{{-0.02707613259553909302, 0.05710274353623390198, -0.08973220735788345337},
{0.00984648428857326508, -0.02598121576011180878, 0.12058988958597183228},
{0.10719384253025054932, 0.04195681586861610413, -0.13419918715953826904}},

{{0.11608648300170898438, 0.06820741295814514160, 0.08090975135564804077},
{0.14732535183429718018, -0.13632097840309143066, -0.05484515056014060974},
{0.12095253169536590576, -0.17894044518470764160, 0.10229662060737609863}},

{{0.17298197746276855469, -0.14054809510707855225, -0.09861006587743759155},
{-0.12907271087169647217, -0.02520225197076797485, 0.18637448549270629883},
{-0.11108068376779556274, -0.04452807828783988953, 0.03944014757871627808}},

{{-0.03113439679145812988, -0.11994194984436035156, 0.01939820311963558197},
{-0.05919587612152099609, -0.13620699942111968994, 0.03291755914688110352},
{0.17236985266208648682, -0.10934948921203613281, -0.07940624654293060303}},

{{-0.13334654271602630615, 0.05250841751694679260, -0.12077382951974868774},
{0.16637645661830902100, -0.15236088633537292480, -0.04547309130430221558},
{-0.06495823711156845093, 0.01368455961346626282, -0.16386771202087402344}},

{{-0.01793105527758598328, -0.14553792774677276611, -0.04835383594036102295},
{0.00471397768706083298, 0.11827127635478973389, 0.09385643899440765381},
{-0.11982751637697219849, 0.10854137688875198364, 0.12749470770359039307}},

{{0.14992089569568634033, -0.15552636981010437012, 0.15043441951274871826},
{-0.03195704892277717590, 0.13887876272201538086, 0.16718879342079162598},
{-0.00226730946451425552, 0.08730566501617431641, -0.11663056910037994385}},

{{0.06626345217227935791, 0.00141986249946057796, 0.18371737003326416016},
{-0.17445024847984313965, -0.03562340512871742249, -0.01371725928038358688},
{-0.13551467657089233398, -0.17954432964324951172, -0.01756370626389980316}},

{{-0.18499934673309326172, 0.07302927225828170776, -0.11606132239103317261},
{0.02720483019948005676, 0.07759349048137664795, -0.03599892184138298035},
{0.17889226973056793213, -0.19027970731258392334, -0.00956176314502954483}},

{{-0.18314190208911895752, -0.04060588032007217407, -0.02171440422534942627},
{0.08915235847234725952, 0.04689856246113777161, 0.11600242555141448975},
{0.11437286436557769775, -0.07981321215629577637, 0.16183042526245117188}},

{{-0.02019065245985984802, 0.17014394700527191162, -0.00062024977523833513},
{-0.15503825247287750244, -0.16387477517127990723, -0.02617124654352664948},
{-0.08225116133689880371, -0.12020260840654373169, -0.05675650015473365784}},

{{-0.17538331449031829834, -0.08029482513666152954, -0.17540039122104644775},
{0.09457943588495254517, 0.07159455865621566772, -0.13300232589244842529},
{-0.01687205210328102112, -0.03157424181699752808, -0.05654498562216758728}},

{{0.00883786659687757492, 0.06147279590368270874, -0.15764963626861572266},
{-0.01439742743968963623, -0.13277676701545715332, 0.16132543981075286865},
{0.00047675496898591518, 0.01980286464095115662, 0.02495105564594268799}},

{{-0.09592947363853454590, 0.14922119677066802979, -0.07745935022830963135},
{0.11833474040031433105, -0.08732988685369491577, 0.15653952956199645996},
{-0.18809309601783752441, 0.08747778087854385376, 0.00393020501360297203}}}};

const uint16_t shape_Conv2D_3_b = 1;
const float Conv2D_3_b[1] = {0.00140505668241530657};
