/*
 * author : shtsno24
 * Date : 2019-10-14 17:15:09.633996
 * array_type : int16
 * fractal_width : 9 bit
 * bit_width : 16 bit
 *
 */
#pragma once
#include <stdint.h>

#define data_width_Conv2D_3 16
#define fractal_width_Conv2D_3 9

const uint16_t shape_Conv2D_3_w[] = {1, 16, 3, 3};
const int16_t Conv2D_3_w[1][16][3][3] =
{{{{60.00000000000000000000, -96.00000000000000000000, -23.00000000000000000000},
{29.00000000000000000000, -12.00000000000000000000, 99.00000000000000000000},
{4.00000000000000000000, 67.00000000000000000000, 32.00000000000000000000}},

{{42.00000000000000000000, -77.00000000000000000000, -36.00000000000000000000},
{36.00000000000000000000, 77.00000000000000000000, -25.00000000000000000000},
{-34.00000000000000000000, 90.00000000000000000000, 27.00000000000000000000}},

{{-13.00000000000000000000, 29.00000000000000000000, -45.00000000000000000000},
{5.00000000000000000000, -12.00000000000000000000, 62.00000000000000000000},
{55.00000000000000000000, 21.00000000000000000000, -68.00000000000000000000}},

{{59.00000000000000000000, 35.00000000000000000000, 41.00000000000000000000},
{75.00000000000000000000, -69.00000000000000000000, -27.00000000000000000000},
{62.00000000000000000000, -91.00000000000000000000, 52.00000000000000000000}},

{{89.00000000000000000000, -71.00000000000000000000, -49.00000000000000000000},
{-65.00000000000000000000, -12.00000000000000000000, 95.00000000000000000000},
{-56.00000000000000000000, -22.00000000000000000000, 20.00000000000000000000}},

{{-15.00000000000000000000, -60.00000000000000000000, 10.00000000000000000000},
{-29.00000000000000000000, -69.00000000000000000000, 17.00000000000000000000},
{88.00000000000000000000, -55.00000000000000000000, -40.00000000000000000000}},

{{-67.00000000000000000000, 27.00000000000000000000, -61.00000000000000000000},
{85.00000000000000000000, -77.00000000000000000000, -22.00000000000000000000},
{-32.00000000000000000000, 7.00000000000000000000, -83.00000000000000000000}},

{{-8.00000000000000000000, -74.00000000000000000000, -24.00000000000000000000},
{2.00000000000000000000, 61.00000000000000000000, 48.00000000000000000000},
{-60.00000000000000000000, 56.00000000000000000000, 65.00000000000000000000}},

{{77.00000000000000000000, -79.00000000000000000000, 77.00000000000000000000},
{-15.00000000000000000000, 71.00000000000000000000, 86.00000000000000000000},
{0.00000000000000000000, 45.00000000000000000000, -59.00000000000000000000}},

{{34.00000000000000000000, 1.00000000000000000000, 94.00000000000000000000},
{-88.00000000000000000000, -17.00000000000000000000, -6.00000000000000000000},
{-68.00000000000000000000, -91.00000000000000000000, -8.00000000000000000000}},

{{-94.00000000000000000000, 37.00000000000000000000, -58.00000000000000000000},
{14.00000000000000000000, 40.00000000000000000000, -17.00000000000000000000},
{92.00000000000000000000, -96.00000000000000000000, -4.00000000000000000000}},

{{-93.00000000000000000000, -20.00000000000000000000, -10.00000000000000000000},
{46.00000000000000000000, 24.00000000000000000000, 59.00000000000000000000},
{59.00000000000000000000, -40.00000000000000000000, 83.00000000000000000000}},

{{-9.00000000000000000000, 87.00000000000000000000, 0.00000000000000000000},
{-78.00000000000000000000, -83.00000000000000000000, -12.00000000000000000000},
{-41.00000000000000000000, -61.00000000000000000000, -28.00000000000000000000}},

{{-89.00000000000000000000, -40.00000000000000000000, -89.00000000000000000000},
{48.00000000000000000000, 37.00000000000000000000, -67.00000000000000000000},
{-8.00000000000000000000, -15.00000000000000000000, -28.00000000000000000000}},

{{5.00000000000000000000, 31.00000000000000000000, -80.00000000000000000000},
{-6.00000000000000000000, -67.00000000000000000000, 83.00000000000000000000},
{0.00000000000000000000, 10.00000000000000000000, 13.00000000000000000000}},

{{-48.00000000000000000000, 76.00000000000000000000, -39.00000000000000000000},
{61.00000000000000000000, -44.00000000000000000000, 80.00000000000000000000},
{-95.00000000000000000000, 45.00000000000000000000, 2.00000000000000000000}}}};

const uint16_t shape_Conv2D_3_b = 1;
const int16_t Conv2D_3_b[1] = {1.00000000000000000000};
