/*
 * author : shtsno24
 * Date : 2019-10-14 11:51:21.805514
 *
 */
#pragma once
#include <stdint.h>

const uint16_t shape_Conv2D_2_w[] = {16, 8, 3, 3};
const float Conv2D_2_w[16][8][3][3] =
{{{{0.15634398, 0.1288864, -0.071524665},
{0.048846327, -0.101255395, 0.09299445},
{0.022334138, 0.062513545, 0.07849949}},

{{0.07830774, 0.027529245, 0.04035955},
{0.16014725, -0.03509777, 0.13642748},
{0.07150267, -0.03573703, -0.10410372}},

{{0.06290322, 0.0023734418, 0.06559323},
{-0.1512619, -0.102400504, -0.0043820394},
{-0.011306469, -0.16185462, 0.08946744}},

{{-0.056724083, -0.15555622, 0.082258396},
{0.08213371, 0.10086444, 0.11765888},
{-0.06777657, 0.13488252, -0.015459813}},

{{0.041406196, 0.12362463, -0.02500568},
{-0.014727521, 0.1532333, 0.05637265},
{-0.06866094, 0.12834923, 0.009052094}},

{{-0.005455039, 0.064143926, 0.14523146},
{-0.036319096, -0.009059348, 0.049011733},
{-0.029373808, -0.09875792, -0.113027446}},

{{-0.14124244, 0.014162409, -0.11836955},
{-0.049963642, 0.026317518, 0.1360266},
{0.16689123, -0.054022186, -0.107185856}},

{{0.105348706, -0.12172405, 0.09482319},
{-0.008046695, -0.07346552, -0.09333506},
{0.1059664, 0.030526008, 0.021615697}}},

{{{-0.00064976484, -0.16394278, 0.08285214},
{-0.0521251, -0.039994337, 0.08212388},
{0.07182394, -0.10515295, -0.13181716}},

{{0.08234128, 0.005616379, 0.09506507},
{0.09375313, -0.11522708, -0.14752549},
{-0.10528667, -0.057556335, -0.027163712}},

{{0.09216247, -0.017028408, -0.043415874},
{-0.055599675, 0.16663474, 0.04763083},
{-0.070736594, 0.13742253, 0.1038756}},

{{0.022927256, -0.13742585, 0.102428354},
{0.07782652, 0.08367722, 0.16057114},
{-0.11086802, -0.13638082, -0.054911703}},

{{0.023984615, -0.01282962, -0.01147159},
{0.08183623, 0.024441758, 0.11041224},
{-0.06503193, 0.054957435, 0.07548905}},

{{0.106064156, -0.06897749, 0.052837294},
{0.11678655, -0.15586837, -0.16044265},
{0.049306203, 0.026400037, -0.03768145}},

{{0.094444424, -0.025123695, -0.11001432},
{-0.013442805, 0.039183203, 0.0722098},
{-0.055315223, -0.13785283, -0.06990003}},

{{0.14410135, 0.14869812, 0.13811038},
{0.10129646, -0.09780789, -0.049906008},
{0.030596105, 0.10552346, 0.14692014}}},

{{{0.027851189, 0.008190213, 0.072370164},
{0.1335851, -0.16188037, -0.14651987},
{0.016851822, 0.03966426, 0.1596555}},

{{0.0108178705, -0.15510644, 0.033756908},
{0.13096997, -0.094838046, 0.040065814},
{-0.0033784374, -0.090204895, 0.04451048}},

{{0.00092424673, 0.13191576, 0.092061505},
{0.014507763, 0.03874277, 0.10729734},
{0.1426855, -0.1485999, -0.14689775}},

{{0.12813234, -0.05729392, 0.002144033},
{-0.08460572, -0.12680458, -0.06134193},
{-0.010848398, -0.047404096, -0.088526025}},

{{-0.06432905, -0.16305634, -0.0232829},
{-0.0064726365, -0.07755481, -0.050151046},
{0.0051027313, -0.107581966, -0.047562394}},

{{0.15154324, -0.08205551, 0.160873},
{-0.07676321, -0.0833601, 0.16538614},
{-0.0913804, -0.049910545, 0.13710614}},

{{-0.011535782, -0.092867255, 0.057637587},
{-0.16306107, 0.06397167, -0.057865914},
{0.05281428, 0.11864869, 0.012165624}},

{{-0.03794117, -0.1507113, 0.14384842},
{-0.06906459, 0.113109484, 0.04197711},
{-0.025302406, -0.020980632, -0.12908506}}},

{{{0.06361395, 0.041925147, -0.10988355},
{-0.025431888, -0.048342697, 0.13665493},
{-0.1577062, -0.028924946, 0.06080324}},

{{-0.04143747, 0.15156798, 0.06239613},
{0.1513194, -0.04885855, 0.0056974506},
{-0.10437974, 0.04143278, -0.107007444}},

{{0.13245079, -0.08249093, 0.11586405},
{-0.106174365, 0.050971862, 0.0619499},
{0.108717345, 0.08369113, -0.14431953}},

{{0.14375268, 0.11360083, 0.08218344},
{-0.109310485, 0.012841468, -0.04541266},
{-0.0072163315, 0.12680607, 0.12535389}},

{{0.13625298, 0.076938055, -0.03219543},
{-0.02976219, -0.15330715, 0.06753159},
{0.045966275, -0.14252558, -0.007096315}},

{{0.14729774, -0.12273679, -0.05809669},
{-0.071600705, -0.066078864, 0.052521918},
{-0.05503431, 0.040247742, 0.07264424}},

{{0.08817501, 0.060982965, -0.13937804},
{0.06770102, 0.124177724, -0.006660302},
{-0.082064286, -0.16485025, -0.07234421}},

{{-0.01391634, 0.0792528, 0.038269438},
{-0.06982671, 0.13401264, 0.13503923},
{0.1361516, -0.11976426, 0.089575075}}},

{{{-0.121958345, 0.058547493, 0.13080427},
{0.13185461, 0.09101476, 0.044123594},
{-0.15161087, -0.14985722, 0.054523606}},

{{0.012214989, 0.15522319, -0.031440977},
{0.05676881, -0.12598155, -0.03864714},
{-0.050686195, 0.13154809, 0.05787378}},

{{-0.05639009, -0.013003615, -0.08918729},
{0.15288925, -0.15029985, -0.108569115},
{-0.07775581, -0.047783233, -0.022664772}},

{{0.13251501, -0.027483312, -0.049574517},
{-0.01637852, 0.13781232, -0.05596492},
{-0.032119658, -0.14309506, -0.1648924}},

{{-0.079145275, 0.08001167, 7.439659e-05},
{-0.067451164, 0.08261942, 0.06559388},
{-0.12467098, -0.08713999, 0.10542498}},

{{0.025986271, -0.16085854, -0.036189858},
{0.08040533, -0.061674587, 0.03528618},
{0.08985462, -0.0026027116, 0.08930245}},

{{-0.11080764, 0.047773756, 0.12143982},
{0.009545313, 0.0052574347, -0.043264206},
{0.13309522, 0.042414766, -0.06785084}},

{{-0.13512331, 0.118093565, -0.02912354},
{-0.008352906, 0.0142262345, 0.008008619},
{0.017623138, 0.13598934, -0.065736525}}},

{{{-0.15132618, -0.0415957, 0.05435208},
{0.103060454, -0.10413262, 0.11175411},
{-0.03624068, 0.109095715, -0.16697878}},

{{0.0641996, 0.01534533, 0.16498622},
{0.102202, -0.12376883, -0.0062097083},
{-0.047004662, -0.10135544, -0.15824535}},

{{0.09399355, 0.14094473, -0.058668002},
{-0.11232012, 0.1324803, -0.15430892},
{0.010880425, 0.1086971, -0.058173213}},

{{-0.064739875, 0.0067377333, 0.1252302},
{0.08560675, 0.022367842, 0.060429245},
{-0.13674895, 0.07447502, -0.06573954}},

{{0.08855767, 0.08652878, 0.032716148},
{0.006486945, 0.031193167, 0.10468285},
{0.070446976, 0.09938241, 0.11253895}},

{{0.04922312, 0.070302576, 0.107025035},
{-0.08267269, -0.13925473, -0.14053729},
{-0.15355471, -0.043026995, -0.062152967}},

{{0.010168602, 0.086412296, 0.13435863},
{-0.09421603, 0.04519216, -0.0070209275},
{0.11029256, -0.16206545, -0.08775202}},

{{-0.047199953, -0.14328864, 0.05713438},
{0.016301343, -0.16661064, -0.07329399},
{-0.13169362, 0.052559044, 0.16190396}}},

{{{-0.13961254, 0.14253326, -0.037665613},
{0.0507467, -0.0038484281, 0.122372806},
{0.15396047, -0.12362915, 0.048534006}},

{{-0.13262291, 0.1377994, 0.030814426},
{0.16414006, -0.08421305, -0.13597809},
{0.015731296, 0.049363174, 0.05525054}},

{{-0.03300094, 0.08274352, -0.1032471},
{0.13514072, -0.035967167, -0.097220555},
{0.16100392, -0.03654052, 0.065529525}},

{{-0.058920093, 0.015764708, 0.0095595205},
{0.08374623, -0.04062593, -0.014451409},
{0.090094805, -0.1674559, -0.027411459}},

{{-0.010372242, -0.035339843, 0.058671307},
{0.07933438, 0.0572123, 0.022291575},
{0.07850367, 0.002627992, -0.092064716}},

{{-0.070016794, -0.07872783, 0.0041920654},
{0.024324082, -0.15695733, 0.11990632},
{0.04064433, -0.12731703, -0.084774375}},

{{0.049532086, 0.03543095, 0.1537579},
{0.12311495, -0.065315746, -0.06256783},
{-0.14571735, 0.12184475, -0.005496009}},

{{0.0073080002, -0.068094, 0.07595766},
{0.10983532, -0.14698471, 0.008087156},
{0.056697167, 0.15513164, 0.007950642}}},

{{{-0.05535631, 0.14572577, 0.031861916},
{-0.1540856, -0.119377665, -0.0637403},
{0.13365875, 0.1306421, 0.16099723}},

{{-0.08271635, -0.011082229, -0.040472325},
{0.028963156, 0.060079016, -0.0011118338},
{0.13732053, -0.06481732, -0.03924985}},

{{-0.162202, -0.10738886, -0.1520544},
{-0.05317539, 0.08989825, 0.13342866},
{0.13816771, 0.0321132, 0.07887455}},

{{-0.10737864, 0.091905, -0.096711844},
{0.028080143, 0.034350153, 0.076495744},
{-0.09127741, -0.06138506, -0.067642674}},

{{0.07507605, 0.15661092, 0.14175707},
{-0.0231037, -0.13697101, 0.02299854},
{0.079906054, -0.09667523, -0.13282141}},

{{0.13929206, -0.0925662, -0.106333114},
{-0.123275496, -0.1496483, -0.067712545},
{0.1349644, 0.03389304, 0.16193844}},

{{-0.08911361, 0.047696833, -0.12689736},
{0.12645333, 0.030000899, 0.0073693404},
{-0.0694701, -0.05397217, 0.037758235}},

{{-0.025786908, -0.09089781, -0.14095174},
{0.08011097, -0.03698117, 0.10008168},
{0.16089968, -0.022604613, 0.085627794}}},

{{{-0.13817878, 0.11668522, -0.05940387},
{0.15786573, 0.0048242277, -0.035728008},
{0.13402928, -0.023418631, -0.1571358}},

{{-0.08473726, -0.075555906, 0.05166299},
{-0.105434135, -0.08028279, 0.101267084},
{0.05138227, 0.15127008, 0.018127494}},

{{-0.056834914, -0.070718564, 0.081455775},
{-0.044904348, 0.11571023, -0.14391668},
{-0.023082295, -0.066907115, -0.06413539}},

{{0.044429254, 0.07357075, -0.03425477},
{-0.074780144, 0.14072765, 0.029394357},
{0.021360675, 0.026100805, 0.10829227}},

{{-0.09442889, -0.072279625, 0.1367887},
{0.09019539, 0.10535908, -0.14649466},
{0.069810346, 0.09435714, 0.16181648}},

{{0.048862588, 0.072541445, -0.09937358},
{-0.050117515, 0.07862736, -0.017503686},
{0.06390914, 0.055710215, -0.03266469}},

{{0.028559703, -0.15287058, -0.084836684},
{0.036271546, 0.10110835, -0.13888189},
{-0.10425065, -0.1524034, -0.027587418}},

{{-0.046308335, 0.010635639, -0.1554555},
{-0.02865097, -0.07325078, 0.008307503},
{0.033649463, -0.10194185, 0.026918227}}},

{{{-0.11316855, 0.023780478, -0.0801926},
{-0.021449842, 0.08876282, 0.062800154},
{-0.009969447, 0.03907882, 0.08645599}},

{{0.10000434, -0.025447916, 0.10866741},
{-0.033007853, -0.15266283, 0.14394331},
{-0.07707964, 0.12307923, 0.08476112}},

{{-0.16505603, -0.14063191, 0.09983302},
{-0.040927533, -0.115547836, -0.049025368},
{-0.13802233, 0.0797626, 0.10010194}},

{{0.12777849, 0.11685643, 0.14035773},
{-0.14109106, -0.012419298, -0.002920268},
{0.075577356, -0.053906795, 0.0118954005}},

{{0.012573422, -0.15807807, 0.1047669},
{0.05935904, 0.041722365, -0.091949224},
{0.084476046, -0.06553381, 0.03343569}},

{{0.11732201, 0.056232087, -0.057853628},
{-0.06973537, 0.065591685, -0.11893314},
{0.14829946, 0.10301327, -0.021411793}},

{{-0.111190096, -0.036359172, 0.053213734},
{0.006712631, -0.16346522, 0.023769543},
{-0.15846752, -0.057598017, 0.13242668}},

{{0.050115183, 0.15273888, 0.08411599},
{-0.04633326, -0.12041267, 0.106136516},
{0.11415908, 0.101256855, 0.12918478}}},

{{{-0.020786216, -0.0761982, -0.12773632},
{-0.10133922, 0.04912766, -0.116786785},
{0.11017192, -0.02220789, 0.08184192}},

{{0.09128835, 0.12195181, -0.15918335},
{0.09822215, 0.054378167, 0.06742612},
{0.13318461, -0.00641773, -0.08212376}},

{{-0.060907118, -0.07140793, -0.0025489642},
{0.16495503, -0.039322637, -0.14520323},
{-0.09638874, 0.15047993, 0.053971354}},

{{-0.084191024, 0.12796515, -0.07775315},
{0.0165795, 0.01523304, 0.0118147535},
{-0.0155004375, -0.0723734, 0.084698364}},

{{0.07538633, 0.10318011, -0.08738173},
{-0.07860462, 0.12278958, 0.06773467},
{-0.1139954, -0.13592787, -0.13350688}},

{{-0.11749585, -0.10312022, 0.010032894},
{0.08354579, -0.16249849, -0.13370481},
{0.10321504, 0.06681045, -0.13334674}},

{{0.122834444, -0.014537611, 0.11183304},
{-0.13474302, 0.10250769, -0.09812454},
{0.07319582, 0.053710695, 0.05168903}},

{{-0.009899427, 0.12661387, 0.070351124},
{0.025892626, -0.06554851, 0.095312916},
{0.09788548, 0.085612416, -0.09739417}}},

{{{0.12939376, 0.09718669, 0.12463716},
{0.15370268, -0.12487468, -0.13110366},
{0.13615431, -0.07382189, 0.09195905}},

{{0.089573085, -0.019331407, -0.15445583},
{-0.06989711, 0.07464147, 0.07628712},
{0.12414572, -0.060342595, -0.08215473}},

{{-0.093178295, -0.12682882, -0.010403434},
{-0.118049726, -0.15084371, 0.067579865},
{-0.0017089517, 0.07123765, 0.15215033}},

{{-0.15774319, 0.13894571, -0.05074159},
{0.012765069, -0.0017722594, 0.11665169},
{-0.12707901, -0.024138598, 0.078606755}},

{{-0.0058422163, 0.08987635, 0.1376685},
{0.034500387, -0.05089827, 0.12395962},
{-0.09134953, -0.14964916, 0.025869634}},

{{-0.06529681, -0.056409035, -0.09862533},
{0.12433019, -0.08838081, 0.028905913},
{0.027016273, -0.03467203, -0.16355184}},

{{-0.090993054, -0.022960577, 0.012615491},
{-0.11045443, -0.16418491, 0.069751255},
{-0.12120613, 0.06405304, -0.16002955}},

{{-0.04889231, 0.13939995, -0.10151269},
{0.014657906, -0.09316389, 0.018293899},
{0.14489178, 0.036824666, -0.098930195}}},

{{{-0.11278697, -0.14200407, 0.09059766},
{-0.013157638, -0.07444089, 0.113745555},
{-0.13516378, 0.09064217, 0.1430724}},

{{0.023669904, -0.14469512, -0.055542048},
{-0.03087206, -0.16187231, 0.007961187},
{-0.15794373, 0.13176188, -0.009326601}},

{{-0.12017652, -0.03483562, -0.08673112},
{-0.042086888, 0.051437702, 0.0593338},
{-0.013724755, 0.052600805, 0.11846921}},

{{-0.016815707, -0.013978847, 0.08486249},
{0.09282259, -0.16340317, -0.0752766},
{-0.0027172777, 0.12924746, 0.046211563}},

{{-0.081278816, 0.000718227, 0.14178278},
{0.0022766958, -0.15091899, -0.019186696},
{-0.057540536, 0.108967826, 0.05757622}},

{{0.06985656, 0.079344526, -0.16324694},
{-0.02932093, -0.059904464, 0.07511692},
{0.12910073, -0.034117263, 0.05701567}},

{{0.0026229026, 0.047436807, 0.13957162},
{-0.14119382, -0.022094937, 0.0037318973},
{0.043399785, -0.038912255, -0.059922628}},

{{0.10656607, -0.025337823, -0.038432397},
{0.066841856, 0.16394475, -0.03809287},
{-0.05340228, -0.020125022, 0.078642234}}},

{{{0.054664575, -0.027150566, -0.055925116},
{-0.14704719, -0.10141469, 0.046260655},
{-0.0690886, -0.07650445, -0.117023736}},

{{-0.016285535, -0.151662, 0.16055189},
{0.08077384, 0.050283577, 0.07081968},
{-0.034007054, 0.067759655, 0.10853288}},

{{-0.06008063, 0.10094003, -0.015575803},
{-0.07161317, 0.045930807, 0.08923006},
{-0.05116829, -0.012501513, -0.0730495}},

{{-0.14556944, 0.1600118, 0.09010025},
{0.12890375, 0.14568856, -0.018080652},
{0.038161196, 0.15681665, -0.10116278}},

{{-0.12900908, -0.066270016, -0.09881256},
{0.100441016, -0.1222571, -0.12926818},
{-0.021700623, 0.02305317, -0.043417256}},

{{-0.13034861, -0.11515717, 0.011366279},
{-0.07435266, -0.10090649, -0.05328628},
{0.03258718, 0.04463696, 0.1427203}},

{{0.11972825, 0.13702051, 0.03107886},
{0.025552087, 0.040992126, 0.16598307},
{-0.022335308, -0.06797307, -0.15043193}},

{{-0.06962892, 0.09043444, 0.14268123},
{0.09368474, -0.09668824, 0.11950734},
{-0.019419152, -0.16667925, -0.122663}}},

{{{-0.057310548, 0.009092526, 0.09474368},
{-0.10236137, 0.03354709, 0.05365695},
{-0.10144054, 0.04423742, -0.024861425}},

{{0.075904734, 0.02625059, 0.11215102},
{0.0028374137, -0.1232109, -0.014529689},
{-0.02923866, -0.11414324, 0.013389319}},

{{-0.046292223, -0.07850179, 0.05780893},
{-0.053476453, 0.14030766, 0.0924489},
{0.15416048, 0.07770397, -0.065157846}},

{{-0.07103988, 0.0006421821, -0.11508082},
{-0.15856446, -0.0202386, -0.045858767},
{0.0017824261, -0.06513476, -0.015223916}},

{{0.16680859, 0.034330327, -0.051293217},
{-0.008167519, 0.07023248, 0.031656086},
{0.0049928674, -0.012681837, 0.021571098}},

{{0.07840149, 0.01997857, 0.071214736},
{-0.13765913, -0.16310836, 0.0896682},
{0.09789204, -0.05711834, 0.088253416}},

{{-0.066044554, -0.04199352, -0.1329369},
{-0.034024756, -0.118120626, -0.11478479},
{-0.0806694, -0.1422069, 0.06618436}},

{{-0.15933271, 0.07393666, 0.014172708},
{0.028394587, 0.162511, 0.056597553},
{-0.09954553, -0.1560837, 0.037750937}}},

{{{0.06350324, -0.023650967, 0.072433904},
{0.004364215, 0.062244132, 0.04671214},
{-0.09801055, 0.035454802, 0.11075129}},

{{0.16477852, 0.057481535, -0.12721623},
{0.095305346, 0.10641804, 0.055025227},
{-0.015454131, 0.077031896, 0.05958026}},

{{0.008667498, -0.1112567, -0.001240106},
{0.008330286, -0.13160212, -0.13912547},
{-0.071492806, 0.09664091, 0.03372319}},

{{-0.06765544, 0.120568156, 0.016469728},
{0.008681871, 0.07460444, 0.11566937},
{-0.06798199, -0.060584724, -0.072952874}},

{{0.08739912, -0.117356434, 0.08782961},
{0.03093535, 0.09948984, -0.08408127},
{-0.11271072, -0.15098678, -0.052706115}},

{{0.07183352, 0.08874754, 0.11337345},
{0.021062989, 0.056181982, -0.12628444},
{-0.10533305, 0.059536748, -0.07005937}},

{{0.08627108, -0.09736512, 0.15424697},
{-0.014064435, 0.046559997, -0.15507758},
{0.1426347, -0.053413197, 0.04831208}},

{{0.14881928, -0.150964, 0.010303517},
{0.15602043, -0.049958903, 0.07129452},
{0.13134374, 0.14233367, -0.03247401}}}};

const uint16_t shape_Conv2D_2_b = 16;
const float Conv2D_2_b[16] = {0.0014198613, 0.0014231867, -0.00045188432, 0.0014384226, -0.0010970562, -0.0013240278, -0.0013818863, 0.0014735578, 0.001559191, -0.0014218693, -0.0013074623, 0.0013816564, 0.00018242064, -0.0011802533, -0.00033984004, 0.0013523464};
