/*
 * author : shtsno24
 * Date : 2019-10-14 11:51:21.799723
 *
 */
#pragma once
#include <stdint.h>

const uint16_t shape_Conv2D_0_w[] = {16, 1, 3, 3};
const float Conv2D_0_w[16][1][3][3] =
{{{{0.19611056, -0.061279092, 0.12191308},
{-0.060608745, -0.064681455, 0.16336714},
{0.11477983, 0.19545895, 0.1940069}}},

{{{-0.087909184, -0.098341346, -0.027795786},
{-0.045102827, 0.06019368, 0.0804828},
{-0.10914043, -0.1338607, -0.046480764}}},

{{{-0.110920705, -0.109398045, -0.11755797},
{-0.11383142, 0.15783678, 0.012126699},
{-0.14286159, -0.0065436712, 0.07747987}}},

{{{0.13268928, -0.039963685, 0.18308908},
{-0.027662862, -0.14473566, -0.1948861},
{-0.1438408, 0.1077743, 0.015316196}}},

{{{0.18326227, 0.12744182, 0.19245356},
{-0.10055598, -0.034102008, -0.06208532},
{0.18839711, -0.14980434, -0.0645031}}},

{{{0.16493474, -0.08155619, -0.17231165},
{-0.10673696, -0.05667197, -0.10825998},
{-0.027641647, 0.09906207, -0.06747307}}},

{{{-0.08415263, -0.14506422, 0.010618518},
{0.08372183, 0.08051558, 0.06546573},
{0.14306222, -0.14688736, -0.16809228}}},

{{{-0.07827955, 0.15439536, 0.10611397},
{-0.19180188, -0.04353196, 0.16063929},
{-0.18567604, 0.15482517, -0.17545666}}},

{{{-0.07694259, -0.03276273, 0.19484968},
{0.118666016, 0.17189707, -0.03576549},
{-0.04017601, 0.027043117, 0.10356667}}},

{{{-0.11829193, 0.12431012, -0.18057978},
{-0.12721917, -0.07193693, -0.082028545},
{0.029660128, -0.042173896, -0.010116908}}},

{{{-0.06701106, -0.011817692, -0.0917015},
{-0.1535131, -0.17819625, -0.058955103},
{0.08458375, 0.029471507, -0.01460631}}},

{{{-0.15955368, 0.025545716, -0.01077839},
{-0.09073161, 0.06498403, 0.1681042},
{0.1820816, -0.110343724, -0.1332993}}},

{{{0.19253358, 0.032909635, 0.033113852},
{0.032608047, 0.08704607, -0.1921023},
{0.17286712, 0.08814607, 0.07893811}}},

{{{0.10824344, 0.14573236, 0.12439472},
{0.10176219, 0.1914769, 0.030180942},
{0.075220205, -0.12086721, -0.16476722}}},

{{{0.17725283, 0.1524356, -0.16587315},
{0.13849787, -0.19115733, 0.112521544},
{0.19903016, 0.12412197, 0.124244355}}},

{{{-0.1954303, -0.15738952, -0.029963274},
{0.03918632, 0.15327756, 0.06985195},
{-0.02045504, 0.14335436, 0.049994938}}}};

const uint16_t shape_Conv2D_0_b = 16;
const float Conv2D_0_b[16] = {-0.00070372963, -0.00026108033, -7.0133065e-05, -0.00095371075, 0.00094547076, -5.073533e-07, -0.00029555438, 0.00050564297, -0.001206933, -9.354628e-06, 0.001326246, -2.310998e-06, -0.001498413, 0.0017881005, 0.00046542543, 0.00043502043};
