/*
 * author : shtsno24
 * Date : 2019-10-09 15:00:55.988607
 *
 */
const float Conv2D_0_w[16][1][3][3] =
{{{{0.0719443, -0.11218629, -0.11463891},
{0.053268515, -0.19286336, 0.112480745},
{-0.11056117, -0.12633368, -0.200597}}},

{{{0.1774487, -0.13709612, -0.099345356},
{0.0076581915, -0.030578818, -0.16571826},
{-0.02311147, 0.14917906, -0.1470276}}},

{{{-0.056733303, 0.04832588, 0.07592617},
{0.17530465, 0.19453707, -0.17207327},
{0.049450185, -0.04623517, -0.04609426}}},

{{{-0.06391205, -0.066099145, 0.059857354},
{-0.15802693, 0.0023041053, -0.030456638},
{-0.12527254, 0.24654351, 0.16793275}}},

{{{0.04941774, 0.08799652, -0.16153896},
{-0.08537686, 0.10406292, -0.16825512},
{-0.10296863, -0.15594469, 0.10703896}}},

{{{-0.016546773, -0.17897262, 0.04413185},
{0.14271729, -0.123563685, -0.17596765},
{0.22228856, 0.041736614, -0.17829677}}},

{{{0.105639815, 0.17126103, -0.09595275},
{-0.017126309, -0.020393573, 0.027518116},
{0.025620444, 0.18689518, 0.014370459}}},

{{{0.15639564, -0.0007577479, -0.021781819},
{0.18327712, -0.030075096, 0.12732247},
{0.117929, -0.021241715, 0.028691418}}},

{{{0.17367531, -0.03706334, 0.065087296},
{-0.14849587, 0.06737437, -0.11514935},
{-0.18510394, -0.08691972, 0.051757358}}},

{{{0.16308811, 0.22158563, -0.039690837},
{0.18524815, -0.18729314, -0.03298066},
{0.065632574, -0.1387688, -0.17506322}}},

{{{-0.04653744, -0.12300161, 0.054644678},
{0.22080205, 0.167105, -0.11179834},
{0.17590012, 0.25511202, 0.1959574}}},

{{{-0.11027086, 0.04192285, 0.1924735},
{0.026754098, 0.16798638, 0.10578365},
{0.13736577, 0.15113775, 0.2403935}}},

{{{0.05031672, -0.19632436, -0.06966608},
{0.0036517847, -0.0497109, -0.0554155},
{-0.1251851, 0.1628973, 0.052878678}}},

{{{-0.021590712, -0.04991123, 0.001699343},
{0.0077311015, -0.037509568, -0.1677297},
{-0.1730661, -0.010082424, 0.027928414}}},

{{{0.10810185, -0.026912794, 0.08981973},
{0.22198701, 0.057398755, 0.17072174},
{-0.13808478, 0.012682373, 0.11455435}}},

{{{0.20459704, 0.05719428, -0.088433094},
{0.0184017, -0.01901681, -0.08301864},
{-0.05157965, -0.017707469, -0.19048557}}}};

const float Conv2D_0_b[16] = {0.10725732, 0.022214016, 0.018910997, 1.4096213e-05, -0.01685643, -0.0070158863, 0.014495058, 0.015966147, 0.011296482, 4.769865e-07, 0.03377342, 0.028193047, -0.013198005, 0.0105148675, 0.0333864, 9.811441e-07};
