/*
 * author : shtsno24
 * Date : 2019-10-14 11:51:21.800993
 *
 */
#pragma once
#include <stdint.h>

const uint16_t shape_Conv2D_1_w[] = {8, 16, 3, 3};
const float Conv2D_1_w[8][16][3][3] =
{{{{0.11871214, 0.06368356, -0.09572972},
{0.016251493, -0.14515439, -0.14252876},
{0.09069216, -0.046524458, 0.020054564}},

{{0.075620286, -0.09486923, 0.08555648},
{-0.16620195, -0.03382229, 0.049848665},
{-0.14188771, -0.10603622, 0.07585804}},

{{-0.1395391, 0.007064847, 0.07855228},
{-0.105525225, -0.047297418, -0.05199626},
{-0.041859537, 0.038617015, 0.022138275}},

{{0.15565088, -0.014907287, 0.052068572},
{0.022159547, -0.10300732, 0.056405615},
{-0.01343508, -0.039293326, -0.11337613}},

{{-0.008820644, 0.16371833, -0.113020904},
{-0.040418375, 0.13485426, 0.14058353},
{-0.054289274, -0.041812476, 0.016095718}},

{{-0.08933024, 0.16661699, -0.09950234},
{0.052816708, -0.08796105, 0.04259588},
{-0.08517283, -0.029080829, -0.05090966}},

{{-0.052806847, 0.07256801, -0.055591434},
{-0.030453289, -0.00893966, -0.15268347},
{0.06209524, 0.038915187, 0.051689826}},

{{-0.115580805, -0.15267676, -0.08237158},
{-0.07301081, 0.101869725, 0.0046226303},
{0.10715061, 0.13029973, 0.053521454}},

{{0.08986463, 0.043349866, -0.025212321},
{-0.13396204, 0.05028327, 0.1425023},
{0.006267449, 0.046654776, -0.014135738}},

{{-0.1586612, -0.108734034, 0.0844284},
{-0.09758086, -0.094353855, 0.1048468},
{0.044297826, -0.09950449, -0.1378371}},

{{-0.02329515, 0.07317517, 0.079329476},
{-0.1214152, 0.10374457, 0.030098775},
{-0.047595497, -0.016754964, -0.16129564}},

{{0.07370293, -0.10360192, 0.13543634},
{-0.15695094, -0.062592655, -0.03136208},
{-0.09914164, 0.08579644, 0.14339133}},

{{-0.0827644, -0.13722615, -0.060987785},
{-0.161325, 0.13360217, -0.037736926},
{0.020376973, 0.047990214, 0.016556215}},

{{0.053983517, 0.06858919, 0.09409218},
{0.059683677, -0.11972193, 0.12738356},
{0.13481012, 0.13762236, -0.06728862}},

{{0.08492409, -0.06577575, 0.10986181},
{0.040991835, 0.076011084, 0.15945984},
{-0.021631394, -0.12901728, 0.13846892}},

{{-0.034190994, -0.10827296, -0.13815202},
{-0.16147543, -0.14635015, 0.07306076},
{0.0018861614, -0.15198453, 0.08397788}}},

{{{0.15664534, 0.10206339, -0.1563818},
{0.0112970825, 0.09512895, 0.14442307},
{0.1655547, -0.019658374, -0.028420698}},

{{-0.11327426, 0.15089853, 0.106534645},
{0.008809326, -0.1210556, -0.054405764},
{-0.01269433, -0.06885757, -0.048886854}},

{{-0.019790966, -0.124505565, 0.16534846},
{0.16355146, 0.12841287, -0.15250094},
{-0.10502737, 0.04601592, 0.047365665}},

{{-0.018733222, 0.08555496, -0.10621039},
{0.16293815, -0.019908167, 0.12258104},
{0.0070731053, 0.06778412, 0.026301535}},

{{0.05368373, -0.13357489, -0.0028720072},
{-0.11146357, 0.14473881, -0.16550483},
{-0.031023556, 0.07969759, 0.1074039}},

{{0.15034243, -0.056257647, -0.12760268},
{-0.16076109, -0.105928324, 0.15557976},
{0.06827374, 0.15165904, -0.15276618}},

{{0.1564253, -0.021931352, -0.07189918},
{-0.15068628, 0.07761725, -0.117834345},
{-0.13431561, 0.079442985, -0.1058137}},

{{-0.05590859, -0.06826962, -0.07348601},
{0.14312345, 0.020500863, -0.03865909},
{0.066336215, 0.040976416, 0.0021164883}},

{{0.14401045, 0.10121208, -0.010594064},
{-0.08192564, 0.14233755, 0.06424703},
{0.0009877217, 0.15524234, 0.16459832}},

{{0.007625371, -0.04035056, -0.15585856},
{-0.024114704, -0.08889908, 0.10002323},
{-0.044970382, 0.01574093, -0.16339283}},

{{-0.027019383, -0.16438107, 0.008735875},
{0.067586526, -0.1597193, -0.14947182},
{-0.13929202, -0.1561866, 0.018423}},

{{0.10933088, -0.053923972, 0.13210614},
{-0.12879157, 0.13935599, -0.05994164},
{0.02274908, 0.0015358987, -0.066061445}},

{{-0.050883643, 0.16329478, -0.16024347},
{-0.08110247, -0.04272067, -0.049948018},
{0.09972349, -0.041927762, 0.093220785}},

{{0.012157496, 0.059439242, 0.043634623},
{0.034274857, 0.040473916, 0.041219734},
{0.08394511, -0.07633776, 0.07016361}},

{{-0.15529223, -0.07862881, 0.15021256},
{-0.12568733, 0.07316958, 0.11481585},
{-0.15623416, -0.08659095, 0.11272006}},

{{0.1312159, -0.1442167, -0.14135987},
{-0.115554206, -0.13225996, 0.10214627},
{-0.111865655, 0.08663245, -0.13277565}}},

{{{0.12656766, 0.13380784, 0.023794523},
{0.13809401, -0.015352627, 0.13460648},
{0.008527924, 0.14902969, -0.115032434}},

{{-0.07712865, 0.018775105, -0.14695303},
{0.057703573, -0.012816879, -0.03463982},
{-0.069811076, -0.13772278, -0.045898847}},

{{-0.012970633, -0.07969922, 0.07458885},
{-0.11077174, 0.056363825, 0.06733082},
{0.10824624, 0.1401824, 0.13877025}},

{{0.10770954, -0.061573073, 0.14418565},
{-0.10398375, -0.15793209, 0.11482654},
{-0.09746675, -0.03720142, 0.14487936}},

{{0.04388694, -0.021962699, -0.11656971},
{0.02017406, 0.074357845, -0.022217138},
{0.15809247, 0.04366101, 0.118475504}},

{{-0.022625178, -0.10539626, -0.10860918},
{-0.0030211422, -0.02426124, -0.054481395},
{0.08168579, -0.09823899, 0.09379294}},

{{-0.12836947, 0.078164004, -0.070821375},
{-0.15535694, 0.045609128, 0.11857558},
{0.0007412364, 0.050826818, 0.029454462}},

{{0.05546297, -0.12117176, 0.06606766},
{-0.08984294, 0.08702598, 0.077340305},
{0.020352045, 0.005787741, 0.030378114}},

{{0.008129479, 0.037443526, 0.0744755},
{0.068734504, -0.083848245, -0.034218904},
{0.070029564, -0.15246235, 0.049062867}},

{{0.103283525, -0.13581114, 0.06755688},
{-0.14440587, 0.1540064, -0.022095116},
{-0.03507604, -0.060992043, 0.038059138}},

{{-0.027155513, -0.090175875, -0.0033985479},
{0.05682601, -0.12800306, 0.031270944},
{-0.033055216, 0.04846435, -0.10717716}},

{{-0.015439856, -0.021773463, 0.062443826},
{0.018475417, -0.14781724, -0.060604803},
{-0.066882126, -0.1234233, 0.16278517}},

{{0.1659844, 0.063639574, -0.052073482},
{-0.15463102, 0.026701348, -0.04039771},
{0.071370825, -0.14844558, 0.067816526}},

{{-0.0929174, -0.012015941, 0.04844168},
{0.16081302, -0.13754801, -0.100808755},
{0.032395512, 0.103714906, -0.041646488}},

{{0.03554617, -0.14119253, 0.12966116},
{-0.106053576, -0.12524004, -0.124853805},
{0.14480598, -0.1443445, 0.059921257}},

{{0.10882003, 0.074041426, -0.15500133},
{0.01773958, 0.057352632, 0.093524046},
{0.048581306, 0.101799615, 0.12645406}}},

{{{-0.03890195, 0.1208996, -0.023323756},
{-0.08178714, 0.055239353, 0.1435626},
{0.16648696, -0.039315894, 0.16240914}},

{{0.025198968, 0.027264688, 0.057795446},
{0.14409797, 0.0268222, -0.15721099},
{-0.110532686, 0.044121824, -0.09348674}},

{{0.12059805, 0.010595335, 0.12586035},
{-0.1357154, 0.12019229, -0.057923157},
{-0.019881593, -0.08954079, -0.15225655}},

{{0.13417682, -0.10779196, -0.012940874},
{-0.13341677, 0.12093847, 0.13240856},
{-0.16095816, 0.0006297177, -0.07331114}},

{{0.07465898, -0.1267688, 0.12462088},
{-0.0249166, 0.14864929, -0.12116593},
{0.027538825, -0.12360834, -0.027113311}},

{{-0.06107671, -0.08354415, -0.07778492},
{-0.02680247, 0.15522522, -0.05466196},
{0.09010139, -0.015196808, -0.018796703}},

{{0.042533394, -0.012781492, -0.061441235},
{-0.095601976, 0.023708679, -0.119903505},
{-0.09195032, 0.102010176, -0.007624351}},

{{-0.15286022, 0.054321684, 0.0692076},
{0.092495605, 0.15553977, -0.118760176},
{-0.15611544, 0.094507955, 0.007722846}},

{{-0.093291745, -0.12733494, -0.13270585},
{-0.03956829, -0.103298455, -0.09868829},
{-0.07749058, 0.16447793, 0.0028324714}},

{{-0.120482594, 0.03785302, 0.081374},
{-0.14277914, 0.071354724, 0.03409052},
{-0.08755143, -0.119750254, -0.12800182}},

{{-0.044855405, -0.08499107, -0.11297008},
{0.15650438, -0.08054372, 0.15418856},
{0.06250641, 0.10969783, 0.08248756}},

{{0.029589022, 0.10165237, -0.12840252},
{0.05390102, -0.07415196, -0.0011434901},
{-0.033569716, -0.061379455, -0.04838177}},

{{-0.014211123, 0.044238012, -0.062338866},
{-0.05800449, -0.14946772, -0.076322556},
{0.015828371, 0.0609599, -0.13140035}},

{{0.16559425, 0.058202654, 0.049083613},
{-0.015068499, 0.09973818, 0.09234325},
{-0.10352603, 0.0447197, 0.10320758}},

{{0.029709477, -0.013760576, 0.059116833},
{0.033016384, -0.06496753, -0.16096151},
{0.019807056, -0.12111909, 0.06858614}},

{{0.16578478, -0.13281596, -0.029758587},
{0.09812756, -0.046756282, -0.13696793},
{-0.015501547, 0.12518492, 0.018344486}}},

{{{0.104975924, -0.045146458, 0.12866218},
{0.023828998, 0.024645207, 0.070506446},
{0.00393884, 0.12011498, 0.0049876007}},

{{-0.09135259, -0.071122296, 0.13727917},
{-0.11671901, -0.013684059, -0.108807705},
{0.14720148, 0.0708451, -0.11230048}},

{{-0.10759328, 0.032572888, -0.023613844},
{-0.14604166, 0.1552478, -0.013447635},
{0.05097173, 0.07040781, -0.110707745}},

{{-0.15034835, -0.13577965, 0.025649497},
{0.13852115, 0.096788414, 0.04880906},
{0.14882426, 0.014677782, 0.007960879}},

{{0.028427247, 0.08058261, 0.13417058},
{-0.07082444, 0.16528676, 0.0986604},
{0.060602073, -0.014216712, 0.0061691166}},

{{0.06995175, -0.13291712, 0.12951103},
{0.09371921, -0.11393138, -0.09941032},
{0.13793328, 0.16034698, -0.08457106}},

{{-0.12057921, 0.11025299, -0.043112565},
{0.04466558, -0.15144023, 0.05830095},
{0.111310385, 0.10480417, 0.13292031}},

{{-0.117039345, 0.1120439, 0.08939403},
{-0.12823433, 0.13242683, 0.0860171},
{0.101003096, 0.09973739, 0.1601972}},

{{-0.009385009, 0.14306489, 0.16068326},
{-0.14319405, -0.062193204, 0.010276502},
{0.04148836, -0.014454218, -0.09734162}},

{{-0.061640743, -0.14414394, -0.10146193},
{0.13500078, 0.08798418, -0.06820965},
{-0.13129005, -0.021283852, -0.027923932}},

{{-0.064017765, -0.15163712, 0.03339731},
{-0.09331626, 0.054861236, 0.06361309},
{0.1363358, -0.098451704, 0.0254504}},

{{0.087101065, -0.14312501, -0.045960426},
{-0.076933555, -0.05909955, -0.056567736},
{0.013938235, -0.018515179, -0.15971696}},

{{0.1080284, 0.09642818, 0.072579995},
{-0.11765057, -0.04393355, -0.13455279},
{-0.15803637, -0.16071536, -0.020706808}},

{{0.072078, 0.1618416, -0.16603598},
{-0.06266767, 0.09840007, 0.13733833},
{-0.03675722, 0.0999311, 0.047533546}},

{{0.06505943, -0.0019198848, -0.087361604},
{0.09295489, 0.07661727, -0.13984753},
{-0.15332136, -0.07874331, -0.103594355}},

{{0.14185269, -0.034228757, -0.09893237},
{-0.01482878, -0.14702685, 0.09607462},
{-0.13576317, 0.055751655, -0.15164046}}},

{{{-0.13015327, -0.12254084, -0.0869323},
{-0.071843304, -0.027665513, -0.013142284},
{-0.15422842, 0.10839498, 0.06192071}},

{{0.09262209, -0.07832346, 0.088135496},
{0.13931479, -0.07707437, 0.1489885},
{-0.03539662, -0.072452925, 0.062397588}},

{{0.09072978, -0.16414101, -0.16239433},
{0.06310705, 0.15102655, 0.14799649},
{0.056921333, 0.028184352, -0.114494525}},

{{0.013942307, 0.13772261, 0.08757373},
{-0.11210436, -0.15282908, 0.07862727},
{-0.07225557, 0.1497333, -0.06518337}},

{{0.14324915, -0.12179538, -0.14159828},
{-0.029268142, 0.07147789, -0.04238619},
{-0.07552624, -0.08660274, 0.11474171}},

{{-0.15279672, -0.053455535, 0.09083848},
{-0.10434945, -0.08924161, -0.07193771},
{0.02003439, 0.11623959, 0.023070581}},

{{-0.09278399, -0.15753038, 0.044596728},
{0.15342861, -0.033694223, 0.005432254},
{0.12748429, 0.09573318, 0.0129216965}},

{{-0.16156918, 0.03534697, -0.07447652},
{-0.13479172, 0.14043146, -0.04544585},
{-0.10141932, -0.026126895, 0.1116935}},

{{-0.13395843, 0.16494451, 0.035085883},
{0.020883162, -0.058661982, -0.020186476},
{0.026472878, -0.037675288, -0.05281814}},

{{-0.072444245, 0.09681353, 0.14419237},
{-0.059930798, 0.13595517, -0.08618107},
{-0.061203882, -0.1000408, 0.15015787}},

{{0.13604152, 0.025985932, -0.15810393},
{0.08004745, 0.050199214, 0.008048244},
{-0.16484977, 0.11096583, 0.018601907}},

{{-0.13649465, -0.13399473, -0.0012751465},
{0.110115506, 0.0027500833, 0.11450761},
{0.102784865, 0.09518581, -0.069376044}},

{{0.13294892, -0.06435055, 0.16166236},
{-0.15871957, 0.045867756, -0.118036985},
{-0.10864703, 0.12143417, -0.0048352596}},

{{0.15292831, -0.082651705, -0.06383393},
{-0.0854198, -0.08388966, 0.16307348},
{-0.030687347, -0.024791079, -0.107500836}},

{{-0.008560889, -0.15438105, -0.13915356},
{0.05158675, 0.057936642, -0.03017388},
{0.15878797, 0.13904963, 0.008923671}},

{{0.038005225, 0.039470606, 0.060032573},
{0.16609116, 0.030951459, -0.14516006},
{0.12179475, 0.15102252, -0.10665598}}},

{{{-0.06844147, 0.062922366, -0.065067366},
{0.12877496, 0.1196008, 0.011027111},
{0.027526507, -0.096615866, 0.1622827}},

{{-0.12958938, 0.12922695, 0.11076932},
{0.074716195, -0.051416095, -0.08750986},
{-0.030436678, -0.08691049, -0.044862967}},

{{-0.07801857, -0.09254108, 0.14123623},
{-0.13761872, 0.036719, -0.05198195},
{0.0741254, 0.0064858254, -0.16109203}},

{{0.03342895, 0.09263221, -0.16240352},
{0.1014144, -0.16360484, 0.018292317},
{-0.0012995924, 0.0869647, 0.1483603}},

{{0.14692527, -0.16325131, 0.13819285},
{0.057457265, -0.12687798, 0.023289502},
{-0.06393893, -0.0042630895, -0.009299126}},

{{-0.06844764, -0.03947524, -0.113711774},
{-0.049245283, 0.124303676, -0.020923704},
{0.03988209, -0.0385743, -0.007391202}},

{{0.031080926, 0.09239337, -0.01304113},
{-0.12020128, -0.09578637, 0.13145055},
{-0.04668162, 0.067099735, 0.11882272}},

{{-0.07663694, 0.13466781, 0.025425019},
{0.025428917, -0.044520862, 0.015415825},
{0.025586067, -0.1170185, 0.1397449}},

{{-0.062810846, 0.066765524, -0.14947519},
{-0.094105765, 0.08671503, 0.026090441},
{0.013541298, -0.062813275, -0.07337078}},

{{-0.049174212, -0.12630472, -0.025491131},
{0.13730665, 0.050756447, -0.12199153},
{-0.07679393, -0.08661299, -0.076340735}},

{{-0.12631778, -0.0771511, 0.033127308},
{-0.085463226, -0.14679699, -0.091403},
{0.11624717, 0.044702336, -0.036219995}},

{{-0.1611555, -0.0042561754, 0.028168133},
{-0.11186322, -0.07499397, -0.1355655},
{0.028426606, 0.013466977, -0.0064482586}},

{{-0.06737576, 0.01749354, -0.094157934},
{-0.12838072, 0.104901865, 0.00620389},
{-0.12656942, -0.012552379, 0.02673367}},

{{0.104080245, -0.014853514, -0.026452465},
{0.012859793, -0.14021073, 0.15426631},
{-0.11599606, -0.12197188, -0.09964613}},

{{-0.08780395, 0.15402783, 0.05811646},
{-0.032090697, 0.12533636, 0.007873717},
{-0.04026332, -0.04136117, -0.07745032}},

{{-0.1547865, -0.1383886, -0.042944502},
{-0.099247046, -0.11112238, -0.15848947},
{0.16416503, -0.009577989, -0.030196948}}},

{{{-0.13569096, -0.1376674, 0.1529462},
{0.00968486, 0.09861459, -0.101407126},
{-0.16220765, -0.1254265, 0.07442458}},

{{0.1428046, -0.15226902, -0.07193216},
{0.04252705, 0.06475941, 0.039811235},
{-0.0004399402, -0.07647527, -0.0104318075}},

{{0.113460846, -0.12024669, 0.15074196},
{0.12239419, 0.09357227, 0.002841777},
{-0.15937369, -0.03741834, 0.14315453}},

{{-0.10004374, -0.068836294, 0.028813876},
{-0.121612296, 0.15495498, -0.055129517},
{-0.0502869, 0.023342375, -0.01466702}},

{{-0.04471526, 0.07582858, -0.060895246},
{0.11449885, -0.13846773, 0.10203398},
{0.028632585, 0.06416007, 0.031018132}},

{{-0.068987146, -0.0185294, 0.10461913},
{-0.16210006, -0.07780725, 0.12648043},
{0.06998623, 0.008041637, -0.035174802}},

{{0.003947704, 0.060764097, -0.015282373},
{0.14382038, -0.06845352, -0.1280385},
{-0.04649853, -0.09357944, -0.071824126}},

{{0.039257765, -0.14381273, -0.0036947317},
{0.15731023, -0.15035552, -0.036484867},
{-0.06040664, 0.12436838, -0.02861367}},

{{0.15734196, -0.07341307, 0.06537528},
{0.066861086, 0.066429906, -0.13426827},
{-0.08850157, -0.1341515, -0.080321826}},

{{0.15716846, 0.03146104, -0.08119481},
{0.11859906, -0.052753195, -0.12890863},
{-0.08503777, 0.0869904, 0.04134125}},

{{0.16384049, -0.013226603, -0.15109047},
{0.14226148, -0.15269534, -0.04376235},
{-0.14629099, -0.16109914, 0.13487774}},

{{-0.045463294, 0.04182169, -0.15235819},
{0.15997927, 0.12544827, -0.15199488},
{-0.14948149, 0.023202049, -0.13804615}},

{{-0.09375086, 0.10924915, 0.12916248},
{0.03357086, -0.0798371, -0.1321535},
{-0.10584269, 0.03308315, -0.16315934}},

{{-0.10935708, 0.07810054, 0.13169815},
{-0.06745427, -0.041120343, -0.0072623766},
{-0.079290785, -0.043089624, 0.1431912}},

{{-0.16313471, 0.13334408, 0.1402767},
{0.115242586, 0.13927399, 0.15282439},
{-0.0053703277, 0.01725238, 0.022837397}},

{{0.15008843, 0.16446565, 0.113694265},
{-0.07785933, -0.025322443, 0.15228207},
{0.11154341, 0.008181229, 0.07672904}}}};

const uint16_t shape_Conv2D_1_b = 8;
const float Conv2D_1_b[8] = {0.0014977378, -0.0010270491, -0.0003472752, 0.0014778737, 0.001660652, 0.0013564614, -0.0012596924, -0.00039961148};
