/*
 * author : shtsno24
 * Date : 2019-10-10 18:05:28.980900
 *
 */
const float Conv2D_0_w[16][1][3][3] =
{{{{0.12060564, -0.079426676, 0.16665867},
{0.060466047, 0.116821975, 0.13036078},
{0.11148972, 0.00019470515, 0.097116314}}},

{{{-0.19629371, -0.13757055, -0.03554054},
{0.0618091, 0.16654222, 0.07101029},
{0.16854668, -0.15195572, 0.0021330626}}},

{{{-0.15277672, 0.007023896, 0.16486105},
{-0.18552724, -0.17109752, 0.18531649},
{0.14348811, -0.09872029, -0.04319523}}},

{{{0.14310895, 0.06915767, 0.1681449},
{0.062352467, -0.03981174, -0.065223426},
{0.18837628, -0.033180334, 0.01457216}}},

{{{-0.09821499, 0.0032209011, 0.20936613},
{0.11193227, -0.12556963, 0.0493483},
{0.19537547, 0.008194996, -0.026879193}}},

{{{0.011390237, -0.13250248, -0.084435485},
{0.053978298, -0.11405775, 0.10105046},
{0.035926186, -0.05405087, -0.01877249}}},

{{{-0.1746648, -0.09337654, -0.033835668},
{-0.18340814, -0.13823171, -0.10066553},
{-0.044980753, 0.19588374, 0.10637458}}},

{{{-0.05290743, -0.10369873, 0.01759076},
{-0.08106881, -0.17395659, 0.16571288},
{0.07324337, 0.039534047, -0.019797249}}},

{{{-0.12209368, 0.04647884, -0.14570872},
{-0.11545265, -0.11731741, -0.1619003},
{-0.08971013, 0.20579784, 0.14767082}}},

{{{-0.05222939, 0.10931069, 0.1952144},
{-0.068959296, 0.18061078, 0.089417025},
{0.08012517, -0.07896447, 0.016334083}}},

{{{-0.052282453, 0.11166845, 0.063706234},
{0.10289355, -0.20277181, -0.1681317},
{-0.099791795, 0.1530113, 0.0018842444}}},

{{{-0.14446281, -0.012415363, 0.021180952},
{-0.0069352966, -0.07755618, 0.016735766},
{-0.052634478, -0.072074614, 0.15266988}}},

{{{-0.15609087, -0.034890212, -0.06697865},
{0.042686284, -0.003138452, -0.14192645},
{0.07067713, 0.008164297, -0.18423024}}},

{{{-0.14235677, 0.19017899, -0.13427377},
{0.17659372, -0.005381375, 0.16400215},
{0.04104112, 0.12593214, -0.06774942}}},

{{{-0.16478038, 0.09239463, 0.13718915},
{0.02210335, -0.13932888, -0.008744863},
{-0.167895, -0.07577133, -0.16964336}}},

{{{0.071560785, -0.052646495, 0.13239442},
{-0.08031826, -0.19788706, -0.0127625335},
{0.009983246, -0.078476004, -0.04198304}}}};

const float Conv2D_0_b[16] = {-0.0033416788, 0.0068149567, -0.015421517, -0.0023978562, 0.0044287364, -0.000110105895, -0.0025644547, 0.020745575, 0.016395677, 0.0038963745, -0.015902067, 0.016967397, -0.0020398423, 0.00052898534, -0.00034110266, -0.014960322};
