/*
 * author : shtsno24
 * Date : 2019-10-11 14:59:05.171522
 *
 */
const float Conv2D_2_w[16][8][3][3] =
{{{{0.0850459, 0.04611694, 0.058940347},
{-0.14488183, -0.10980653, 0.067163326},
{-0.05528739, 0.08279573, -0.0010292551}},

{{0.007038414, -0.013067278, -0.0371791},
{-0.16525026, -0.13650958, -0.10140822},
{-0.0011303192, -0.10591626, -0.14084053}},

{{0.04507319, -0.0056753107, 0.08758778},
{0.15034044, 0.10427574, -0.12282112},
{-0.13385414, -0.0049571767, 0.06699186}},

{{-0.017669527, -0.0225464, -0.06724322},
{0.12421167, -0.14828242, 0.022173202},
{-0.038691707, -0.112048924, 0.16333956}},

{{0.095397234, 0.039885614, -0.08350347},
{-0.1703207, -0.008994578, -0.03213292},
{0.11708134, 0.018897448, 0.014478868}},

{{-0.12588748, 0.025540644, -0.05945688},
{0.07415091, 0.16214888, 0.11631587},
{0.024756351, 0.037533745, 0.07999157}},

{{-0.16315363, -0.020899259, 0.09018785},
{0.13901612, -0.040872227, -0.012766918},
{-0.032153614, -0.1278665, -0.13779616}},

{{0.082703255, 0.13609323, -0.054822482},
{-0.0014395688, 0.0044507617, -0.09661724},
{0.08708283, 0.053875595, 0.07055898}}},

{{{0.07197538, 0.0582264, 0.07419944},
{0.09203646, 0.10708942, 0.102447025},
{0.054665618, 0.04675046, 0.13215001}},

{{-0.07198845, -0.14762267, -0.13866161},
{-0.103124574, 0.11141465, 0.0072857},
{0.12488902, -0.15185663, -0.05557364}},

{{0.1472725, 0.06773057, -0.08492147},
{-0.10461602, -0.0111097265, 0.14974241},
{-0.073079355, 0.04041527, -0.049060043}},

{{-0.14336725, 0.14309914, 0.15540455},
{0.13653116, -0.08081401, -0.03156934},
{0.10293518, -0.12011108, -0.14328176}},

{{0.07037138, -0.083669655, -0.15162924},
{-0.117560826, 0.009385507, -0.12338326},
{-0.04208591, -0.15168259, 0.002078359}},

{{-0.0016873267, -0.092117764, -0.10849359},
{-0.07942884, -0.05884122, -0.038980085},
{0.0828684, 0.059159048, 0.095989935}},

{{-0.117800765, -0.12548523, -0.013749641},
{0.030565934, 0.047200136, 0.07925549},
{-0.16014555, -0.1131764, -0.04130242}},

{{-0.082648754, 0.10001242, -0.10404671},
{0.14463153, -0.119722396, 0.0087499395},
{-0.09861066, 0.12146456, 0.08874673}}},

{{{0.09218335, -0.08531161, 0.085438736},
{-0.015369518, 0.023226095, 0.009139238},
{-0.1342663, 0.14245611, 0.115051314}},

{{-0.1402649, -0.023915552, 0.08172299},
{0.049340025, -0.07100001, -0.062240403},
{0.059923586, -0.010972683, 0.0060753254}},

{{0.05196467, 0.14624311, 0.15677592},
{0.12642168, -0.11598497, 0.02533835},
{0.1023655, -0.019765401, -0.13162294}},

{{0.009063849, -0.11902276, 0.01596899},
{0.088299766, 0.084723845, -0.009981013},
{0.13003695, 0.05334291, 0.024370627}},

{{-0.14099106, -0.06746725, -0.025596295},
{0.1347607, 0.0024121497, -0.104932755},
{0.16880657, -0.08458389, -0.105073646}},

{{-0.0119822975, 0.015528644, 0.06022432},
{0.08115651, -0.09629229, 0.16210523},
{-0.068812005, 0.041527603, -0.06108407}},

{{0.08851023, 0.031408988, -0.12028698},
{0.14000103, -0.025256446, 0.09707996},
{-0.06888773, -0.09361642, 0.027998995}},

{{-0.15853451, -0.0739314, -0.16431831},
{0.116013885, 0.020327237, 0.04429472},
{0.054666042, 0.045364704, 0.013017754}}},

{{{0.082032055, 0.056674164, 0.08516235},
{0.059249368, 0.12063101, 0.037724003},
{-0.0266938, -0.16193812, -0.046124216}},

{{0.10069333, -0.019886782, -0.047958624},
{0.0017244286, -0.050200015, -0.122183904},
{0.033831, 0.016640337, 0.15092146}},

{{-0.004601321, -0.07477721, -0.14430028},
{-0.098468944, -0.06682543, -0.11731644},
{-0.12118298, 0.031456415, 0.07879951}},

{{0.017885895, 0.065853514, -0.109469905},
{0.085608974, -0.06590646, -0.022235485},
{0.1485713, -0.045040075, -0.1209314}},

{{-0.010397186, -0.1341195, 0.055590145},
{0.16759409, -0.07164019, -0.023953903},
{0.11053317, 0.13259086, 0.07248199}},

{{-0.0032399977, -0.0026736925, -0.02140947},
{-0.16163813, 0.10662391, -0.13160215},
{-0.0930717, -0.01653569, 0.15972069}},

{{-0.10660986, -0.13275921, -0.08312795},
{0.16596586, -0.11618762, -0.09458779},
{-0.04487782, 0.01331456, -0.06949312}},

{{0.060594752, -0.036966253, -0.14640896},
{-0.081535295, -0.15538567, -0.04054029},
{-0.109813794, 0.012683867, -0.14731884}}},

{{{0.039013885, -0.13416308, 0.08993136},
{0.060080536, -0.11049633, -0.10105147},
{-0.15015745, 0.052430455, -0.15178108}},

{{-0.15691893, -0.1014409, -0.05467522},
{-0.0043921066, -0.0041481177, -0.064205945},
{0.08367874, 0.05368929, 0.059810705}},

{{-0.05888966, -0.012356726, -0.06154279},
{0.10781688, 0.12523217, 0.122037604},
{-0.06513996, 0.007368121, 0.16256206}},

{{0.14013097, 0.033926975, -0.15873472},
{-0.0328688, 0.06525752, -0.061615415},
{-0.06992535, -0.018192302, -0.0019469108}},

{{0.06076198, 0.06471425, -0.012751692},
{0.056151155, 0.043600805, 0.08414084},
{0.033719484, -0.030493416, 0.05032114}},

{{0.020275157, 0.12914227, 0.08208368},
{0.15192325, 0.08240292, -0.11000152},
{-0.14310415, -0.12213294, -0.15396902}},

{{0.12853532, -0.053352628, 0.052177306},
{-0.049316324, 0.0692907, -0.16115251},
{0.025251899, 0.04816695, 0.060420454}},

{{0.0132230995, -0.07525782, -0.03493975},
{0.10943052, -0.052415516, 0.13790692},
{-0.08858048, -0.002776823, -0.04276001}}},

{{{0.16090937, 0.15592381, -0.08317257},
{-0.073658325, 0.061870262, -0.15402225},
{-0.033721805, -0.10305344, 0.038497362}},

{{-0.13386899, -0.14951901, -0.13830249},
{-0.011513249, 0.0921125, -0.1597713},
{-0.04321929, 0.05251626, 0.1571474}},

{{-0.05383626, -0.0872714, 0.13564081},
{0.017824406, 0.006635711, -0.027132047},
{-0.025371287, -0.14540575, 0.11008727}},

{{0.0015893562, -0.07660029, -0.14608884},
{0.03735943, -0.01701378, -0.053381085},
{-0.06548462, 0.14595412, -0.05128074}},

{{-0.059103318, -0.036542814, 0.1424311},
{-0.13196857, -0.037337314, -0.02016649},
{0.15023784, 0.14378977, -0.06741318}},

{{-0.078552455, -0.061707012, -0.055229552},
{0.046413206, 0.031510185, -0.045789532},
{0.13153487, -0.0988246, -0.078665785}},

{{0.12603526, 0.10010569, -0.11878382},
{-0.15492849, -0.02651881, 0.11007138},
{-0.1152868, 0.13569692, -0.1581976}},

{{0.049874578, -0.009534853, -0.069884405},
{0.10230011, -0.04180574, 0.03987012},
{-0.12714888, 0.00044513348, -0.04017722}}},

{{{-0.14409576, -0.0841528, -0.11260798},
{0.16206521, 0.06950374, 0.037728816},
{-0.002301092, -0.10610111, -0.08104389}},

{{-0.05190267, 0.019912628, -0.10073797},
{0.04395047, -0.017848916, -0.024297245},
{-0.06389854, -0.15352452, 0.10945322}},

{{-0.14854728, -0.057328187, -0.009898232},
{-0.095477134, -0.06804797, 0.002680374},
{-0.15536156, 0.072555825, 0.131603}},

{{-0.14132112, 0.048843216, 0.12515232},
{-0.0112597905, -0.10572818, -0.028505672},
{-0.13575274, 0.11802998, -0.054173883}},

{{0.08103507, 0.1331639, 0.097674936},
{-0.111250915, 0.084783, -0.1461485},
{-0.12728764, -0.1396113, -0.13286819}},

{{-0.089966305, -0.13287993, -0.034379598},
{0.029569453, 0.0747089, 0.04420058},
{0.16042082, 0.064753786, -0.010639178}},

{{0.08422468, -0.094379924, 0.049385976},
{0.048491344, 0.15778008, -0.042057943},
{-0.15155686, 0.0758708, -0.0043018414}},

{{0.121508114, 0.11291625, -0.13223918},
{0.036157526, 0.056880012, 0.028633863},
{-0.013975933, 0.08579835, 0.13381155}}},

{{{-0.07321666, 0.12374797, -0.09012802},
{0.0077416943, -0.034995344, 0.14911194},
{-0.13730752, -0.1332722, -0.13600397}},

{{0.10609767, 0.0672875, 0.08718037},
{-0.16232091, 0.017755045, 0.15152484},
{0.13789149, -0.1638144, -0.108034335}},

{{0.1113613, 0.1105046, 0.019521926},
{-0.14310534, -0.13676806, -0.15254936},
{-0.10914131, -0.15694636, -0.06448255}},

{{-0.10983479, -0.12372342, -0.04985878},
{0.13321224, -0.10010354, -0.087486885},
{0.026992304, 0.07479149, -0.07700428}},

{{-0.07402883, 0.12927625, -0.02538215},
{-0.12272731, -0.067787565, -0.12427177},
{-0.05765723, 0.035290606, 0.1032764}},

{{-0.096864045, 0.08996558, 0.092128746},
{-0.025886495, 0.12507817, 0.008312946},
{-0.03611715, -0.10332461, -0.004288239}},

{{0.054543845, 0.116797134, 0.07752242},
{0.13826959, 0.02826071, 0.024613094},
{0.12824807, -0.1368334, 0.11845538}},

{{-0.028964704, -0.029913243, 0.10074212},
{0.027388668, -0.16260323, 0.038051084},
{0.027519979, -0.047025084, -0.0035971624}}},

{{{-0.048140116, -0.16589123, -0.09942218},
{0.15175977, 0.00022634052, 0.058671713},
{0.08292545, 0.12720627, 0.084462516}},

{{-0.019416068, 0.028055537, 0.13437577},
{0.15047762, -0.022270411, 0.13208416},
{0.124418244, -0.13911937, 0.12570462}},

{{-0.049198624, 0.0366946, -0.023075625},
{0.008273725, 0.0139534455, -0.01630523},
{0.06709351, -0.05057247, 0.012448995}},

{{0.019629955, 0.097569376, 0.16069274},
{0.05837309, -0.1377965, 0.10151608},
{-0.14986038, -0.024406277, 0.13231446}},

{{-0.13564853, -0.040820993, -0.0049907113},
{-0.011310988, 0.108511366, -0.002226374},
{0.102604814, 0.039686345, 0.047187317}},

{{-0.1261165, -0.11880394, -0.07225448},
{0.05216313, -0.12072744, 0.12781067},
{0.097446315, -0.048580058, 0.022676067}},

{{0.036282808, 0.04205992, 0.01594509},
{-0.15340666, 0.16144904, 0.1358218},
{-0.14675623, 0.09739308, 0.08960146}},

{{-0.11223099, -0.09161111, 0.12361465},
{0.11530465, 0.1334635, -0.16237736},
{0.14651622, -0.065459244, -0.046038084}}},

{{{0.09908725, 0.058315236, 0.020342598},
{-0.055462636, -0.05925891, 0.06475065},
{-0.107802756, -0.073858246, 0.042406492}},

{{0.04985525, 0.04573261, -0.05394262},
{0.13516653, 0.055916, 0.0012741555},
{0.0012008958, -0.033320494, 0.09130533}},

{{0.013710709, -0.103543006, -0.1262127},
{0.15664041, -0.091099516, 0.03137705},
{0.16189292, -0.13800478, 0.10627898}},

{{0.07796863, 0.14483152, -0.060184125},
{0.12120163, -0.11732774, 0.01930446},
{-0.12655762, -0.121849515, -0.043256756}},

{{-0.015625222, -0.05643514, 0.16317269},
{0.013572558, -0.0032972675, -0.090601094},
{0.11854943, 0.09758715, 0.14207394}},

{{-0.15824424, 0.022875883, 0.08669312},
{0.03354353, 0.013296424, -0.08173782},
{0.018826555, 0.04399819, 0.029365383}},

{{0.025822055, -0.121399395, 0.12890679},
{0.15352279, -0.16605835, -0.12552364},
{-0.055429667, -0.11387296, 0.15484239}},

{{-0.012258473, 0.074927606, 0.026773814},
{-0.002326523, -0.048396494, -0.07561698},
{0.14439423, 0.1215849, 0.038564846}}},

{{{-0.06150152, 0.15170647, 0.02083272},
{0.0287088, 0.15243214, 0.02533294},
{0.06952998, 0.14158583, 0.10024449}},

{{-0.078889854, 0.07878552, -0.022227785},
{-0.0147499135, 0.008352244, -0.13719338},
{0.0065483944, -0.021937363, -0.10578226}},

{{-0.03695759, 0.088093124, -0.10939989},
{-0.14288694, 0.045125246, -0.009692779},
{0.09434497, -0.116168, -0.1380197}},

{{0.081349164, 0.02475826, -0.09211069},
{-0.10407365, -0.09770028, 0.073694386},
{0.16579653, 0.0016619061, -0.11510181}},

{{0.030065103, -0.0023278398, -0.078509085},
{0.10288829, -0.09342527, -0.12635662},
{0.12434342, 0.0016288604, -0.037220035}},

{{-0.12566645, -0.07578564, -0.049918443},
{-0.15731125, -0.05699185, -0.01120774},
{-0.05087697, -0.019778367, 0.020166885}},

{{0.15872398, -0.11584797, 0.061225433},
{0.04828868, 0.10931048, 0.029124353},
{0.16666389, 0.120029904, -0.055541977}},

{{0.020169, -0.05269455, -0.052787766},
{-0.098578915, 0.022156077, -0.104619645},
{0.033667568, 0.13669536, 0.026279842}}},

{{{-0.0119421175, -0.06224, 0.12412952},
{-0.05805748, 0.13309795, 0.03726702},
{-0.06265753, 0.12130842, 0.15586779}},

{{0.16993494, -0.1250032, 0.13113011},
{-0.020130875, 0.06345145, 0.14429583},
{-0.14668304, 0.0993403, -0.10762735}},

{{0.08614997, -0.1355321, 0.053509224},
{0.08394899, 0.027319761, -0.04741197},
{-0.059154432, 0.029709162, 0.01536805}},

{{0.029867457, 0.090701655, -0.009603599},
{0.14978173, 0.1611591, -0.078785636},
{0.099438675, 0.1016611, -0.0680655}},

{{-0.11180959, -0.062147323, -0.004193331},
{-0.15242016, -0.050371416, -0.119567186},
{0.022108683, -0.11090427, -0.103925206}},

{{-0.004556604, -0.02370647, 0.04361179},
{-0.094543666, -0.122837484, -0.089598574},
{0.049011774, -0.09306299, -0.018013248}},

{{0.15051702, -0.07576642, 0.1320173},
{-0.017346293, 0.0208406, 0.022544244},
{0.11115109, 0.06793295, -0.16769297}},

{{-0.08654006, -0.1398277, -0.048788294},
{0.06421398, 0.032664303, -0.03613697},
{0.14040153, 0.011733214, 0.05208195}}},

{{{-0.031529818, -0.039988205, 0.10068736},
{0.085773446, 0.14344566, -0.08450923},
{0.027272625, -0.010543077, 0.059678826}},

{{0.013467534, 0.027705278, -0.14081325},
{-0.023585621, 0.1597888, 0.09583041},
{0.10531226, 0.0055424925, -0.016237205}},

{{0.09827973, 0.06351898, 0.06532014},
{-0.11699643, 0.06092138, 0.06319598},
{-0.044883773, 0.13455667, 0.09384474}},

{{0.025242375, 0.06267293, -0.115283296},
{0.09070394, -0.14810805, -0.10212602},
{-0.020565376, -0.16300884, -0.07379862}},

{{-0.046708837, 0.09747766, 0.032462597},
{-0.16148058, -0.043323047, 0.07051692},
{-0.06314263, 0.0987261, -0.049496137}},

{{0.056863528, -0.051346686, 0.04351573},
{-0.08522834, 0.11343872, -0.11763129},
{-0.10920345, 0.04525205, 0.10305445}},

{{-0.022104912, 0.0045780544, 0.061335105},
{0.05785695, -0.067911066, 0.091473214},
{1.917365e-05, -0.09372043, -0.043484174}},

{{-0.0531129, -0.029808098, 0.09263674},
{-0.022124607, -0.04735873, -0.016995788},
{0.114448965, 0.12809537, 0.027690047}}},

{{{-9.671715e-05, -0.08735513, 0.09968558},
{0.07521956, -0.09926317, 0.10875294},
{0.086084284, 0.07556823, 0.1678028}},

{{0.04710826, 0.14002074, 0.05479311},
{0.11872739, 0.070094176, 0.15679006},
{0.16218036, -0.0001593981, 0.04004235}},

{{-0.033383086, -0.05255, 0.14663927},
{-0.15927038, -0.003709609, 0.10666274},
{-0.052204978, -0.008480493, -0.009515679}},

{{0.05315926, 0.10075017, -0.10021058},
{0.093283854, 0.045256708, 0.029336547},
{0.16377284, -0.05315212, 0.12296022}},

{{0.00815712, 0.100723356, 0.11965337},
{-0.15806073, 0.119834274, 0.11704663},
{-0.10391587, 0.15079956, 0.13385284}},

{{0.15580069, -0.12631778, 0.1341311},
{0.12356888, -0.09544324, -0.021511843},
{0.009633462, 0.050245337, -0.048287097}},

{{-0.10957263, -0.04202851, -0.08853097},
{0.07272868, 0.112900406, 0.12160199},
{0.027845193, 0.14754611, -0.07151701}},

{{-0.11303557, 0.11971549, -0.056570873},
{-0.12232262, -0.078923635, 0.15322219},
{0.024548803, 0.0018858168, 0.13295162}}},

{{{0.169337, -0.1361879, -0.11987913},
{0.00019604526, -0.07283446, -0.121987864},
{-0.008671388, 0.09948577, 0.06051888}},

{{0.016637705, -0.07661157, 0.03434253},
{0.0483211, -0.07997987, -0.039315287},
{-0.15540276, 0.08886126, 0.043640524}},

{{-0.13761526, -0.121517494, 0.12072155},
{0.16207089, -0.115889706, 0.10288841},
{0.013712986, 0.1541637, 0.09101495}},

{{0.1435477, 0.04795327, -0.026490442},
{0.14754963, -0.04033425, 0.11249139},
{-0.0040012836, 0.0006256988, -0.053803913}},

{{0.122468926, 0.16095604, 0.13014182},
{0.029210897, -0.11185689, -0.1287591},
{-0.061748855, 0.11039773, 0.05325856}},

{{-0.021305647, -0.10627089, -0.06342069},
{0.16268858, 0.08954511, 0.15985075},
{0.10310549, -0.14669986, -0.026538022}},

{{0.13743778, 0.07402839, -0.119983315},
{0.025124023, 0.03537502, 0.069059126},
{-0.09853984, 0.0029140387, -0.16119815}},

{{-0.10549218, 0.021490995, -0.07763129},
{0.11827863, -0.107090876, 0.031680446},
{-0.042106416, 0.12493084, 0.123581626}}},

{{{-0.15605608, -0.116020285, -0.0140440725},
{-0.09434436, -0.042403825, 0.11466891},
{-0.09079823, -0.05169436, -0.0074820807}},

{{-0.1477406, 0.019224616, -0.09941037},
{-0.15448008, 0.1581003, 0.055110395},
{-0.05850101, 0.0015516863, 0.07599002}},

{{-0.12072301, -0.12976451, -0.16336197},
{0.08420496, -0.05451593, 0.004223595},
{0.019740494, 0.05903341, -0.12693493}},

{{-0.099814065, 0.01705532, 0.08719336},
{0.15451363, 0.15302409, -0.10581775},
{0.06164699, -0.040819008, 0.09844107}},

{{0.0026674517, 0.06712781, -0.019758033},
{0.13981771, 0.026867848, -0.07241013},
{-0.13120249, -0.03672431, -0.16261367}},

{{-0.04228103, 0.15531512, -0.086941004},
{-0.059157252, -0.06165076, -0.051669035},
{-0.043296408, -0.086373225, 0.04375982}},

{{-0.11410514, -0.004984076, -0.1415821},
{0.038450126, 0.034981735, -0.07997437},
{-0.11367005, -0.078510165, -0.07608465}},

{{-0.04866733, -0.09728452, -0.11740712},
{-0.13793479, 0.068551436, 0.07854244},
{-0.09248658, -0.11533084, -0.05982905}}}};

const float Conv2D_2_b[16] = {-0.005523365, -0.0050432174, 0.0047531384, 0.0061376677, -0.0053277104, -0.00499685, -0.0037686091, 0.0062152017, 0.006507695, -0.0018648256, 0.006080812, -0.0035184303, 0.0051341737, 0.005916715, 0.005910766, -0.0011640472};
