/*
 * author : shtsno24
 * Date : 2019-10-10 23:30:21.645768
 *
 */
const float Conv2D_1_w[8][16][3][3] =
{{{{0.129209, 0.051709797, -0.03583079},
{-0.11469399, -0.120118946, -0.07498188},
{-0.059529148, 0.10544758, 0.12525545}},

{{-0.051595394, 0.13880649, 0.111114234},
{-0.08101821, -0.15904695, -0.099743545},
{0.11018465, -0.1019096, 0.056011967}},

{{0.0701366, -0.11329527, 0.048528243},
{-0.024000473, 0.016576627, -0.028248522},
{-0.035902068, -0.15031616, 0.03732101}},

{{-0.10507786, -0.15205419, -0.06618374},
{0.10399362, 0.0015917855, -0.025746131},
{0.14735533, -0.0025555214, 0.09135992}},

{{-0.067252025, -0.1271093, -0.040742125},
{-0.026704092, -0.12889452, 0.04371874},
{-0.1426395, 0.03871976, -0.099744454}},

{{0.04814253, -0.020411422, -0.11479997},
{0.12794837, 0.110899195, -0.16615675},
{0.0145973405, 0.003956854, 0.13695027}},

{{0.07563254, -0.10008731, -0.0058034398},
{0.110736325, 0.16106324, -0.054162476},
{-0.029975893, 0.0605935, -0.022730837}},

{{-0.0945432, 0.16530034, -0.15251707},
{0.0050232783, -0.11554212, 0.090679154},
{0.013076035, 0.013999636, -0.08241169}},

{{-0.1119834, -0.07145793, 0.112664595},
{0.048580583, 0.1357398, 0.10254502},
{0.14325681, 0.07758591, 0.12007624}},

{{0.14843298, -0.113705486, -0.062222794},
{-0.0027902678, -0.12369742, 0.10932086},
{-0.11210682, 0.12578428, 0.1424041}},

{{0.10533975, 0.1384916, 0.1014662},
{0.0999835, 0.09148681, -0.02989216},
{0.1275294, 0.1137752, 0.022882653}},

{{-0.040618427, -0.058634277, -0.090798},
{0.043602098, 0.0637409, -0.032655325},
{0.09859404, 0.16099492, 0.14815468}},

{{0.055563428, -0.031919733, 0.10583703},
{-0.13245341, -0.06340787, -0.027159214},
{0.10584277, -0.1219962, 0.065575056}},

{{-0.03284567, 0.099341735, -0.08627543},
{0.063025, 0.11273946, 0.039757267},
{0.05019219, -0.16229117, 0.15392135}},

{{-0.16469705, -0.08395429, 0.13432343},
{-0.041981984, 0.065058395, -0.14342903},
{0.02280626, -0.034814846, -0.081848316}},

{{-0.15169175, -0.113181256, 0.11238866},
{0.16114923, 0.081247196, 0.1506392},
{-0.040193778, 0.08705597, -0.038970612}}},

{{{-0.0012865613, -0.07726328, -0.10919779},
{-0.1568139, -0.11126038, -0.019756494},
{0.094847806, -0.027980907, 0.07305175}},

{{-0.033882536, -0.08034708, -0.13399445},
{-0.06440219, 0.15188102, 0.042690612},
{-0.15848748, -0.121249996, 0.047727916}},

{{0.05890182, -0.12148405, 0.12147638},
{-0.085419565, 0.119721085, 0.11471881},
{-0.0894129, 0.08970389, 0.021303652}},

{{-0.042928614, 0.13152537, 0.15926728},
{0.11554135, 0.12455751, -0.011283277},
{0.14309868, 0.020535164, -0.15394206}},

{{-0.13562666, -0.12355316, -0.013107166},
{0.12266448, 0.07931144, 0.040675808},
{0.14778723, -0.029277194, 0.013675503}},

{{-0.03687105, 0.005041248, -0.16005765},
{0.14497869, -0.00372853, 0.030460117},
{0.006070482, -0.15689646, 0.047340464}},

{{0.121066436, -0.081620604, -0.077348545},
{0.0653225, 0.027237069, 0.10814066},
{-0.14083183, 0.12332182, 0.094065145}},

{{-0.006883993, -0.110784225, -0.11646228},
{-0.05817935, -0.106635064, -0.08362923},
{0.13847832, 0.09472332, -0.04363497}},

{{-0.031959053, -0.06544533, 0.16752182},
{-0.05493874, -0.13207772, -0.117749475},
{-0.15341519, -0.15386003, -0.11424341}},

{{-0.12136968, -0.014521295, 0.020335635},
{0.0888483, 0.13194676, 0.019403728},
{0.14643091, -0.05285784, 0.019730598}},

{{0.16320981, 0.0023112334, 0.10821608},
{0.022929218, -0.0012735645, 0.01271056},
{0.026408242, 0.0070851, 0.038738627}},

{{-0.07116773, -0.077585205, 0.08897786},
{-0.11507098, 0.0674092, 0.10900445},
{-0.026559064, -0.031163633, -0.012404312}},

{{0.023368869, 0.043002274, -0.03873085},
{0.109631166, -0.067608505, 0.09843745},
{-0.14918903, -0.09109122, 0.013278737}},

{{-0.09459167, 0.008476365, -0.11231248},
{0.01565073, 0.10486896, -0.034263253},
{-0.07299828, 0.020006187, -0.02759428}},

{{-0.03343949, 0.121642694, -0.09234203},
{-0.1085482, 0.15059634, 0.10522096},
{0.00643153, 0.122989126, -0.03652895}},

{{0.00029114776, 0.12234919, 0.0629251},
{0.02085369, 0.13699567, -0.11784072},
{0.0026798719, 0.10083572, 0.12716293}}},

{{{0.14035213, 0.07212175, -0.12656197},
{0.03447341, -0.12967227, -0.021726985},
{0.08067143, 0.06331964, 0.030420927}},

{{-0.08812546, -0.028476842, -0.05350164},
{-0.008175454, 0.13749225, 0.07413769},
{0.046658754, 0.1590789, 0.09587172}},

{{0.162081, -0.050508823, -0.15083827},
{-0.0051411185, -0.098589934, 0.11083858},
{-0.102685496, -0.11600651, 0.113155864}},

{{-0.16276158, -0.04358316, -0.021474073},
{0.033817768, -0.15902804, -0.10959301},
{0.083658814, -0.029653374, 0.11837819}},

{{0.066197015, 0.028256962, 0.04213113},
{0.15729123, -0.02073334, -0.033571742},
{0.14428417, -0.013057047, 0.055534575}},

{{-0.02630583, -0.090494335, 0.052904993},
{0.14861055, -0.06058788, -0.045782536},
{-0.15103409, -0.052172557, -0.09148278}},

{{0.11742876, 0.036635682, -0.028993756},
{0.097363375, 0.040438086, 0.1526092},
{-0.06552201, -0.15792966, 0.10850382}},

{{-0.15458049, 0.0032396114, -0.045007467},
{-0.09362963, 0.13142076, 0.14129686},
{-0.13415104, -0.025598725, -0.06850123}},

{{-0.15824969, -0.12589745, 0.15153606},
{0.117219515, -0.08764032, -0.11861904},
{-0.0970865, -0.09332117, -0.098090634}},

{{-0.0034873863, 0.121098146, -0.113622546},
{-0.12960239, 0.10950883, -0.0064540543},
{0.0953322, -0.06712716, 0.1499513}},

{{-0.07612136, 0.1389809, -0.12300661},
{-0.13235602, 0.12474293, -0.121543564},
{-0.07040188, -0.09561899, -0.09489763}},

{{-0.12688664, 0.09883805, -0.16335192},
{0.028093088, 0.09338927, 0.041726287},
{0.15470123, 0.09550166, 0.10257249}},

{{-0.1172097, 0.12265324, -0.06582984},
{0.12074551, -0.095063254, -0.020379733},
{0.15107147, 0.10137118, 0.122175224}},

{{0.0015636684, 0.15714903, -0.14584649},
{-0.16514803, 0.021881493, 0.15274532},
{0.1323919, -0.0017526208, 0.11902172}},

{{-0.026322251, -0.11418444, 0.037009537},
{0.08162117, -0.019057658, 0.11691113},
{-0.08912338, -0.16546772, 0.07325253}},

{{0.0025967578, 0.041025095, -0.023702985},
{-0.060047828, 0.02917222, -0.12940477},
{-0.11160936, 0.13997562, 0.12257575}}},

{{{-0.06985792, 0.1217979, 0.16307716},
{0.09472335, 0.0017378363, -0.13919696},
{0.035324067, 0.14415346, -0.121610895}},

{{-0.07571637, -0.11013109, -0.07268995},
{0.12337389, 0.06910845, -0.01892444},
{-0.012426919, 0.088502906, -0.083053805}},

{{-0.13734378, 0.11415369, -0.09940582},
{0.15612149, -0.046845775, -0.074237116},
{-0.12550955, 0.07026004, 0.053230666}},

{{-0.12719102, -0.08164699, 0.07044176},
{-0.035176396, 0.0027594804, 0.1608978},
{0.14403531, 0.031870738, 0.007991006}},

{{0.1280529, -0.13487355, -0.12805341},
{0.010453413, -0.01169062, 0.09552607},
{0.049136728, -0.063533, -0.141295}},

{{-0.12522706, -0.01184456, 0.099973924},
{0.053797107, 0.039807323, -0.15408498},
{-0.036587022, 0.036778126, -0.122719266}},

{{-0.13598147, -0.087383956, 0.053650882},
{-0.11653544, -0.040017754, -0.0131647615},
{0.10971454, 0.06415196, 0.016185347}},

{{-0.06763693, -0.11964109, -0.104757205},
{0.07297191, 0.16279308, -0.021428773},
{0.11727239, 0.015063431, -0.07767185}},

{{0.13861094, -0.020832866, 0.06511608},
{0.0150555, -0.0051028132, 0.15801688},
{-0.14919066, -0.044363745, -0.037386186}},

{{-0.1197559, 0.12260172, -0.120195605},
{-0.08810683, 0.098806694, -0.13856374},
{-0.09842968, 0.028125014, 0.0016647065}},

{{0.07362137, -0.123585604, -0.052372236},
{-0.070327334, 0.100761, -0.11854109},
{-0.09010173, 0.11832613, 0.05503513}},

{{0.1647463, 0.073723085, 0.12502639},
{0.030175956, 0.031852424, -0.018834863},
{-0.069513336, 0.1400629, -0.15616883}},

{{0.08893287, 0.12567909, -0.11228043},
{0.122794315, -0.05668904, 0.012304776},
{0.051331367, -0.024607254, -0.046977077}},

{{-0.10710709, -0.012768687, 0.067539245},
{0.086486265, 0.08666591, -0.118459016},
{-0.08316303, 0.15856154, -0.11536692}},

{{-0.04228566, -0.036276296, 0.013007132},
{-0.0683626, 0.0004851447, 0.066410795},
{0.15574646, -0.044756528, 0.019600965}},

{{-0.15359524, -0.12303023, 0.13808055},
{0.12929274, 0.06722176, 0.01786539},
{-0.13422446, -0.118443996, 0.12990828}}},

{{{-0.10449112, -0.0034186323, -0.084225416},
{0.02292174, 0.034249317, -0.086029425},
{-0.08267684, 0.041651938, -0.002053203}},

{{0.055197723, 0.016476354, -0.1575511},
{-0.039227705, -0.0025646293, 0.053635146},
{0.07532738, 0.09809889, -0.054429717}},

{{-0.11151792, -0.008794088, 0.009680591},
{-0.06849606, -0.13516365, -0.1505867},
{0.003948527, -0.10524249, 0.020122105}},

{{0.1153207, -0.089368545, -0.060426068},
{-0.0062600253, 0.110306226, 0.05454147},
{0.12534086, -0.09606878, -0.015507276}},

{{0.15658027, 0.09086728, -0.08501331},
{-0.15191089, -0.101018004, -0.039848384},
{-0.018737081, -0.10040557, 0.019509431}},

{{0.07694283, -0.058603585, 0.023543064},
{0.13494584, 0.028093355, 0.022229813},
{0.07218684, 0.059542723, -0.0054634656}},

{{0.11438898, -0.03815659, -0.0043300088},
{0.10158144, 0.1310342, 0.15246093},
{-0.1047563, -0.11148577, -0.08019733}},

{{0.13886598, 0.063059494, 0.15569077},
{-0.10821992, -0.02539816, -0.07357021},
{0.109609984, 0.07630625, 0.08173162}},

{{0.13792896, -0.08896916, 0.009659334},
{0.038608525, -0.09968085, -0.12675698},
{0.00800277, -0.153208, 0.16507554}},

{{0.068948865, 0.1628949, -0.09013025},
{-0.0035077692, 0.03176914, 0.0907686},
{-0.004081547, -0.00042119506, 0.100912236}},

{{0.016383296, -0.13388449, -0.114413254},
{-0.12777324, 0.1062865, -0.14226134},
{-0.1613707, -0.16370362, -0.03480481}},

{{-0.044443667, 0.017895108, 0.023695007},
{0.031609558, -0.030726798, -0.08370545},
{0.06487464, 0.15910733, 0.049135946}},

{{0.08770729, 0.089666575, -0.10729711},
{-0.07643493, -0.13525724, -0.024401413},
{0.025112337, 0.14189208, -0.012875711}},

{{-0.11535456, -0.04822096, 0.06316038},
{0.11706343, -0.00672998, 0.08303189},
{-0.15653035, -0.14881591, 0.12737817}},

{{-0.026082922, -0.043082714, 0.06462531},
{0.12612985, 0.13004999, 0.09035966},
{0.00054123235, 0.049360182, -0.053918388}},

{{0.06313551, -0.12196431, 0.15913941},
{0.11032922, -0.124391474, 0.06569177},
{-0.04167683, 0.14528124, -0.13267672}}},

{{{0.097093016, -0.017680308, -0.03722798},
{0.088753335, 0.13486888, 0.077387154},
{-0.13985996, 0.09270195, -0.044547595}},

{{-0.13403547, 0.042304177, -0.07147373},
{0.022067199, -0.112176046, -0.03650489},
{0.16036683, -0.020544985, 0.034038693}},

{{-0.10643782, -0.070394054, 0.1328659},
{0.04978714, 0.1153119, -0.084262036},
{-0.10295079, 0.12742825, 0.117894426}},

{{0.06584278, -0.026050385, 0.13124785},
{0.10024447, 0.0067882375, -0.15444349},
{0.06996449, -0.09350174, 0.06724189}},

{{-0.11161003, -0.081409246, -0.060254566},
{0.1300456, -0.035981685, 0.15019092},
{-0.042594776, -0.048348136, -0.010564314}},

{{0.07080469, -0.043479923, -0.013820416},
{0.06562804, 0.009797154, -0.06840419},
{-0.05652166, 0.06436432, 0.11370277}},

{{-0.078789264, 0.04177869, -0.09787088},
{0.03178769, -0.061337717, 0.09625776},
{0.11917812, 0.15883513, 0.123574175}},

{{-0.079744436, -0.13617869, 0.10578795},
{-0.086312324, -0.08166558, -0.1415054},
{-0.051784404, 0.1182192, -0.15382122}},

{{-0.02857723, -0.07047317, -0.08968374},
{-0.064916834, 0.005936391, -0.12829667},
{0.0822876, 0.15074947, 0.02229742}},

{{0.040202245, -0.124207005, 0.13595161},
{-0.004729213, -0.035604257, 0.104269244},
{-0.081391424, -0.13210733, 0.06553405}},

{{-0.1603655, 0.16422534, -0.15135291},
{-0.053447206, 0.06191918, -0.12441969},
{0.046605766, -0.08951238, 0.073129945}},

{{0.009534817, 0.102599345, 0.04580949},
{0.051336773, 0.05007568, -0.008027154},
{0.081952095, 0.059831772, 0.12050231}},

{{-0.107781015, -0.12797661, -0.14490412},
{0.066946924, -0.05440249, 0.08595711},
{0.06445748, -0.0096928645, -0.0016265024}},

{{-0.12506624, 0.10143888, -0.15460232},
{0.14562272, -0.043175053, 0.16134323},
{-0.07456026, -0.08179717, 0.14573617}},

{{-0.07022976, -0.056776993, 0.09236326},
{-0.00997242, -0.14169784, -0.022581918},
{-0.10557638, 0.05091238, -0.064988844}},

{{-0.009670092, -0.16173969, -0.06504784},
{0.0852615, -0.044573545, -0.024544667},
{0.07486369, 0.034637522, -0.05144444}}},

{{{0.13858223, 0.014975472, -0.12211376},
{0.16823713, 0.016980452, 0.12793314},
{0.012908886, -0.004922068, 0.14359684}},

{{0.14367275, -0.007383447, -0.04602466},
{-0.14394554, -0.12081282, 0.05407134},
{0.14665762, -0.069863915, 0.11554044}},

{{-0.016336909, -0.0701386, 0.05445294},
{-0.00808033, 0.07615895, -0.05573536},
{-0.048114683, -0.0543211, 0.14759879}},

{{-0.03378144, 0.07386213, 0.16300087},
{0.03500796, -0.09990663, 0.037197232},
{-0.06350158, -0.10245541, 0.014414659}},

{{0.055707607, -0.120663784, 0.06103417},
{-0.16564547, 0.0676707, -0.07143514},
{0.028794102, -0.06986219, 0.16313563}},

{{0.15302512, 0.12653361, -0.011630826},
{-0.1453028, -0.14106485, -0.044684436},
{-0.06971975, -0.0032599545, -0.07624354}},

{{-0.15970154, 0.15875927, 0.024149524},
{-0.11751285, 0.065426365, -0.1123091},
{0.0018213541, 0.13208546, -0.109947234}},

{{0.093955986, 0.07182872, 0.099466525},
{-0.08815026, -0.062771834, -0.08603923},
{-0.06843797, -0.025995865, -0.0077906004}},

{{0.16169801, -0.04590889, 0.14547801},
{-0.0020903093, 0.06231499, -0.1656835},
{0.08276561, -0.087077804, -0.15923393}},

{{-0.15065522, -0.10923396, -0.013370698},
{-0.038509358, -0.09356133, 0.12689926},
{0.023891725, 0.10208709, 0.1061873}},

{{0.13840991, 0.06675017, -0.16423824},
{-0.050031077, -0.16443262, 0.16555569},
{0.01443656, -0.1412378, 0.12679473}},

{{-0.00538223, 0.0007376993, -0.11954337},
{-0.09050704, -0.05797438, -0.13317023},
{-0.070979014, -0.11302373, 0.041788995}},

{{-0.0672241, -0.14987087, 0.0077176066},
{0.025050346, -0.15193161, 0.0076682963},
{0.011396723, 0.08778458, -0.07405886}},

{{-0.113065824, -0.0103539545, 0.09365452},
{-0.008168519, 0.068820134, 0.05327236},
{-0.11224717, 0.09965968, 0.05928541}},

{{-0.11715873, -0.035229396, -0.051471647},
{-0.038155437, 0.0012751215, 0.14471422},
{-0.14031538, -0.0121976705, 0.14767739}},

{{0.14026113, 0.14604244, -0.07581361},
{0.10605679, -0.06669043, 0.02645764},
{-0.0875191, 0.039989017, -0.109110676}}},

{{{0.099392265, -0.049502883, 0.06823592},
{0.07157453, 0.09934685, -0.002369255},
{0.16114876, 0.023154227, 0.032434307}},

{{-0.038854484, -0.12367375, -0.108055286},
{0.11854217, 0.098690175, -0.046131283},
{-0.1108187, 0.13024642, -0.120518714}},

{{-0.042735368, 0.05080443, 0.067191094},
{0.15760896, 0.062585756, -0.08563974},
{-0.02993899, 0.03073086, 0.04961722}},

{{0.07244044, -0.14822733, -0.123807795},
{-0.115804896, -0.09469131, 0.0072680954},
{-0.08310093, 0.07761681, 0.02069909}},

{{0.12494131, -0.10374161, -0.10729806},
{-0.117186554, 0.027421892, -0.023528898},
{-0.09943804, -0.16616511, -0.16156027}},

{{0.029148078, -0.15489519, -0.14083332},
{0.08468675, -0.07183866, 0.11136136},
{-0.052190326, -0.112271346, -0.107571915}},

{{-0.0992806, 0.1267881, -0.15996559},
{-0.11513117, -0.1350695, 0.053699575},
{-0.1379281, -0.07608407, -0.024075625}},

{{0.07552642, -0.11462799, -0.105363086},
{-0.043281958, -0.06442796, 0.1465097},
{0.0012451613, -0.06820609, 0.07288998}},

{{0.15243699, -0.10937363, -0.1440816},
{-0.0005703764, -0.07889351, -0.13911784},
{-0.05596458, -0.091933794, 0.096152194}},

{{-0.16159333, 0.0034270373, -0.03213726},
{-0.0367701, 0.0068925605, -0.076255076},
{-0.15476543, 0.087543346, -0.13481545}},

{{-0.01597544, -0.15451226, -0.14838602},
{-0.058711905, 0.15873021, 0.11551612},
{-0.14197151, -0.008711171, 0.08762172}},

{{-0.10827686, -0.11845371, 0.13298996},
{0.02845229, 0.107707076, -0.09240365},
{-0.04960025, 0.04552006, -0.046254545}},

{{-0.1462785, 0.0444787, -0.10494636},
{0.037911847, 0.0058731386, 0.051469874},
{-0.07009629, -0.05359095, 0.05992213}},

{{-0.10029456, 0.102336116, -0.13077748},
{0.14294617, 0.081331775, -0.023656987},
{-0.083381325, 0.11997595, -0.123320915}},

{{-0.061743762, -0.09681805, 0.02390378},
{-0.10940954, 0.05413505, 0.10988169},
{0.10366542, -0.14706625, 0.007180575}},

{{0.022283752, -0.0828507, -0.07393712},
{-0.068450764, -0.16206169, 0.11742365},
{0.009032863, 0.16220471, 0.012957304}}}};

const float Conv2D_1_b[8] = {0.006450144, 0.0061157905, -0.0035235507, 0.006053334, 0.0065678833, -0.0035153471, 0.006172868, -0.0029272102};
