/*
 * author : shtsno24
 * Date : 2019-10-10 18:05:28.981499
 *
 */
const float Conv2D_1_w[8][16][3][3] =
{{{{0.080743395, 0.018745018, 0.002434481},
{0.16609432, -0.05804568, -0.10253586},
{0.06318969, -0.14179036, 0.12092655}},

{{0.08887981, 0.08776901, -0.1377034},
{0.16852938, -0.13886389, -0.107227296},
{0.11841911, -0.05781481, 0.033872887}},

{{0.063657716, 0.0930637, 0.10750111},
{-0.10440605, -0.11557365, -0.10091584},
{0.16994019, 0.016524721, -0.14424509}},

{{0.06644021, 0.109291404, 0.063954204},
{0.04700496, 0.03492315, -0.008245901},
{0.16681418, 0.17294972, 0.11091276}},

{{-0.08602218, 0.011533972, 0.041046992},
{-0.0132250665, 0.13524222, 0.08798517},
{0.09240704, 0.040818993, -0.106484264}},

{{0.08481477, 0.053792063, 0.012040634},
{-0.13420494, -0.089897424, 0.08155975},
{-0.09107715, 0.07323575, 0.11998298}},

{{0.029761111, 0.07060477, 0.089221306},
{0.15220751, 0.06532566, 0.14132023},
{0.06547308, 0.13306272, 0.13974856}},

{{0.18229708, -0.11617137, -0.04455519},
{-0.09864353, 0.1558174, -0.0026133927},
{0.008439275, 0.015392395, -0.017835774}},

{{-0.05727592, 0.10939257, 0.04588914},
{0.021731725, 0.15403378, -0.075041436},
{-0.0028429253, -0.11351114, -0.092970334}},

{{-0.022225546, 0.09779369, 0.084704824},
{0.017501023, 0.094712086, 0.16930203},
{0.0874379, 0.11505339, -0.1400851}},

{{0.02769379, 0.1311256, -0.011888766},
{-0.07768901, -0.10511956, -0.04676096},
{0.07255777, -0.008696487, 0.10679738}},

{{-0.06652768, 0.12501305, 0.10471904},
{-0.075932115, -0.16855511, -0.030027015},
{0.08485317, -0.044693768, 0.11548236}},

{{0.11421745, 0.15266192, 0.046247665},
{-0.12481597, -0.10775284, -0.0899851},
{-0.051360324, -0.07965136, 0.06208749}},

{{-0.04065018, 0.11726438, -0.05641153},
{0.029255195, -0.05116135, 0.01687705},
{-0.06385506, 0.1572873, 0.08872175}},

{{0.16155343, -0.030063763, 0.11649389},
{0.049278703, -0.15299727, -0.054703515},
{0.14527975, -0.08700889, 0.13246652}},

{{-0.1415696, -0.105604485, -0.05698279},
{-0.018712586, 0.14564347, -0.10854643},
{-0.12627494, 0.01802845, -0.1015879}}},

{{{-0.12936099, 0.08604712, 0.10194334},
{0.08272798, -0.051710967, 0.14566001},
{-0.093652755, -0.016566293, 0.034356464}},

{{-0.14339362, 0.056046486, -0.026093699},
{0.11941189, 0.15840435, 0.032677703},
{-0.115718104, 0.1572182, -0.16229607}},

{{-0.0015805112, -0.057858992, -0.028275624},
{0.038669195, -0.1663127, 0.13031894},
{-0.097920515, -0.09781799, 0.0067029153}},

{{0.1283456, -0.035535537, 0.045279507},
{0.09880943, 0.15936957, -0.043048203},
{0.0007732149, 0.061808273, -0.040793676}},

{{0.16222636, -0.038125537, 0.0884202},
{-0.1470867, -0.057877563, 0.12773535},
{-0.042147696, 0.10650829, -0.07447652}},

{{0.011608049, 0.12241893, 0.055888187},
{0.054562505, 0.119163044, 0.05935508},
{0.02406132, -0.054337848, 0.13654415}},

{{0.069204554, -0.09178715, -0.061941627},
{0.00734833, 0.14422002, 0.02224758},
{0.11414372, 0.14672573, 0.14497519}},

{{0.10969799, -0.02403483, -0.0041627474},
{0.04653735, -0.05017317, -0.0076389494},
{-0.15880439, -0.04364187, -0.026633112}},

{{0.16579758, -0.045106117, 0.1124222},
{0.120640785, -0.14667755, 0.1347019},
{-0.10941799, -0.06192574, 0.020948566}},

{{-0.008017247, 0.05061844, 0.11254465},
{0.045715015, 0.035684027, 0.12838301},
{-0.10133894, 0.02605387, 0.018263025}},

{{0.12453028, -0.1643541, -0.0045300056},
{-0.10944573, 0.1004514, 0.05127437},
{0.03635723, -0.1500961, -0.109753884}},

{{0.11960227, -0.04131868, -0.037511043},
{0.040814493, 0.09571916, 0.0040529813},
{-0.03014869, -0.16070022, 0.025494084}},

{{0.020825716, 0.13675654, -0.15042837},
{-0.06379348, -0.10257949, 0.13159117},
{0.04708024, -0.13729802, -0.05980489}},

{{-0.018475447, 0.030608881, -0.12181099},
{0.04851841, 0.15632087, -0.166906},
{0.109437816, 0.080717735, -0.060986903}},

{{-0.13397892, -0.16516763, 0.11328558},
{-0.16682181, -0.14353004, -0.09849795},
{0.10352101, 0.02083781, -0.15141867}},

{{0.08936018, -0.05910057, 0.09635194},
{0.00915633, -0.16603972, -0.08133117},
{0.123365186, -0.055557635, 0.07493773}}},

{{{0.14324173, 0.112603344, 0.119684584},
{-0.062026672, 0.00020594256, 0.09161274},
{0.095346764, 0.1098084, -0.16848491}},

{{0.14604452, -0.06494588, 0.04836487},
{-0.0413603, -0.1171196, 0.06237405},
{-0.10978025, 0.021775564, -0.13088843}},

{{0.12107022, 0.08551773, -0.101452105},
{-0.091220476, 0.06942225, 0.108818635},
{-0.0056146197, 0.059719566, 0.06714015}},

{{-0.06982844, 0.10055701, 0.06552957},
{-8.275311e-06, -0.17857948, 0.02954906},
{0.030905562, -0.1540459, 0.09861016}},

{{0.08132955, 0.010864785, -0.034426592},
{0.119835764, -0.14294411, 0.06127817},
{0.015437029, 0.025360776, 0.095083974}},

{{0.15950853, 0.025678663, -0.11398866},
{0.03995039, -0.14719914, -0.1150258},
{-0.11785075, 0.012276494, 0.018660974}},

{{-0.11199465, -0.0053251814, -0.16355081},
{-0.12533285, -0.14790747, -0.04640656},
{0.11819072, 0.0008220973, 0.007860382}},

{{-0.10142863, 0.04559207, 0.122566454},
{0.09130843, -0.1619919, -0.13841972},
{-0.024481174, -0.17229964, -0.03589774}},

{{-0.07808508, 0.09575969, -0.11097409},
{-0.15237747, 0.07329788, -0.07830282},
{-0.00060954835, -0.1655419, -0.11378479}},

{{0.019007124, -0.04598937, -0.061653953},
{-0.055805296, -0.16602902, -0.15926231},
{-0.119466506, 0.091390796, 0.041395456}},

{{-0.065755144, -0.089618504, 0.12795438},
{-0.10390655, -0.13068023, -0.01634501},
{-0.05073106, -0.0705911, 0.04201091}},

{{0.097085066, 0.1002955, 0.029177394},
{-0.021243703, 0.057510503, -0.14908683},
{0.059897862, -0.08909263, 0.0036445535}},

{{0.09381772, 0.06260616, -0.11679333},
{0.13537964, 0.03006574, 0.011040036},
{0.14077681, 0.08580529, 0.08253742}},

{{0.16200608, -0.1632366, 0.1131108},
{0.16164473, 0.10978339, -0.08920006},
{-0.15887679, -0.13916309, 0.04753318}},

{{0.016058916, -0.013142566, -0.079292804},
{-0.0051135323, 0.10958796, -0.1334096},
{-0.09542777, 0.07211242, -0.12825988}},

{{0.15584542, -0.0784637, 0.04305537},
{-0.021576166, 0.08548696, -0.160142},
{0.05678081, -0.050057404, 0.013152884}}},

{{{-0.00059274863, 0.12119388, -0.061722305},
{0.15659332, 0.17312846, 0.10584201},
{0.10323091, 0.0753793, 0.06410656}},

{{-0.01969361, 0.017748876, -0.07218718},
{-0.064679556, 0.07561419, -0.1226258},
{0.033887744, -0.10697151, -0.13632339}},

{{-0.13628928, 0.04789543, -0.041914705},
{-0.07252845, -0.014585586, 0.09446228},
{-0.033922613, -0.032362927, 0.11768399}},

{{-0.10829991, 0.055958357, 0.17708284},
{0.06311261, 0.08908982, -0.040194817},
{-0.008770169, -0.13360205, 0.093031585}},

{{-0.14169261, -0.053275045, -0.045624405},
{0.17060752, 0.10143854, -0.14468557},
{0.121315606, 0.046033986, 0.0044884956}},

{{-0.025664158, -0.066074006, -0.11451068},
{0.14559676, -0.014027482, 0.015084226},
{0.10315723, 0.0002364878, -0.072573684}},

{{0.09291028, 0.13447152, -0.12991445},
{-0.13791095, 0.055203114, -0.13582698},
{-0.11494428, 0.090516895, -0.123157695}},

{{0.1413306, -0.049156863, 0.14512591},
{-0.07742189, -0.092539154, -0.1336815},
{-0.052392527, -0.06649566, -0.117286384}},

{{-0.03941278, -0.086108424, 0.1138321},
{-0.11834783, -0.11290045, -0.15862194},
{-0.11347404, 0.07912247, 0.041219395}},

{{0.041393455, -0.02947893, 0.12800044},
{-0.09146786, 0.176151, 0.10634534},
{-0.10092067, 0.14637518, -0.13614203}},

{{-0.06542836, 0.06886217, -0.05860503},
{-0.10996303, 0.0009576351, -0.14631753},
{-0.12614398, -0.1344949, 0.0742423}},

{{-0.025639981, -0.053198364, 0.042721763},
{-0.074216045, 0.067101225, -0.08635949},
{-0.14468546, -0.053727996, -0.13137336}},

{{0.10203851, -0.088288315, 0.04753398},
{-0.10453109, 0.077429056, 0.07944622},
{0.15234289, -0.0018508144, -0.14697705}},

{{0.1581456, 0.05286744, 0.15273766},
{-0.098868094, -0.050129537, -0.08970088},
{-0.0440187, 0.07422423, -0.090451084}},

{{0.09837535, 0.040664017, -0.063372046},
{0.046542905, 0.048986845, 0.007838515},
{-0.11574573, -0.09545763, -0.0065656356}},

{{-0.10716235, 0.07262045, -0.17313711},
{0.16411649, 0.05590375, 0.10378985},
{0.06935108, -0.012520132, 0.0002998162}}},

{{{0.05909249, -0.1141108, -0.010736428},
{-0.008210417, -0.08527499, -0.12794426},
{0.14334555, -0.058169704, 0.048030764}},

{{-0.060345672, -0.06669251, -0.14466707},
{-0.16158734, 0.1594802, -0.016507126},
{-0.17207928, 0.036901575, -0.1562691}},

{{-0.052597754, 0.122035645, -0.13520695},
{0.05440443, 0.07724426, -0.042595543},
{0.057451546, -0.10004749, 0.012406192}},

{{-0.074017584, 0.19507268, -0.109900996},
{-0.019456951, -0.06194297, -0.012409112},
{0.16886397, 0.090605594, 0.029883774}},

{{0.16469774, 0.16585143, 0.13471241},
{0.049338333, 0.17884059, 0.08282391},
{0.09445309, 0.011549426, -0.06964419}},

{{-0.07168737, 0.054255154, 0.052776888},
{-0.13559705, -0.099315494, -0.091623716},
{-0.0122703565, -0.07253296, 0.042297594}},

{{0.1319021, 0.07412901, -0.043872993},
{-0.13191415, 0.13918635, 0.05697366},
{0.02086531, 0.07395874, 0.08700495}},

{{0.13809691, 0.07248197, 0.058294307},
{-0.15303765, -0.033559974, -0.008530359},
{-0.0516145, -0.05389178, 0.016318524}},

{{-0.039929625, 0.06275714, -0.051449027},
{-0.061147824, -0.07612262, -0.098310046},
{-0.16999647, 0.028235562, -0.018066047}},

{{-0.09140142, -0.0698951, 0.17498235},
{0.19552542, -0.0036482387, -0.07357638},
{0.081712164, 0.061048303, -0.11446528}},

{{0.15139104, 0.027372245, 0.04217465},
{-0.109397165, -0.1400583, 0.116964094},
{0.037741728, 0.0033889392, -0.012922406}},

{{0.155914, 0.16465333, -0.016304677},
{-0.13753681, 0.03785336, -0.018207707},
{-0.10122249, -0.039185014, -0.10338608}},

{{-0.024921574, -0.15011829, -0.114018634},
{0.06352124, 0.01284056, -0.13619456},
{0.010321137, 0.03569396, 0.13065371}},

{{-0.120912656, 0.0728812, 0.002824353},
{0.0966151, -0.045425076, 0.11612727},
{0.062118918, 0.008746865, -0.12591286}},

{{-0.045556907, -0.144141, -0.13810815},
{0.12523405, 0.050691918, 0.14092153},
{-0.05970598, -0.008003149, -0.16083284}},

{{-0.045644093, 0.069118746, 0.106496334},
{-0.012437552, 0.16778462, 0.13965647},
{-0.11460007, -0.076796375, -0.037207454}}},

{{{0.04364924, -0.12369954, 0.15335019},
{0.111074395, -0.048679207, 0.16162005},
{-0.06982757, -0.030320894, -0.1435985}},

{{-0.11305624, -0.17544192, -0.09176047},
{-0.0510537, -0.09469558, 0.0321884},
{-0.058497086, -0.053897597, -0.068916306}},

{{0.13795522, -0.101284236, 0.12556542},
{-0.09359783, -0.023509393, 0.09394799},
{-0.07889408, 0.14449994, 0.06802464}},

{{-0.01629604, -0.12822908, -0.051008277},
{0.0347959, -0.15087453, -0.16366845},
{0.09010263, 0.050187774, 0.1042526}},

{{0.1379229, 0.09223413, 0.11487185},
{-0.16260841, -0.120480254, -0.12483589},
{-0.14282641, -0.037651017, -0.02167302}},

{{-0.0033220346, -0.10440748, -0.1385991},
{-0.14479554, 0.0053607887, 0.09602032},
{-0.1550712, 0.15173197, 0.10948069}},

{{0.08305187, 0.05980664, -0.052835237},
{-0.122609966, -0.10051558, -0.117527656},
{0.100428164, 0.022874901, -0.09642799}},

{{0.12572294, 0.01913947, 0.010978324},
{0.14558448, 0.05786632, 0.12227135},
{0.09720412, -0.07075823, 0.060931657}},

{{0.0737585, -0.09586128, -0.1650569},
{-0.09375855, 0.12378587, -0.09855148},
{-0.024990642, -0.020594966, 0.1353128}},

{{-0.10266186, -0.13382536, 0.14740402},
{-0.078548335, 0.04631416, 0.17625323},
{0.13679014, 0.003371075, -0.006573034}},

{{-0.08836435, 0.14964303, 0.02279428},
{-0.029540518, 0.028114825, -0.07647109},
{0.1493739, 0.14736353, 0.09435303}},

{{0.14337724, -0.069062434, -0.0915142},
{0.01512272, -0.016772227, 0.047906272},
{-0.14053623, 0.070200734, -0.08821759}},

{{0.107950315, -0.081195, -0.10171214},
{0.045372713, 0.15608314, 0.11282956},
{-0.13199806, 0.043403357, -0.08619655}},

{{0.04792663, -0.050316982, 0.066507146},
{-0.13990633, 0.05952379, -0.005961234},
{0.0979792, 0.09174677, 0.0020045594}},

{{-0.049115006, -0.0407384, 0.11952724},
{-0.06817962, -0.047839027, 0.040512595},
{-0.13604125, -0.089117125, -0.06395212}},

{{-0.103557646, 0.13306177, -0.052728135},
{-0.0038933645, -0.045361042, 0.007256653},
{0.12518883, 0.0326192, 0.048013162}}},

{{{0.09332307, -0.033245236, -0.17731269},
{0.13680092, -0.068108596, 0.14080124},
{-0.118751116, 0.076772265, -0.021586366}},

{{0.013683784, -0.14576551, 0.15596347},
{0.007913313, 0.11634421, -0.029322073},
{0.11189653, -0.022639431, -0.077936016}},

{{0.13008879, 0.08918074, 0.066264555},
{-0.036001332, 0.15518968, -0.10069084},
{0.12414371, -0.061134607, -0.03451714}},

{{0.07736412, -0.052617166, -0.0064561535},
{0.01593553, -0.022890521, -0.044653725},
{0.12130912, -0.1687523, 0.044456102}},

{{-0.039487567, 0.109241456, -0.13605827},
{0.061824452, 0.042437207, -0.076229565},
{0.06144478, -0.024706073, -0.03385238}},

{{0.0116359815, -0.10910258, -0.11219427},
{-0.09373868, 0.12841453, -0.05936098},
{0.12148064, 0.021321796, -0.074056394}},

{{-0.05291577, -0.0861108, -0.003742328},
{-0.15835196, -0.066493034, -0.1374377},
{0.09034789, 0.053189, -0.081623845}},

{{0.15598068, 0.0033862065, -0.06158075},
{0.13585079, 0.010755237, -0.15234898},
{-0.008973015, 0.10969505, -0.120515056}},

{{-0.0803053, -0.031939726, 0.086587496},
{-0.15326262, -0.033300783, -0.08026873},
{0.07560789, -0.13821706, -0.02469537}},

{{-0.12602869, -0.16314664, -0.14396562},
{0.11530639, -0.0197912, 0.05246211},
{0.13513921, -0.0663927, 0.020895537}},

{{-0.06581352, -0.15053236, 0.09481296},
{-0.076920606, -0.122592516, 0.019648965},
{-0.09715766, 0.0609734, 0.10147783}},

{{-0.14011662, -0.13633388, -0.17223698},
{0.06959766, -0.005404392, -0.1081674},
{0.08712226, 0.16354457, -0.05644852}},

{{0.10600112, 0.04826352, -0.07291622},
{-0.039217647, -0.04787752, 0.078082114},
{-0.061187234, 0.03783655, 0.004357179}},

{{0.03883114, 0.031681616, -0.07141051},
{0.0029557396, 0.119489804, -0.11703449},
{-0.10291157, 0.073993064, -0.1559914}},

{{0.1408878, -0.09394301, 0.16451779},
{-0.12016911, 0.005461771, -0.13505886},
{0.027012736, 0.14088447, -0.12085024}},

{{0.14221828, 0.009240384, 0.06332193},
{-0.028510889, -0.10072008, -0.09307117},
{0.071203016, -0.09613237, 0.16029143}}},

{{{-0.1537158, -0.11504976, 0.015900254},
{-0.101724595, -0.073430836, -0.14532334},
{0.0840484, 0.17607285, 0.09625994}},

{{-0.13799156, -0.049187135, -0.10391416},
{-0.043175153, 0.14073738, 0.01233851},
{-0.1399144, 0.009545605, 0.094397}},

{{0.11997312, 0.001701558, 0.087377965},
{-0.111271605, -0.05598581, -0.13633457},
{-0.13500142, -0.059249744, -0.030968724}},

{{-0.11351825, -0.053373218, -0.023542156},
{-0.06925758, -0.105939776, -0.03510556},
{0.0666054, 0.15623108, -0.12303038}},

{{0.11927168, 0.052567262, -0.06719824},
{0.043564156, 0.09702554, 0.17759845},
{0.08566112, -0.12617052, 0.06208017}},

{{-0.108529836, -0.11549368, 0.13016422},
{-0.1395344, -0.052651525, 0.12403287},
{0.091128364, -0.11487528, -0.13074839}},

{{0.14102153, -0.052123714, -0.017343862},
{0.11418239, -0.00932791, -0.06367135},
{0.0070185517, -0.016140303, -0.13686627}},

{{0.04647147, -0.14979564, 0.09923708},
{-0.15487398, 0.16983649, -0.10327648},
{0.14937212, 0.17982753, 0.038511507}},

{{0.16422972, -0.12940525, 0.067536175},
{-0.0250356, 0.09465212, 0.08866839},
{-0.05435392, 0.094707236, -0.08692023}},

{{0.06625941, 0.12759535, -0.061027255},
{-0.06748396, -0.09709786, 0.17649172},
{-0.103499345, 0.14208047, 0.0639332}},

{{-0.11886061, 0.14712693, -0.12710802},
{-0.09564485, -0.00052848633, 0.013869789},
{-0.15456052, 0.034316838, 0.09894636}},

{{0.12859896, 0.07590841, 0.027036035},
{0.15723461, 0.12236517, 0.13860379},
{0.14271764, -0.043092385, -0.102611504}},

{{0.17115638, -0.103333876, 0.1463536},
{0.16612504, -0.10301333, -0.009529087},
{0.0042279228, -0.12682207, -0.058506913}},

{{-0.017569637, 0.061963808, -0.08063285},
{0.14366397, -0.15167971, 0.10306125},
{0.1464226, -0.14452508, -0.11729856}},

{{0.14223036, 0.03881069, -0.009246879},
{-0.16594547, 0.059816435, -0.015475427},
{0.050590057, -0.072427444, 0.11999329}},

{{0.06287264, -0.067750305, 0.0068185236},
{-0.11058545, 0.082356274, 0.12728244},
{0.09782001, -0.04137894, 0.15254244}}}};

const float Conv2D_1_b[8] = {0.009897387, -0.002102211, 0.0015784047, -0.006835704, -0.005604293, 0.00092962204, -0.0009102989, 0.028093852};
