/*
 * author : shtsno24
 * Date : 2019-10-14 17:15:09.625505
 * array_type : int16
 * fractal_width : 9 bit
 * bit_width : 16 bit
 *
 */
#pragma once
#include <stdint.h>

#define data_width_Conv2D_1 16
#define fractal_width_Conv2D_1 9

const uint16_t shape_Conv2D_1_w[] = {8, 16, 3, 3};
const int16_t Conv2D_1_w[8][16][3][3] =
{{{{61.00000000000000000000, 33.00000000000000000000, -48.00000000000000000000},
{8.00000000000000000000, -73.00000000000000000000, -72.00000000000000000000},
{46.00000000000000000000, -23.00000000000000000000, 10.00000000000000000000}},

{{39.00000000000000000000, -48.00000000000000000000, 44.00000000000000000000},
{-84.00000000000000000000, -16.00000000000000000000, 26.00000000000000000000},
{-72.00000000000000000000, -53.00000000000000000000, 39.00000000000000000000}},

{{-70.00000000000000000000, 4.00000000000000000000, 40.00000000000000000000},
{-53.00000000000000000000, -23.00000000000000000000, -26.00000000000000000000},
{-20.00000000000000000000, 20.00000000000000000000, 11.00000000000000000000}},

{{80.00000000000000000000, -7.00000000000000000000, 27.00000000000000000000},
{11.00000000000000000000, -52.00000000000000000000, 29.00000000000000000000},
{-6.00000000000000000000, -19.00000000000000000000, -57.00000000000000000000}},

{{-4.00000000000000000000, 84.00000000000000000000, -57.00000000000000000000},
{-20.00000000000000000000, 69.00000000000000000000, 72.00000000000000000000},
{-27.00000000000000000000, -20.00000000000000000000, 8.00000000000000000000}},

{{-45.00000000000000000000, 85.00000000000000000000, -50.00000000000000000000},
{27.00000000000000000000, -44.00000000000000000000, 22.00000000000000000000},
{-43.00000000000000000000, -14.00000000000000000000, -25.00000000000000000000}},

{{-26.00000000000000000000, 37.00000000000000000000, -27.00000000000000000000},
{-15.00000000000000000000, -4.00000000000000000000, -77.00000000000000000000},
{32.00000000000000000000, 20.00000000000000000000, 26.00000000000000000000}},

{{-58.00000000000000000000, -77.00000000000000000000, -41.00000000000000000000},
{-36.00000000000000000000, 52.00000000000000000000, 2.00000000000000000000},
{55.00000000000000000000, 67.00000000000000000000, 27.00000000000000000000}},

{{46.00000000000000000000, 22.00000000000000000000, -12.00000000000000000000},
{-68.00000000000000000000, 26.00000000000000000000, 73.00000000000000000000},
{3.00000000000000000000, 24.00000000000000000000, -6.00000000000000000000}},

{{-80.00000000000000000000, -55.00000000000000000000, 43.00000000000000000000},
{-49.00000000000000000000, -47.00000000000000000000, 54.00000000000000000000},
{23.00000000000000000000, -50.00000000000000000000, -70.00000000000000000000}},

{{-11.00000000000000000000, 37.00000000000000000000, 41.00000000000000000000},
{-61.00000000000000000000, 53.00000000000000000000, 15.00000000000000000000},
{-23.00000000000000000000, -8.00000000000000000000, -82.00000000000000000000}},

{{38.00000000000000000000, -52.00000000000000000000, 69.00000000000000000000},
{-79.00000000000000000000, -31.00000000000000000000, -15.00000000000000000000},
{-50.00000000000000000000, 44.00000000000000000000, 73.00000000000000000000}},

{{-41.00000000000000000000, -69.00000000000000000000, -30.00000000000000000000},
{-82.00000000000000000000, 68.00000000000000000000, -18.00000000000000000000},
{10.00000000000000000000, 25.00000000000000000000, 8.00000000000000000000}},

{{28.00000000000000000000, 35.00000000000000000000, 48.00000000000000000000},
{31.00000000000000000000, -60.00000000000000000000, 65.00000000000000000000},
{69.00000000000000000000, 70.00000000000000000000, -33.00000000000000000000}},

{{43.00000000000000000000, -33.00000000000000000000, 56.00000000000000000000},
{21.00000000000000000000, 39.00000000000000000000, 82.00000000000000000000},
{-10.00000000000000000000, -65.00000000000000000000, 71.00000000000000000000}},

{{-17.00000000000000000000, -54.00000000000000000000, -70.00000000000000000000},
{-82.00000000000000000000, -74.00000000000000000000, 37.00000000000000000000},
{1.00000000000000000000, -77.00000000000000000000, 43.00000000000000000000}}},

{{{80.00000000000000000000, 52.00000000000000000000, -79.00000000000000000000},
{6.00000000000000000000, 49.00000000000000000000, 74.00000000000000000000},
{85.00000000000000000000, -9.00000000000000000000, -14.00000000000000000000}},

{{-57.00000000000000000000, 77.00000000000000000000, 55.00000000000000000000},
{5.00000000000000000000, -61.00000000000000000000, -27.00000000000000000000},
{-5.00000000000000000000, -34.00000000000000000000, -24.00000000000000000000}},

{{-9.00000000000000000000, -63.00000000000000000000, 85.00000000000000000000},
{84.00000000000000000000, 66.00000000000000000000, -77.00000000000000000000},
{-53.00000000000000000000, 24.00000000000000000000, 24.00000000000000000000}},

{{-9.00000000000000000000, 44.00000000000000000000, -53.00000000000000000000},
{83.00000000000000000000, -9.00000000000000000000, 63.00000000000000000000},
{4.00000000000000000000, 35.00000000000000000000, 13.00000000000000000000}},

{{27.00000000000000000000, -67.00000000000000000000, 0.00000000000000000000},
{-56.00000000000000000000, 74.00000000000000000000, -84.00000000000000000000},
{-15.00000000000000000000, 41.00000000000000000000, 55.00000000000000000000}},

{{77.00000000000000000000, -28.00000000000000000000, -64.00000000000000000000},
{-81.00000000000000000000, -53.00000000000000000000, 80.00000000000000000000},
{35.00000000000000000000, 78.00000000000000000000, -77.00000000000000000000}},

{{80.00000000000000000000, -10.00000000000000000000, -36.00000000000000000000},
{-76.00000000000000000000, 40.00000000000000000000, -59.00000000000000000000},
{-68.00000000000000000000, 41.00000000000000000000, -53.00000000000000000000}},

{{-28.00000000000000000000, -34.00000000000000000000, -37.00000000000000000000},
{73.00000000000000000000, 10.00000000000000000000, -19.00000000000000000000},
{34.00000000000000000000, 21.00000000000000000000, 1.00000000000000000000}},

{{74.00000000000000000000, 52.00000000000000000000, -4.00000000000000000000},
{-41.00000000000000000000, 73.00000000000000000000, 33.00000000000000000000},
{1.00000000000000000000, 79.00000000000000000000, 84.00000000000000000000}},

{{4.00000000000000000000, -20.00000000000000000000, -79.00000000000000000000},
{-11.00000000000000000000, -45.00000000000000000000, 51.00000000000000000000},
{-22.00000000000000000000, 8.00000000000000000000, -83.00000000000000000000}},

{{-13.00000000000000000000, -83.00000000000000000000, 4.00000000000000000000},
{35.00000000000000000000, -81.00000000000000000000, -76.00000000000000000000},
{-70.00000000000000000000, -79.00000000000000000000, 9.00000000000000000000}},

{{56.00000000000000000000, -27.00000000000000000000, 68.00000000000000000000},
{-65.00000000000000000000, 71.00000000000000000000, -30.00000000000000000000},
{12.00000000000000000000, 1.00000000000000000000, -33.00000000000000000000}},

{{-25.00000000000000000000, 84.00000000000000000000, -81.00000000000000000000},
{-41.00000000000000000000, -21.00000000000000000000, -25.00000000000000000000},
{51.00000000000000000000, -20.00000000000000000000, 48.00000000000000000000}},

{{6.00000000000000000000, 30.00000000000000000000, 22.00000000000000000000},
{18.00000000000000000000, 21.00000000000000000000, 21.00000000000000000000},
{43.00000000000000000000, -38.00000000000000000000, 36.00000000000000000000}},

{{-79.00000000000000000000, -39.00000000000000000000, 77.00000000000000000000},
{-63.00000000000000000000, 37.00000000000000000000, 59.00000000000000000000},
{-79.00000000000000000000, -43.00000000000000000000, 58.00000000000000000000}},

{{67.00000000000000000000, -73.00000000000000000000, -71.00000000000000000000},
{-58.00000000000000000000, -67.00000000000000000000, 52.00000000000000000000},
{-56.00000000000000000000, 44.00000000000000000000, -67.00000000000000000000}}},

{{{65.00000000000000000000, 69.00000000000000000000, 12.00000000000000000000},
{71.00000000000000000000, -7.00000000000000000000, 69.00000000000000000000},
{4.00000000000000000000, 76.00000000000000000000, -58.00000000000000000000}},

{{-38.00000000000000000000, 10.00000000000000000000, -74.00000000000000000000},
{30.00000000000000000000, -6.00000000000000000000, -17.00000000000000000000},
{-35.00000000000000000000, -70.00000000000000000000, -23.00000000000000000000}},

{{-6.00000000000000000000, -40.00000000000000000000, 38.00000000000000000000},
{-56.00000000000000000000, 29.00000000000000000000, 34.00000000000000000000},
{55.00000000000000000000, 72.00000000000000000000, 71.00000000000000000000}},

{{55.00000000000000000000, -31.00000000000000000000, 74.00000000000000000000},
{-52.00000000000000000000, -80.00000000000000000000, 59.00000000000000000000},
{-49.00000000000000000000, -18.00000000000000000000, 74.00000000000000000000}},

{{22.00000000000000000000, -10.00000000000000000000, -59.00000000000000000000},
{10.00000000000000000000, 38.00000000000000000000, -10.00000000000000000000},
{81.00000000000000000000, 22.00000000000000000000, 61.00000000000000000000}},

{{-11.00000000000000000000, -53.00000000000000000000, -55.00000000000000000000},
{-1.00000000000000000000, -11.00000000000000000000, -27.00000000000000000000},
{42.00000000000000000000, -49.00000000000000000000, 48.00000000000000000000}},

{{-65.00000000000000000000, 40.00000000000000000000, -35.00000000000000000000},
{-79.00000000000000000000, 23.00000000000000000000, 61.00000000000000000000},
{0.00000000000000000000, 26.00000000000000000000, 15.00000000000000000000}},

{{28.00000000000000000000, -61.00000000000000000000, 34.00000000000000000000},
{-45.00000000000000000000, 45.00000000000000000000, 40.00000000000000000000},
{10.00000000000000000000, 3.00000000000000000000, 16.00000000000000000000}},

{{4.00000000000000000000, 19.00000000000000000000, 38.00000000000000000000},
{35.00000000000000000000, -42.00000000000000000000, -17.00000000000000000000},
{36.00000000000000000000, -77.00000000000000000000, 25.00000000000000000000}},

{{53.00000000000000000000, -69.00000000000000000000, 35.00000000000000000000},
{-73.00000000000000000000, 79.00000000000000000000, -10.00000000000000000000},
{-17.00000000000000000000, -30.00000000000000000000, 19.00000000000000000000}},

{{-13.00000000000000000000, -45.00000000000000000000, -1.00000000000000000000},
{29.00000000000000000000, -65.00000000000000000000, 16.00000000000000000000},
{-16.00000000000000000000, 25.00000000000000000000, -54.00000000000000000000}},

{{-7.00000000000000000000, -10.00000000000000000000, 32.00000000000000000000},
{9.00000000000000000000, -75.00000000000000000000, -30.00000000000000000000},
{-33.00000000000000000000, -62.00000000000000000000, 83.00000000000000000000}},

{{85.00000000000000000000, 33.00000000000000000000, -26.00000000000000000000},
{-78.00000000000000000000, 14.00000000000000000000, -20.00000000000000000000},
{37.00000000000000000000, -75.00000000000000000000, 35.00000000000000000000}},

{{-47.00000000000000000000, -5.00000000000000000000, 25.00000000000000000000},
{82.00000000000000000000, -69.00000000000000000000, -51.00000000000000000000},
{17.00000000000000000000, 53.00000000000000000000, -20.00000000000000000000}},

{{18.00000000000000000000, -71.00000000000000000000, 66.00000000000000000000},
{-53.00000000000000000000, -63.00000000000000000000, -63.00000000000000000000},
{74.00000000000000000000, -73.00000000000000000000, 31.00000000000000000000}},

{{56.00000000000000000000, 38.00000000000000000000, -78.00000000000000000000},
{9.00000000000000000000, 29.00000000000000000000, 48.00000000000000000000},
{25.00000000000000000000, 52.00000000000000000000, 65.00000000000000000000}}},

{{{-19.00000000000000000000, 62.00000000000000000000, -11.00000000000000000000},
{-41.00000000000000000000, 28.00000000000000000000, 74.00000000000000000000},
{85.00000000000000000000, -19.00000000000000000000, 83.00000000000000000000}},

{{13.00000000000000000000, 14.00000000000000000000, 30.00000000000000000000},
{74.00000000000000000000, 14.00000000000000000000, -79.00000000000000000000},
{-56.00000000000000000000, 23.00000000000000000000, -47.00000000000000000000}},

{{62.00000000000000000000, 5.00000000000000000000, 64.00000000000000000000},
{-68.00000000000000000000, 62.00000000000000000000, -29.00000000000000000000},
{-9.00000000000000000000, -45.00000000000000000000, -77.00000000000000000000}},

{{69.00000000000000000000, -54.00000000000000000000, -6.00000000000000000000},
{-67.00000000000000000000, 62.00000000000000000000, 68.00000000000000000000},
{-81.00000000000000000000, 0.00000000000000000000, -37.00000000000000000000}},

{{38.00000000000000000000, -64.00000000000000000000, 64.00000000000000000000},
{-12.00000000000000000000, 76.00000000000000000000, -61.00000000000000000000},
{14.00000000000000000000, -62.00000000000000000000, -13.00000000000000000000}},

{{-30.00000000000000000000, -42.00000000000000000000, -39.00000000000000000000},
{-13.00000000000000000000, 79.00000000000000000000, -27.00000000000000000000},
{46.00000000000000000000, -7.00000000000000000000, -9.00000000000000000000}},

{{22.00000000000000000000, -6.00000000000000000000, -30.00000000000000000000},
{-48.00000000000000000000, 12.00000000000000000000, -60.00000000000000000000},
{-46.00000000000000000000, 52.00000000000000000000, -3.00000000000000000000}},

{{-77.00000000000000000000, 28.00000000000000000000, 35.00000000000000000000},
{47.00000000000000000000, 80.00000000000000000000, -60.00000000000000000000},
{-79.00000000000000000000, 48.00000000000000000000, 4.00000000000000000000}},

{{-47.00000000000000000000, -64.00000000000000000000, -67.00000000000000000000},
{-19.00000000000000000000, -52.00000000000000000000, -50.00000000000000000000},
{-39.00000000000000000000, 84.00000000000000000000, 1.00000000000000000000}},

{{-61.00000000000000000000, 19.00000000000000000000, 42.00000000000000000000},
{-72.00000000000000000000, 37.00000000000000000000, 17.00000000000000000000},
{-44.00000000000000000000, -60.00000000000000000000, -65.00000000000000000000}},

{{-22.00000000000000000000, -43.00000000000000000000, -57.00000000000000000000},
{80.00000000000000000000, -40.00000000000000000000, 79.00000000000000000000},
{32.00000000000000000000, 56.00000000000000000000, 42.00000000000000000000}},

{{15.00000000000000000000, 52.00000000000000000000, -65.00000000000000000000},
{28.00000000000000000000, -37.00000000000000000000, 0.00000000000000000000},
{-16.00000000000000000000, -30.00000000000000000000, -24.00000000000000000000}},

{{-6.00000000000000000000, 23.00000000000000000000, -31.00000000000000000000},
{-29.00000000000000000000, -76.00000000000000000000, -38.00000000000000000000},
{8.00000000000000000000, 31.00000000000000000000, -66.00000000000000000000}},

{{85.00000000000000000000, 30.00000000000000000000, 25.00000000000000000000},
{-7.00000000000000000000, 51.00000000000000000000, 47.00000000000000000000},
{-52.00000000000000000000, 23.00000000000000000000, 53.00000000000000000000}},

{{15.00000000000000000000, -6.00000000000000000000, 30.00000000000000000000},
{17.00000000000000000000, -32.00000000000000000000, -81.00000000000000000000},
{10.00000000000000000000, -61.00000000000000000000, 35.00000000000000000000}},

{{85.00000000000000000000, -67.00000000000000000000, -14.00000000000000000000},
{50.00000000000000000000, -23.00000000000000000000, -69.00000000000000000000},
{-7.00000000000000000000, 64.00000000000000000000, 9.00000000000000000000}}},

{{{54.00000000000000000000, -22.00000000000000000000, 66.00000000000000000000},
{12.00000000000000000000, 13.00000000000000000000, 36.00000000000000000000},
{2.00000000000000000000, 61.00000000000000000000, 3.00000000000000000000}},

{{-46.00000000000000000000, -35.00000000000000000000, 70.00000000000000000000},
{-59.00000000000000000000, -6.00000000000000000000, -55.00000000000000000000},
{75.00000000000000000000, 36.00000000000000000000, -56.00000000000000000000}},

{{-54.00000000000000000000, 17.00000000000000000000, -11.00000000000000000000},
{-74.00000000000000000000, 79.00000000000000000000, -6.00000000000000000000},
{26.00000000000000000000, 36.00000000000000000000, -56.00000000000000000000}},

{{-76.00000000000000000000, -69.00000000000000000000, 13.00000000000000000000},
{71.00000000000000000000, 50.00000000000000000000, 25.00000000000000000000},
{76.00000000000000000000, 8.00000000000000000000, 4.00000000000000000000}},

{{15.00000000000000000000, 41.00000000000000000000, 69.00000000000000000000},
{-35.00000000000000000000, 85.00000000000000000000, 51.00000000000000000000},
{31.00000000000000000000, -6.00000000000000000000, 3.00000000000000000000}},

{{36.00000000000000000000, -67.00000000000000000000, 66.00000000000000000000},
{48.00000000000000000000, -57.00000000000000000000, -50.00000000000000000000},
{71.00000000000000000000, 82.00000000000000000000, -42.00000000000000000000}},

{{-61.00000000000000000000, 56.00000000000000000000, -21.00000000000000000000},
{23.00000000000000000000, -77.00000000000000000000, 30.00000000000000000000},
{57.00000000000000000000, 54.00000000000000000000, 68.00000000000000000000}},

{{-59.00000000000000000000, 57.00000000000000000000, 46.00000000000000000000},
{-65.00000000000000000000, 68.00000000000000000000, 44.00000000000000000000},
{52.00000000000000000000, 51.00000000000000000000, 82.00000000000000000000}},

{{-4.00000000000000000000, 73.00000000000000000000, 82.00000000000000000000},
{-72.00000000000000000000, -31.00000000000000000000, 5.00000000000000000000},
{21.00000000000000000000, -6.00000000000000000000, -49.00000000000000000000}},

{{-31.00000000000000000000, -73.00000000000000000000, -51.00000000000000000000},
{69.00000000000000000000, 45.00000000000000000000, -34.00000000000000000000},
{-66.00000000000000000000, -10.00000000000000000000, -13.00000000000000000000}},

{{-32.00000000000000000000, -77.00000000000000000000, 17.00000000000000000000},
{-47.00000000000000000000, 28.00000000000000000000, 33.00000000000000000000},
{70.00000000000000000000, -49.00000000000000000000, 13.00000000000000000000}},

{{45.00000000000000000000, -72.00000000000000000000, -23.00000000000000000000},
{-38.00000000000000000000, -29.00000000000000000000, -28.00000000000000000000},
{7.00000000000000000000, -8.00000000000000000000, -81.00000000000000000000}},

{{55.00000000000000000000, 49.00000000000000000000, 37.00000000000000000000},
{-59.00000000000000000000, -21.00000000000000000000, -68.00000000000000000000},
{-80.00000000000000000000, -81.00000000000000000000, -10.00000000000000000000}},

{{37.00000000000000000000, 83.00000000000000000000, -84.00000000000000000000},
{-31.00000000000000000000, 50.00000000000000000000, 70.00000000000000000000},
{-18.00000000000000000000, 51.00000000000000000000, 24.00000000000000000000}},

{{33.00000000000000000000, 0.00000000000000000000, -44.00000000000000000000},
{48.00000000000000000000, 39.00000000000000000000, -71.00000000000000000000},
{-78.00000000000000000000, -39.00000000000000000000, -52.00000000000000000000}},

{{73.00000000000000000000, -17.00000000000000000000, -50.00000000000000000000},
{-7.00000000000000000000, -74.00000000000000000000, 49.00000000000000000000},
{-69.00000000000000000000, 29.00000000000000000000, -77.00000000000000000000}}},

{{{-66.00000000000000000000, -62.00000000000000000000, -44.00000000000000000000},
{-36.00000000000000000000, -13.00000000000000000000, -6.00000000000000000000},
{-78.00000000000000000000, 55.00000000000000000000, 32.00000000000000000000}},

{{47.00000000000000000000, -39.00000000000000000000, 45.00000000000000000000},
{71.00000000000000000000, -38.00000000000000000000, 76.00000000000000000000},
{-17.00000000000000000000, -36.00000000000000000000, 32.00000000000000000000}},

{{46.00000000000000000000, -83.00000000000000000000, -82.00000000000000000000},
{32.00000000000000000000, 77.00000000000000000000, 76.00000000000000000000},
{29.00000000000000000000, 14.00000000000000000000, -58.00000000000000000000}},

{{7.00000000000000000000, 71.00000000000000000000, 45.00000000000000000000},
{-56.00000000000000000000, -77.00000000000000000000, 40.00000000000000000000},
{-36.00000000000000000000, 77.00000000000000000000, -32.00000000000000000000}},

{{73.00000000000000000000, -61.00000000000000000000, -71.00000000000000000000},
{-14.00000000000000000000, 37.00000000000000000000, -21.00000000000000000000},
{-38.00000000000000000000, -43.00000000000000000000, 59.00000000000000000000}},

{{-77.00000000000000000000, -26.00000000000000000000, 47.00000000000000000000},
{-52.00000000000000000000, -45.00000000000000000000, -36.00000000000000000000},
{10.00000000000000000000, 60.00000000000000000000, 12.00000000000000000000}},

{{-47.00000000000000000000, -80.00000000000000000000, 23.00000000000000000000},
{79.00000000000000000000, -16.00000000000000000000, 3.00000000000000000000},
{65.00000000000000000000, 49.00000000000000000000, 7.00000000000000000000}},

{{-82.00000000000000000000, 18.00000000000000000000, -37.00000000000000000000},
{-68.00000000000000000000, 72.00000000000000000000, -22.00000000000000000000},
{-51.00000000000000000000, -12.00000000000000000000, 57.00000000000000000000}},

{{-68.00000000000000000000, 84.00000000000000000000, 18.00000000000000000000},
{11.00000000000000000000, -29.00000000000000000000, -9.00000000000000000000},
{14.00000000000000000000, -18.00000000000000000000, -26.00000000000000000000}},

{{-36.00000000000000000000, 50.00000000000000000000, 74.00000000000000000000},
{-30.00000000000000000000, 70.00000000000000000000, -43.00000000000000000000},
{-30.00000000000000000000, -50.00000000000000000000, 77.00000000000000000000}},

{{70.00000000000000000000, 13.00000000000000000000, -80.00000000000000000000},
{41.00000000000000000000, 26.00000000000000000000, 4.00000000000000000000},
{-83.00000000000000000000, 57.00000000000000000000, 10.00000000000000000000}},

{{-69.00000000000000000000, -68.00000000000000000000, 0.00000000000000000000},
{56.00000000000000000000, 1.00000000000000000000, 59.00000000000000000000},
{53.00000000000000000000, 49.00000000000000000000, -35.00000000000000000000}},

{{68.00000000000000000000, -32.00000000000000000000, 83.00000000000000000000},
{-80.00000000000000000000, 23.00000000000000000000, -59.00000000000000000000},
{-55.00000000000000000000, 62.00000000000000000000, -1.00000000000000000000}},

{{78.00000000000000000000, -41.00000000000000000000, -32.00000000000000000000},
{-43.00000000000000000000, -42.00000000000000000000, 83.00000000000000000000},
{-15.00000000000000000000, -12.00000000000000000000, -54.00000000000000000000}},

{{-3.00000000000000000000, -78.00000000000000000000, -70.00000000000000000000},
{26.00000000000000000000, 30.00000000000000000000, -14.00000000000000000000},
{81.00000000000000000000, 71.00000000000000000000, 5.00000000000000000000}},

{{19.00000000000000000000, 20.00000000000000000000, 31.00000000000000000000},
{85.00000000000000000000, 16.00000000000000000000, -73.00000000000000000000},
{62.00000000000000000000, 77.00000000000000000000, -54.00000000000000000000}}},

{{{-34.00000000000000000000, 32.00000000000000000000, -32.00000000000000000000},
{66.00000000000000000000, 61.00000000000000000000, 6.00000000000000000000},
{14.00000000000000000000, -48.00000000000000000000, 83.00000000000000000000}},

{{-65.00000000000000000000, 66.00000000000000000000, 57.00000000000000000000},
{38.00000000000000000000, -25.00000000000000000000, -44.00000000000000000000},
{-15.00000000000000000000, -43.00000000000000000000, -22.00000000000000000000}},

{{-39.00000000000000000000, -46.00000000000000000000, 72.00000000000000000000},
{-69.00000000000000000000, 19.00000000000000000000, -26.00000000000000000000},
{38.00000000000000000000, 3.00000000000000000000, -81.00000000000000000000}},

{{17.00000000000000000000, 47.00000000000000000000, -82.00000000000000000000},
{52.00000000000000000000, -83.00000000000000000000, 9.00000000000000000000},
{0.00000000000000000000, 45.00000000000000000000, 76.00000000000000000000}},

{{75.00000000000000000000, -83.00000000000000000000, 71.00000000000000000000},
{29.00000000000000000000, -64.00000000000000000000, 12.00000000000000000000},
{-32.00000000000000000000, -1.00000000000000000000, -4.00000000000000000000}},

{{-34.00000000000000000000, -19.00000000000000000000, -57.00000000000000000000},
{-24.00000000000000000000, 64.00000000000000000000, -10.00000000000000000000},
{20.00000000000000000000, -19.00000000000000000000, -3.00000000000000000000}},

{{16.00000000000000000000, 47.00000000000000000000, -6.00000000000000000000},
{-61.00000000000000000000, -48.00000000000000000000, 67.00000000000000000000},
{-23.00000000000000000000, 34.00000000000000000000, 61.00000000000000000000}},

{{-38.00000000000000000000, 69.00000000000000000000, 13.00000000000000000000},
{13.00000000000000000000, -22.00000000000000000000, 8.00000000000000000000},
{13.00000000000000000000, -59.00000000000000000000, 72.00000000000000000000}},

{{-31.00000000000000000000, 34.00000000000000000000, -76.00000000000000000000},
{-47.00000000000000000000, 44.00000000000000000000, 13.00000000000000000000},
{7.00000000000000000000, -31.00000000000000000000, -37.00000000000000000000}},

{{-24.00000000000000000000, -64.00000000000000000000, -12.00000000000000000000},
{70.00000000000000000000, 26.00000000000000000000, -61.00000000000000000000},
{-38.00000000000000000000, -43.00000000000000000000, -38.00000000000000000000}},

{{-64.00000000000000000000, -39.00000000000000000000, 17.00000000000000000000},
{-43.00000000000000000000, -74.00000000000000000000, -46.00000000000000000000},
{60.00000000000000000000, 23.00000000000000000000, -18.00000000000000000000}},

{{-82.00000000000000000000, -1.00000000000000000000, 14.00000000000000000000},
{-56.00000000000000000000, -37.00000000000000000000, -68.00000000000000000000},
{15.00000000000000000000, 7.00000000000000000000, -2.00000000000000000000}},

{{-33.00000000000000000000, 9.00000000000000000000, -47.00000000000000000000},
{-65.00000000000000000000, 54.00000000000000000000, 3.00000000000000000000},
{-64.00000000000000000000, -5.00000000000000000000, 14.00000000000000000000}},

{{53.00000000000000000000, -7.00000000000000000000, -13.00000000000000000000},
{7.00000000000000000000, -71.00000000000000000000, 79.00000000000000000000},
{-58.00000000000000000000, -61.00000000000000000000, -50.00000000000000000000}},

{{-44.00000000000000000000, 79.00000000000000000000, 30.00000000000000000000},
{-15.00000000000000000000, 64.00000000000000000000, 4.00000000000000000000},
{-20.00000000000000000000, -20.00000000000000000000, -39.00000000000000000000}},

{{-78.00000000000000000000, -70.00000000000000000000, -21.00000000000000000000},
{-50.00000000000000000000, -56.00000000000000000000, -80.00000000000000000000},
{84.00000000000000000000, -4.00000000000000000000, -14.00000000000000000000}}},

{{{-68.00000000000000000000, -69.00000000000000000000, 78.00000000000000000000},
{5.00000000000000000000, 50.00000000000000000000, -51.00000000000000000000},
{-82.00000000000000000000, -63.00000000000000000000, 38.00000000000000000000}},

{{73.00000000000000000000, -77.00000000000000000000, -36.00000000000000000000},
{22.00000000000000000000, 33.00000000000000000000, 20.00000000000000000000},
{0.00000000000000000000, -38.00000000000000000000, -4.00000000000000000000}},

{{58.00000000000000000000, -61.00000000000000000000, 77.00000000000000000000},
{63.00000000000000000000, 48.00000000000000000000, 1.00000000000000000000},
{-81.00000000000000000000, -18.00000000000000000000, 73.00000000000000000000}},

{{-50.00000000000000000000, -34.00000000000000000000, 15.00000000000000000000},
{-61.00000000000000000000, 79.00000000000000000000, -27.00000000000000000000},
{-25.00000000000000000000, 12.00000000000000000000, -7.00000000000000000000}},

{{-22.00000000000000000000, 39.00000000000000000000, -30.00000000000000000000},
{59.00000000000000000000, -70.00000000000000000000, 52.00000000000000000000},
{15.00000000000000000000, 33.00000000000000000000, 16.00000000000000000000}},

{{-34.00000000000000000000, -8.00000000000000000000, 54.00000000000000000000},
{-82.00000000000000000000, -39.00000000000000000000, 65.00000000000000000000},
{36.00000000000000000000, 4.00000000000000000000, -17.00000000000000000000}},

{{2.00000000000000000000, 31.00000000000000000000, -7.00000000000000000000},
{74.00000000000000000000, -34.00000000000000000000, -65.00000000000000000000},
{-23.00000000000000000000, -47.00000000000000000000, -36.00000000000000000000}},

{{20.00000000000000000000, -73.00000000000000000000, -1.00000000000000000000},
{81.00000000000000000000, -76.00000000000000000000, -18.00000000000000000000},
{-30.00000000000000000000, 64.00000000000000000000, -14.00000000000000000000}},

{{81.00000000000000000000, -37.00000000000000000000, 33.00000000000000000000},
{34.00000000000000000000, 34.00000000000000000000, -68.00000000000000000000},
{-44.00000000000000000000, -68.00000000000000000000, -40.00000000000000000000}},

{{80.00000000000000000000, 16.00000000000000000000, -41.00000000000000000000},
{61.00000000000000000000, -26.00000000000000000000, -65.00000000000000000000},
{-43.00000000000000000000, 45.00000000000000000000, 21.00000000000000000000}},

{{84.00000000000000000000, -6.00000000000000000000, -76.00000000000000000000},
{73.00000000000000000000, -77.00000000000000000000, -21.00000000000000000000},
{-74.00000000000000000000, -81.00000000000000000000, 69.00000000000000000000}},

{{-22.00000000000000000000, 21.00000000000000000000, -77.00000000000000000000},
{82.00000000000000000000, 64.00000000000000000000, -77.00000000000000000000},
{-76.00000000000000000000, 12.00000000000000000000, -70.00000000000000000000}},

{{-47.00000000000000000000, 56.00000000000000000000, 66.00000000000000000000},
{17.00000000000000000000, -40.00000000000000000000, -67.00000000000000000000},
{-53.00000000000000000000, 17.00000000000000000000, -83.00000000000000000000}},

{{-55.00000000000000000000, 40.00000000000000000000, 67.00000000000000000000},
{-34.00000000000000000000, -20.00000000000000000000, -3.00000000000000000000},
{-40.00000000000000000000, -21.00000000000000000000, 73.00000000000000000000}},

{{-83.00000000000000000000, 68.00000000000000000000, 72.00000000000000000000},
{59.00000000000000000000, 71.00000000000000000000, 78.00000000000000000000},
{-2.00000000000000000000, 9.00000000000000000000, 12.00000000000000000000}},

{{77.00000000000000000000, 84.00000000000000000000, 58.00000000000000000000},
{-39.00000000000000000000, -12.00000000000000000000, 78.00000000000000000000},
{57.00000000000000000000, 4.00000000000000000000, 39.00000000000000000000}}}};

const uint16_t shape_Conv2D_1_b = 8;
const int16_t Conv2D_1_b[8] = {1.00000000000000000000, 0.00000000000000000000, 0.00000000000000000000, 1.00000000000000000000, 1.00000000000000000000, 1.00000000000000000000, 0.00000000000000000000, 0.00000000000000000000};
