/*
 * author : shtsno24
 * Date : 2019-10-14 20:19:03.056273
 * array_type : int16
 * fractal_width : 14 bit
 * bit_width : 16 bit
 *
 */
#pragma once
#include <stdint.h>

#define data_width_Conv2D_1 16
#define fractal_width_Conv2D_1 14

const uint16_t shape_Conv2D_1_w[] = {8, 16, 3, 3};
const int16_t Conv2D_1_w[8][16][3][3] =
{{{{1944.00000000000000000000, 1043.00000000000000000000, -1568.00000000000000000000},
{266.00000000000000000000, -2378.00000000000000000000, -2335.00000000000000000000},
{1485.00000000000000000000, -762.00000000000000000000, 328.00000000000000000000}},

{{1238.00000000000000000000, -1554.00000000000000000000, 1401.00000000000000000000},
{-2722.00000000000000000000, -554.00000000000000000000, 816.00000000000000000000},
{-2324.00000000000000000000, -1737.00000000000000000000, 1242.00000000000000000000}},

{{-2286.00000000000000000000, 115.00000000000000000000, 1286.00000000000000000000},
{-1728.00000000000000000000, -774.00000000000000000000, -851.00000000000000000000},
{-685.00000000000000000000, 632.00000000000000000000, 362.00000000000000000000}},

{{2550.00000000000000000000, -244.00000000000000000000, 853.00000000000000000000},
{363.00000000000000000000, -1687.00000000000000000000, 924.00000000000000000000},
{-220.00000000000000000000, -643.00000000000000000000, -1857.00000000000000000000}},

{{-144.00000000000000000000, 2682.00000000000000000000, -1851.00000000000000000000},
{-662.00000000000000000000, 2209.00000000000000000000, 2303.00000000000000000000},
{-889.00000000000000000000, -685.00000000000000000000, 263.00000000000000000000}},

{{-1463.00000000000000000000, 2729.00000000000000000000, -1630.00000000000000000000},
{865.00000000000000000000, -1441.00000000000000000000, 697.00000000000000000000},
{-1395.00000000000000000000, -476.00000000000000000000, -834.00000000000000000000}},

{{-865.00000000000000000000, 1188.00000000000000000000, -910.00000000000000000000},
{-498.00000000000000000000, -146.00000000000000000000, -2501.00000000000000000000},
{1017.00000000000000000000, 637.00000000000000000000, 846.00000000000000000000}},

{{-1893.00000000000000000000, -2501.00000000000000000000, -1349.00000000000000000000},
{-1196.00000000000000000000, 1668.00000000000000000000, 75.00000000000000000000},
{1755.00000000000000000000, 2134.00000000000000000000, 876.00000000000000000000}},

{{1472.00000000000000000000, 710.00000000000000000000, -413.00000000000000000000},
{-2194.00000000000000000000, 823.00000000000000000000, 2334.00000000000000000000},
{102.00000000000000000000, 764.00000000000000000000, -231.00000000000000000000}},

{{-2599.00000000000000000000, -1781.00000000000000000000, 1383.00000000000000000000},
{-1598.00000000000000000000, -1545.00000000000000000000, 1717.00000000000000000000},
{725.00000000000000000000, -1630.00000000000000000000, -2258.00000000000000000000}},

{{-381.00000000000000000000, 1198.00000000000000000000, 1299.00000000000000000000},
{-1989.00000000000000000000, 1699.00000000000000000000, 493.00000000000000000000},
{-779.00000000000000000000, -274.00000000000000000000, -2642.00000000000000000000}},

{{1207.00000000000000000000, -1697.00000000000000000000, 2218.00000000000000000000},
{-2571.00000000000000000000, -1025.00000000000000000000, -513.00000000000000000000},
{-1624.00000000000000000000, 1405.00000000000000000000, 2349.00000000000000000000}},

{{-1355.00000000000000000000, -2248.00000000000000000000, -999.00000000000000000000},
{-2642.00000000000000000000, 2188.00000000000000000000, -618.00000000000000000000},
{333.00000000000000000000, 786.00000000000000000000, 271.00000000000000000000}},

{{884.00000000000000000000, 1123.00000000000000000000, 1541.00000000000000000000},
{977.00000000000000000000, -1961.00000000000000000000, 2086.00000000000000000000},
{2208.00000000000000000000, 2254.00000000000000000000, -1102.00000000000000000000}},

{{1391.00000000000000000000, -1077.00000000000000000000, 1799.00000000000000000000},
{671.00000000000000000000, 1245.00000000000000000000, 2612.00000000000000000000},
{-354.00000000000000000000, -2113.00000000000000000000, 2268.00000000000000000000}},

{{-560.00000000000000000000, -1773.00000000000000000000, -2263.00000000000000000000},
{-2645.00000000000000000000, -2397.00000000000000000000, 1196.00000000000000000000},
{30.00000000000000000000, -2489.00000000000000000000, 1375.00000000000000000000}}},

{{{2566.00000000000000000000, 1672.00000000000000000000, -2562.00000000000000000000},
{185.00000000000000000000, 1558.00000000000000000000, 2366.00000000000000000000},
{2712.00000000000000000000, -322.00000000000000000000, -465.00000000000000000000}},

{{-1855.00000000000000000000, 2472.00000000000000000000, 1745.00000000000000000000},
{144.00000000000000000000, -1983.00000000000000000000, -891.00000000000000000000},
{-207.00000000000000000000, -1128.00000000000000000000, -800.00000000000000000000}},

{{-324.00000000000000000000, -2039.00000000000000000000, 2708.00000000000000000000},
{2679.00000000000000000000, 2103.00000000000000000000, -2498.00000000000000000000},
{-1720.00000000000000000000, 753.00000000000000000000, 775.00000000000000000000}},

{{-306.00000000000000000000, 1401.00000000000000000000, -1740.00000000000000000000},
{2669.00000000000000000000, -326.00000000000000000000, 2008.00000000000000000000},
{115.00000000000000000000, 1110.00000000000000000000, 430.00000000000000000000}},

{{879.00000000000000000000, -2188.00000000000000000000, -47.00000000000000000000},
{-1826.00000000000000000000, 2371.00000000000000000000, -2711.00000000000000000000},
{-508.00000000000000000000, 1305.00000000000000000000, 1759.00000000000000000000}},

{{2463.00000000000000000000, -921.00000000000000000000, -2090.00000000000000000000},
{-2633.00000000000000000000, -1735.00000000000000000000, 2548.00000000000000000000},
{1118.00000000000000000000, 2484.00000000000000000000, -2502.00000000000000000000}},

{{2562.00000000000000000000, -359.00000000000000000000, -1177.00000000000000000000},
{-2468.00000000000000000000, 1271.00000000000000000000, -1930.00000000000000000000},
{-2200.00000000000000000000, 1301.00000000000000000000, -1733.00000000000000000000}},

{{-915.00000000000000000000, -1118.00000000000000000000, -1203.00000000000000000000},
{2344.00000000000000000000, 335.00000000000000000000, -633.00000000000000000000},
{1086.00000000000000000000, 671.00000000000000000000, 34.00000000000000000000}},

{{2359.00000000000000000000, 1658.00000000000000000000, -173.00000000000000000000},
{-1342.00000000000000000000, 2331.00000000000000000000, 1052.00000000000000000000},
{16.00000000000000000000, 2543.00000000000000000000, 2696.00000000000000000000}},

{{124.00000000000000000000, -661.00000000000000000000, -2553.00000000000000000000},
{-395.00000000000000000000, -1456.00000000000000000000, 1638.00000000000000000000},
{-736.00000000000000000000, 257.00000000000000000000, -2676.00000000000000000000}},

{{-442.00000000000000000000, -2693.00000000000000000000, 143.00000000000000000000},
{1107.00000000000000000000, -2616.00000000000000000000, -2448.00000000000000000000},
{-2282.00000000000000000000, -2558.00000000000000000000, 301.00000000000000000000}},

{{1791.00000000000000000000, -883.00000000000000000000, 2164.00000000000000000000},
{-2109.00000000000000000000, 2283.00000000000000000000, -982.00000000000000000000},
{372.00000000000000000000, 25.00000000000000000000, -1082.00000000000000000000}},

{{-833.00000000000000000000, 2675.00000000000000000000, -2625.00000000000000000000},
{-1328.00000000000000000000, -699.00000000000000000000, -818.00000000000000000000},
{1633.00000000000000000000, -686.00000000000000000000, 1527.00000000000000000000}},

{{199.00000000000000000000, 973.00000000000000000000, 714.00000000000000000000},
{561.00000000000000000000, 663.00000000000000000000, 675.00000000000000000000},
{1375.00000000000000000000, -1250.00000000000000000000, 1149.00000000000000000000}},

{{-2544.00000000000000000000, -1288.00000000000000000000, 2460.00000000000000000000},
{-2059.00000000000000000000, 1198.00000000000000000000, 1881.00000000000000000000},
{-2559.00000000000000000000, -1418.00000000000000000000, 1846.00000000000000000000}},

{{2149.00000000000000000000, -2362.00000000000000000000, -2315.00000000000000000000},
{-1893.00000000000000000000, -2166.00000000000000000000, 1673.00000000000000000000},
{-1832.00000000000000000000, 1419.00000000000000000000, -2175.00000000000000000000}}},

{{{2073.00000000000000000000, 2192.00000000000000000000, 389.00000000000000000000},
{2262.00000000000000000000, -251.00000000000000000000, 2205.00000000000000000000},
{139.00000000000000000000, 2441.00000000000000000000, -1884.00000000000000000000}},

{{-1263.00000000000000000000, 307.00000000000000000000, -2407.00000000000000000000},
{945.00000000000000000000, -209.00000000000000000000, -567.00000000000000000000},
{-1143.00000000000000000000, -2256.00000000000000000000, -751.00000000000000000000}},

{{-212.00000000000000000000, -1305.00000000000000000000, 1221.00000000000000000000},
{-1814.00000000000000000000, 923.00000000000000000000, 1103.00000000000000000000},
{1773.00000000000000000000, 2296.00000000000000000000, 2273.00000000000000000000}},

{{1764.00000000000000000000, -1008.00000000000000000000, 2362.00000000000000000000},
{-1703.00000000000000000000, -2587.00000000000000000000, 1881.00000000000000000000},
{-1596.00000000000000000000, -609.00000000000000000000, 2373.00000000000000000000}},

{{718.00000000000000000000, -359.00000000000000000000, -1909.00000000000000000000},
{330.00000000000000000000, 1218.00000000000000000000, -363.00000000000000000000},
{2590.00000000000000000000, 715.00000000000000000000, 1940.00000000000000000000}},

{{-370.00000000000000000000, -1726.00000000000000000000, -1779.00000000000000000000},
{-49.00000000000000000000, -397.00000000000000000000, -892.00000000000000000000},
{1338.00000000000000000000, -1609.00000000000000000000, 1536.00000000000000000000}},

{{-2103.00000000000000000000, 1280.00000000000000000000, -1160.00000000000000000000},
{-2545.00000000000000000000, 747.00000000000000000000, 1942.00000000000000000000},
{12.00000000000000000000, 832.00000000000000000000, 482.00000000000000000000}},

{{908.00000000000000000000, -1985.00000000000000000000, 1082.00000000000000000000},
{-1471.00000000000000000000, 1425.00000000000000000000, 1267.00000000000000000000},
{333.00000000000000000000, 94.00000000000000000000, 497.00000000000000000000}},

{{133.00000000000000000000, 613.00000000000000000000, 1220.00000000000000000000},
{1126.00000000000000000000, -1373.00000000000000000000, -560.00000000000000000000},
{1147.00000000000000000000, -2497.00000000000000000000, 803.00000000000000000000}},

{{1692.00000000000000000000, -2224.00000000000000000000, 1106.00000000000000000000},
{-2365.00000000000000000000, 2523.00000000000000000000, -361.00000000000000000000},
{-574.00000000000000000000, -999.00000000000000000000, 623.00000000000000000000}},

{{-444.00000000000000000000, -1477.00000000000000000000, -55.00000000000000000000},
{930.00000000000000000000, -2097.00000000000000000000, 512.00000000000000000000},
{-541.00000000000000000000, 793.00000000000000000000, -1755.00000000000000000000}},

{{-252.00000000000000000000, -356.00000000000000000000, 1023.00000000000000000000},
{302.00000000000000000000, -2421.00000000000000000000, -992.00000000000000000000},
{-1095.00000000000000000000, -2022.00000000000000000000, 2666.00000000000000000000}},

{{2719.00000000000000000000, 1042.00000000000000000000, -853.00000000000000000000},
{-2533.00000000000000000000, 437.00000000000000000000, -661.00000000000000000000},
{1169.00000000000000000000, -2431.00000000000000000000, 1111.00000000000000000000}},

{{-1522.00000000000000000000, -196.00000000000000000000, 793.00000000000000000000},
{2634.00000000000000000000, -2253.00000000000000000000, -1651.00000000000000000000},
{530.00000000000000000000, 1699.00000000000000000000, -682.00000000000000000000}},

{{582.00000000000000000000, -2313.00000000000000000000, 2124.00000000000000000000},
{-1737.00000000000000000000, -2051.00000000000000000000, -2045.00000000000000000000},
{2372.00000000000000000000, -2364.00000000000000000000, 981.00000000000000000000}},

{{1782.00000000000000000000, 1213.00000000000000000000, -2539.00000000000000000000},
{290.00000000000000000000, 939.00000000000000000000, 1532.00000000000000000000},
{795.00000000000000000000, 1667.00000000000000000000, 2071.00000000000000000000}}},

{{{-637.00000000000000000000, 1980.00000000000000000000, -382.00000000000000000000},
{-1339.00000000000000000000, 904.00000000000000000000, 2351.00000000000000000000},
{2727.00000000000000000000, -644.00000000000000000000, 2660.00000000000000000000}},

{{412.00000000000000000000, 446.00000000000000000000, 946.00000000000000000000},
{2360.00000000000000000000, 439.00000000000000000000, -2575.00000000000000000000},
{-1810.00000000000000000000, 722.00000000000000000000, -1531.00000000000000000000}},

{{1975.00000000000000000000, 173.00000000000000000000, 2061.00000000000000000000},
{-2223.00000000000000000000, 1969.00000000000000000000, -948.00000000000000000000},
{-325.00000000000000000000, -1466.00000000000000000000, -2494.00000000000000000000}},

{{2198.00000000000000000000, -1765.00000000000000000000, -212.00000000000000000000},
{-2185.00000000000000000000, 1981.00000000000000000000, 2169.00000000000000000000},
{-2636.00000000000000000000, 10.00000000000000000000, -1201.00000000000000000000}},

{{1223.00000000000000000000, -2076.00000000000000000000, 2041.00000000000000000000},
{-408.00000000000000000000, 2435.00000000000000000000, -1985.00000000000000000000},
{451.00000000000000000000, -2025.00000000000000000000, -444.00000000000000000000}},

{{-1000.00000000000000000000, -1368.00000000000000000000, -1274.00000000000000000000},
{-439.00000000000000000000, 2543.00000000000000000000, -895.00000000000000000000},
{1476.00000000000000000000, -248.00000000000000000000, -307.00000000000000000000}},

{{696.00000000000000000000, -209.00000000000000000000, -1006.00000000000000000000},
{-1566.00000000000000000000, 388.00000000000000000000, -1964.00000000000000000000},
{-1506.00000000000000000000, 1671.00000000000000000000, -124.00000000000000000000}},

{{-2504.00000000000000000000, 889.00000000000000000000, 1133.00000000000000000000},
{1515.00000000000000000000, 2548.00000000000000000000, -1945.00000000000000000000},
{-2557.00000000000000000000, 1548.00000000000000000000, 126.00000000000000000000}},

{{-1528.00000000000000000000, -2086.00000000000000000000, -2174.00000000000000000000},
{-648.00000000000000000000, -1692.00000000000000000000, -1616.00000000000000000000},
{-1269.00000000000000000000, 2694.00000000000000000000, 46.00000000000000000000}},

{{-1973.00000000000000000000, 620.00000000000000000000, 1333.00000000000000000000},
{-2339.00000000000000000000, 1169.00000000000000000000, 558.00000000000000000000},
{-1434.00000000000000000000, -1961.00000000000000000000, -2097.00000000000000000000}},

{{-734.00000000000000000000, -1392.00000000000000000000, -1850.00000000000000000000},
{2564.00000000000000000000, -1319.00000000000000000000, 2526.00000000000000000000},
{1024.00000000000000000000, 1797.00000000000000000000, 1351.00000000000000000000}},

{{484.00000000000000000000, 1665.00000000000000000000, -2103.00000000000000000000},
{883.00000000000000000000, -1214.00000000000000000000, -18.00000000000000000000},
{-549.00000000000000000000, -1005.00000000000000000000, -792.00000000000000000000}},

{{-232.00000000000000000000, 724.00000000000000000000, -1021.00000000000000000000},
{-950.00000000000000000000, -2448.00000000000000000000, -1250.00000000000000000000},
{259.00000000000000000000, 998.00000000000000000000, -2152.00000000000000000000}},

{{2712.00000000000000000000, 953.00000000000000000000, 804.00000000000000000000},
{-246.00000000000000000000, 1634.00000000000000000000, 1512.00000000000000000000},
{-1696.00000000000000000000, 732.00000000000000000000, 1690.00000000000000000000}},

{{486.00000000000000000000, -225.00000000000000000000, 968.00000000000000000000},
{540.00000000000000000000, -1064.00000000000000000000, -2637.00000000000000000000},
{324.00000000000000000000, -1984.00000000000000000000, 1123.00000000000000000000}},

{{2716.00000000000000000000, -2175.00000000000000000000, -487.00000000000000000000},
{1607.00000000000000000000, -766.00000000000000000000, -2243.00000000000000000000},
{-253.00000000000000000000, 2050.00000000000000000000, 300.00000000000000000000}}},

{{{1719.00000000000000000000, -739.00000000000000000000, 2107.00000000000000000000},
{390.00000000000000000000, 403.00000000000000000000, 1155.00000000000000000000},
{64.00000000000000000000, 1967.00000000000000000000, 81.00000000000000000000}},

{{-1496.00000000000000000000, -1165.00000000000000000000, 2249.00000000000000000000},
{-1912.00000000000000000000, -224.00000000000000000000, -1782.00000000000000000000},
{2411.00000000000000000000, 1160.00000000000000000000, -1839.00000000000000000000}},

{{-1762.00000000000000000000, 533.00000000000000000000, -386.00000000000000000000},
{-2392.00000000000000000000, 2543.00000000000000000000, -220.00000000000000000000},
{835.00000000000000000000, 1153.00000000000000000000, -1813.00000000000000000000}},

{{-2463.00000000000000000000, -2224.00000000000000000000, 420.00000000000000000000},
{2269.00000000000000000000, 1585.00000000000000000000, 799.00000000000000000000},
{2438.00000000000000000000, 240.00000000000000000000, 130.00000000000000000000}},

{{465.00000000000000000000, 1320.00000000000000000000, 2198.00000000000000000000},
{-1160.00000000000000000000, 2707.00000000000000000000, 1616.00000000000000000000},
{992.00000000000000000000, -232.00000000000000000000, 101.00000000000000000000}},

{{1146.00000000000000000000, -2177.00000000000000000000, 2121.00000000000000000000},
{1535.00000000000000000000, -1866.00000000000000000000, -1628.00000000000000000000},
{2259.00000000000000000000, 2626.00000000000000000000, -1385.00000000000000000000}},

{{-1975.00000000000000000000, 1806.00000000000000000000, -706.00000000000000000000},
{731.00000000000000000000, -2481.00000000000000000000, 955.00000000000000000000},
{1823.00000000000000000000, 1717.00000000000000000000, 2177.00000000000000000000}},

{{-1917.00000000000000000000, 1835.00000000000000000000, 1464.00000000000000000000},
{-2100.00000000000000000000, 2169.00000000000000000000, 1409.00000000000000000000},
{1654.00000000000000000000, 1633.00000000000000000000, 2624.00000000000000000000}},

{{-153.00000000000000000000, 2343.00000000000000000000, 2632.00000000000000000000},
{-2345.00000000000000000000, -1018.00000000000000000000, 168.00000000000000000000},
{679.00000000000000000000, -236.00000000000000000000, -1594.00000000000000000000}},

{{-1009.00000000000000000000, -2361.00000000000000000000, -1662.00000000000000000000},
{2211.00000000000000000000, 1441.00000000000000000000, -1117.00000000000000000000},
{-2150.00000000000000000000, -348.00000000000000000000, -457.00000000000000000000}},

{{-1048.00000000000000000000, -2484.00000000000000000000, 547.00000000000000000000},
{-1528.00000000000000000000, 898.00000000000000000000, 1042.00000000000000000000},
{2233.00000000000000000000, -1612.00000000000000000000, 416.00000000000000000000}},

{{1426.00000000000000000000, -2344.00000000000000000000, -752.00000000000000000000},
{-1260.00000000000000000000, -968.00000000000000000000, -926.00000000000000000000},
{228.00000000000000000000, -303.00000000000000000000, -2616.00000000000000000000}},

{{1769.00000000000000000000, 1579.00000000000000000000, 1189.00000000000000000000},
{-1927.00000000000000000000, -719.00000000000000000000, -2204.00000000000000000000},
{-2589.00000000000000000000, -2632.00000000000000000000, -339.00000000000000000000}},

{{1180.00000000000000000000, 2651.00000000000000000000, -2720.00000000000000000000},
{-1026.00000000000000000000, 1612.00000000000000000000, 2250.00000000000000000000},
{-602.00000000000000000000, 1637.00000000000000000000, 778.00000000000000000000}},

{{1065.00000000000000000000, -31.00000000000000000000, -1431.00000000000000000000},
{1522.00000000000000000000, 1255.00000000000000000000, -2291.00000000000000000000},
{-2511.00000000000000000000, -1290.00000000000000000000, -1697.00000000000000000000}},

{{2323.00000000000000000000, -560.00000000000000000000, -1620.00000000000000000000},
{-242.00000000000000000000, -2408.00000000000000000000, 1573.00000000000000000000},
{-2224.00000000000000000000, 913.00000000000000000000, -2484.00000000000000000000}}},

{{{-2132.00000000000000000000, -2007.00000000000000000000, -1424.00000000000000000000},
{-1177.00000000000000000000, -453.00000000000000000000, -215.00000000000000000000},
{-2526.00000000000000000000, 1775.00000000000000000000, 1014.00000000000000000000}},

{{1517.00000000000000000000, -1283.00000000000000000000, 1443.00000000000000000000},
{2282.00000000000000000000, -1262.00000000000000000000, 2440.00000000000000000000},
{-579.00000000000000000000, -1186.00000000000000000000, 1022.00000000000000000000}},

{{1486.00000000000000000000, -2689.00000000000000000000, -2660.00000000000000000000},
{1033.00000000000000000000, 2474.00000000000000000000, 2424.00000000000000000000},
{932.00000000000000000000, 461.00000000000000000000, -1875.00000000000000000000}},

{{228.00000000000000000000, 2256.00000000000000000000, 1434.00000000000000000000},
{-1836.00000000000000000000, -2503.00000000000000000000, 1288.00000000000000000000},
{-1183.00000000000000000000, 2453.00000000000000000000, -1067.00000000000000000000}},

{{2346.00000000000000000000, -1995.00000000000000000000, -2319.00000000000000000000},
{-479.00000000000000000000, 1171.00000000000000000000, -694.00000000000000000000},
{-1237.00000000000000000000, -1418.00000000000000000000, 1879.00000000000000000000}},

{{-2503.00000000000000000000, -875.00000000000000000000, 1488.00000000000000000000},
{-1709.00000000000000000000, -1462.00000000000000000000, -1178.00000000000000000000},
{328.00000000000000000000, 1904.00000000000000000000, 377.00000000000000000000}},

{{-1520.00000000000000000000, -2580.00000000000000000000, 730.00000000000000000000},
{2513.00000000000000000000, -552.00000000000000000000, 88.00000000000000000000},
{2088.00000000000000000000, 1568.00000000000000000000, 211.00000000000000000000}},

{{-2646.00000000000000000000, 579.00000000000000000000, -1220.00000000000000000000},
{-2208.00000000000000000000, 2300.00000000000000000000, -744.00000000000000000000},
{-1661.00000000000000000000, -428.00000000000000000000, 1829.00000000000000000000}},

{{-2194.00000000000000000000, 2702.00000000000000000000, 574.00000000000000000000},
{342.00000000000000000000, -961.00000000000000000000, -330.00000000000000000000},
{433.00000000000000000000, -617.00000000000000000000, -865.00000000000000000000}},

{{-1186.00000000000000000000, 1586.00000000000000000000, 2362.00000000000000000000},
{-981.00000000000000000000, 2227.00000000000000000000, -1411.00000000000000000000},
{-1002.00000000000000000000, -1638.00000000000000000000, 2460.00000000000000000000}},

{{2228.00000000000000000000, 425.00000000000000000000, -2590.00000000000000000000},
{1311.00000000000000000000, 822.00000000000000000000, 131.00000000000000000000},
{-2700.00000000000000000000, 1817.00000000000000000000, 304.00000000000000000000}},

{{-2236.00000000000000000000, -2195.00000000000000000000, -20.00000000000000000000},
{1804.00000000000000000000, 45.00000000000000000000, 1875.00000000000000000000},
{1683.00000000000000000000, 1559.00000000000000000000, -1136.00000000000000000000}},

{{2178.00000000000000000000, -1054.00000000000000000000, 2648.00000000000000000000},
{-2600.00000000000000000000, 751.00000000000000000000, -1933.00000000000000000000},
{-1779.00000000000000000000, 1989.00000000000000000000, -79.00000000000000000000}},

{{2505.00000000000000000000, -1354.00000000000000000000, -1045.00000000000000000000},
{-1399.00000000000000000000, -1374.00000000000000000000, 2671.00000000000000000000},
{-502.00000000000000000000, -406.00000000000000000000, -1761.00000000000000000000}},

{{-140.00000000000000000000, -2529.00000000000000000000, -2279.00000000000000000000},
{845.00000000000000000000, 949.00000000000000000000, -494.00000000000000000000},
{2601.00000000000000000000, 2278.00000000000000000000, 146.00000000000000000000}},

{{622.00000000000000000000, 646.00000000000000000000, 983.00000000000000000000},
{2721.00000000000000000000, 507.00000000000000000000, -2378.00000000000000000000},
{1995.00000000000000000000, 2474.00000000000000000000, -1747.00000000000000000000}}},

{{{-1121.00000000000000000000, 1030.00000000000000000000, -1065.00000000000000000000},
{2109.00000000000000000000, 1959.00000000000000000000, 180.00000000000000000000},
{450.00000000000000000000, -1582.00000000000000000000, 2658.00000000000000000000}},

{{-2123.00000000000000000000, 2117.00000000000000000000, 1814.00000000000000000000},
{1224.00000000000000000000, -842.00000000000000000000, -1433.00000000000000000000},
{-498.00000000000000000000, -1423.00000000000000000000, -734.00000000000000000000}},

{{-1278.00000000000000000000, -1516.00000000000000000000, 2313.00000000000000000000},
{-2254.00000000000000000000, 601.00000000000000000000, -851.00000000000000000000},
{1214.00000000000000000000, 106.00000000000000000000, -2639.00000000000000000000}},

{{547.00000000000000000000, 1517.00000000000000000000, -2660.00000000000000000000},
{1661.00000000000000000000, -2680.00000000000000000000, 299.00000000000000000000},
{-21.00000000000000000000, 1424.00000000000000000000, 2430.00000000000000000000}},

{{2407.00000000000000000000, -2674.00000000000000000000, 2264.00000000000000000000},
{941.00000000000000000000, -2078.00000000000000000000, 381.00000000000000000000},
{-1047.00000000000000000000, -69.00000000000000000000, -152.00000000000000000000}},

{{-1121.00000000000000000000, -646.00000000000000000000, -1862.00000000000000000000},
{-806.00000000000000000000, 2036.00000000000000000000, -342.00000000000000000000},
{653.00000000000000000000, -631.00000000000000000000, -121.00000000000000000000}},

{{509.00000000000000000000, 1513.00000000000000000000, -213.00000000000000000000},
{-1969.00000000000000000000, -1569.00000000000000000000, 2153.00000000000000000000},
{-764.00000000000000000000, 1099.00000000000000000000, 1946.00000000000000000000}},

{{-1255.00000000000000000000, 2206.00000000000000000000, 416.00000000000000000000},
{416.00000000000000000000, -729.00000000000000000000, 252.00000000000000000000},
{419.00000000000000000000, -1917.00000000000000000000, 2289.00000000000000000000}},

{{-1029.00000000000000000000, 1093.00000000000000000000, -2448.00000000000000000000},
{-1541.00000000000000000000, 1420.00000000000000000000, 427.00000000000000000000},
{221.00000000000000000000, -1029.00000000000000000000, -1202.00000000000000000000}},

{{-805.00000000000000000000, -2069.00000000000000000000, -417.00000000000000000000},
{2249.00000000000000000000, 831.00000000000000000000, -1998.00000000000000000000},
{-1258.00000000000000000000, -1418.00000000000000000000, -1250.00000000000000000000}},

{{-2069.00000000000000000000, -1263.00000000000000000000, 542.00000000000000000000},
{-1400.00000000000000000000, -2404.00000000000000000000, -1497.00000000000000000000},
{1904.00000000000000000000, 732.00000000000000000000, -593.00000000000000000000}},

{{-2640.00000000000000000000, -69.00000000000000000000, 461.00000000000000000000},
{-1832.00000000000000000000, -1228.00000000000000000000, -2220.00000000000000000000},
{465.00000000000000000000, 220.00000000000000000000, -105.00000000000000000000}},

{{-1103.00000000000000000000, 286.00000000000000000000, -1542.00000000000000000000},
{-2103.00000000000000000000, 1718.00000000000000000000, 101.00000000000000000000},
{-2073.00000000000000000000, -205.00000000000000000000, 437.00000000000000000000}},

{{1705.00000000000000000000, -243.00000000000000000000, -433.00000000000000000000},
{210.00000000000000000000, -2297.00000000000000000000, 2527.00000000000000000000},
{-1900.00000000000000000000, -1998.00000000000000000000, -1632.00000000000000000000}},

{{-1438.00000000000000000000, 2523.00000000000000000000, 952.00000000000000000000},
{-525.00000000000000000000, 2053.00000000000000000000, 128.00000000000000000000},
{-659.00000000000000000000, -677.00000000000000000000, -1268.00000000000000000000}},

{{-2535.00000000000000000000, -2267.00000000000000000000, -703.00000000000000000000},
{-1625.00000000000000000000, -1820.00000000000000000000, -2596.00000000000000000000},
{2689.00000000000000000000, -156.00000000000000000000, -494.00000000000000000000}}},

{{{-2223.00000000000000000000, -2255.00000000000000000000, 2505.00000000000000000000},
{158.00000000000000000000, 1615.00000000000000000000, -1661.00000000000000000000},
{-2657.00000000000000000000, -2054.00000000000000000000, 1219.00000000000000000000}},

{{2339.00000000000000000000, -2494.00000000000000000000, -1178.00000000000000000000},
{696.00000000000000000000, 1060.00000000000000000000, 652.00000000000000000000},
{-7.00000000000000000000, -1252.00000000000000000000, -170.00000000000000000000}},

{{1858.00000000000000000000, -1970.00000000000000000000, 2469.00000000000000000000},
{2005.00000000000000000000, 1532.00000000000000000000, 46.00000000000000000000},
{-2611.00000000000000000000, -613.00000000000000000000, 2345.00000000000000000000}},

{{-1639.00000000000000000000, -1127.00000000000000000000, 472.00000000000000000000},
{-1992.00000000000000000000, 2538.00000000000000000000, -903.00000000000000000000},
{-823.00000000000000000000, 382.00000000000000000000, -240.00000000000000000000}},

{{-732.00000000000000000000, 1242.00000000000000000000, -997.00000000000000000000},
{1875.00000000000000000000, -2268.00000000000000000000, 1671.00000000000000000000},
{469.00000000000000000000, 1051.00000000000000000000, 508.00000000000000000000}},

{{-1130.00000000000000000000, -303.00000000000000000000, 1713.00000000000000000000},
{-2655.00000000000000000000, -1274.00000000000000000000, 2072.00000000000000000000},
{1146.00000000000000000000, 131.00000000000000000000, -576.00000000000000000000}},

{{64.00000000000000000000, 995.00000000000000000000, -250.00000000000000000000},
{2356.00000000000000000000, -1121.00000000000000000000, -2097.00000000000000000000},
{-761.00000000000000000000, -1533.00000000000000000000, -1176.00000000000000000000}},

{{643.00000000000000000000, -2356.00000000000000000000, -60.00000000000000000000},
{2577.00000000000000000000, -2463.00000000000000000000, -597.00000000000000000000},
{-989.00000000000000000000, 2037.00000000000000000000, -468.00000000000000000000}},

{{2577.00000000000000000000, -1202.00000000000000000000, 1071.00000000000000000000},
{1095.00000000000000000000, 1088.00000000000000000000, -2199.00000000000000000000},
{-1449.00000000000000000000, -2197.00000000000000000000, -1315.00000000000000000000}},

{{2574.00000000000000000000, 515.00000000000000000000, -1330.00000000000000000000},
{1943.00000000000000000000, -864.00000000000000000000, -2111.00000000000000000000},
{-1393.00000000000000000000, 1425.00000000000000000000, 677.00000000000000000000}},

{{2684.00000000000000000000, -216.00000000000000000000, -2475.00000000000000000000},
{2330.00000000000000000000, -2501.00000000000000000000, -716.00000000000000000000},
{-2396.00000000000000000000, -2639.00000000000000000000, 2209.00000000000000000000}},

{{-744.00000000000000000000, 685.00000000000000000000, -2496.00000000000000000000},
{2620.00000000000000000000, 2055.00000000000000000000, -2490.00000000000000000000},
{-2448.00000000000000000000, 380.00000000000000000000, -2261.00000000000000000000}},

{{-1535.00000000000000000000, 1789.00000000000000000000, 2116.00000000000000000000},
{549.00000000000000000000, -1307.00000000000000000000, -2165.00000000000000000000},
{-1734.00000000000000000000, 542.00000000000000000000, -2673.00000000000000000000}},

{{-1791.00000000000000000000, 1279.00000000000000000000, 2157.00000000000000000000},
{-1105.00000000000000000000, -673.00000000000000000000, -118.00000000000000000000},
{-1299.00000000000000000000, -705.00000000000000000000, 2345.00000000000000000000}},

{{-2672.00000000000000000000, 2184.00000000000000000000, 2298.00000000000000000000},
{1888.00000000000000000000, 2281.00000000000000000000, 2503.00000000000000000000},
{-87.00000000000000000000, 282.00000000000000000000, 374.00000000000000000000}},

{{2458.00000000000000000000, 2694.00000000000000000000, 1862.00000000000000000000},
{-1275.00000000000000000000, -414.00000000000000000000, 2494.00000000000000000000},
{1827.00000000000000000000, 134.00000000000000000000, 1257.00000000000000000000}}}};

const uint16_t shape_Conv2D_1_b = 8;
const int16_t Conv2D_1_b[8] = {24.00000000000000000000, -16.00000000000000000000, -5.00000000000000000000, 24.00000000000000000000, 27.00000000000000000000, 22.00000000000000000000, -20.00000000000000000000, -6.00000000000000000000};
