/*
 * author : shtsno24
 * Date : 2019-10-15 13:43:38.426735
 * array_type : int16
 * fractal_width : 14 bit
 * bit_width : 16 bit
 *
 */
#pragma once
#include <stdint.h>

#define data_width_Conv2D_3 16
#define fractal_width_Conv2D_3 14

const uint16_t shape_Conv2D_3_w[] = {1, 16, 3, 3};
const int16_t Conv2D_3_w[1][16][3][3] =
{{{{1926.00000000000000000000, -3093.00000000000000000000, -771.00000000000000000000},
{921.00000000000000000000, -401.00000000000000000000, 3166.00000000000000000000},
{116.00000000000000000000, 2141.00000000000000000000, 1032.00000000000000000000}},

{{1355.00000000000000000000, -2508.00000000000000000000, -1189.00000000000000000000},
{1165.00000000000000000000, 2466.00000000000000000000, -833.00000000000000000000},
{-1105.00000000000000000000, 2870.00000000000000000000, 851.00000000000000000000}},

{{-443.00000000000000000000, 935.00000000000000000000, -1470.00000000000000000000},
{161.00000000000000000000, -425.00000000000000000000, 1975.00000000000000000000},
{1756.00000000000000000000, 687.00000000000000000000, -2198.00000000000000000000}},

{{1901.00000000000000000000, 1117.00000000000000000000, 1325.00000000000000000000},
{2413.00000000000000000000, -2233.00000000000000000000, -898.00000000000000000000},
{1981.00000000000000000000, -2931.00000000000000000000, 1675.00000000000000000000}},

{{2833.00000000000000000000, -2302.00000000000000000000, -1615.00000000000000000000},
{-2114.00000000000000000000, -412.00000000000000000000, 3053.00000000000000000000},
{-1819.00000000000000000000, -729.00000000000000000000, 646.00000000000000000000}},

{{-510.00000000000000000000, -1965.00000000000000000000, 317.00000000000000000000},
{-969.00000000000000000000, -2231.00000000000000000000, 539.00000000000000000000},
{2823.00000000000000000000, -1791.00000000000000000000, -1300.00000000000000000000}},

{{-2184.00000000000000000000, 860.00000000000000000000, -1978.00000000000000000000},
{2725.00000000000000000000, -2496.00000000000000000000, -744.00000000000000000000},
{-1064.00000000000000000000, 224.00000000000000000000, -2684.00000000000000000000}},

{{-293.00000000000000000000, -2384.00000000000000000000, -792.00000000000000000000},
{77.00000000000000000000, 1937.00000000000000000000, 1537.00000000000000000000},
{-1963.00000000000000000000, 1778.00000000000000000000, 2088.00000000000000000000}},

{{2456.00000000000000000000, -2547.00000000000000000000, 2464.00000000000000000000},
{-523.00000000000000000000, 2275.00000000000000000000, 2739.00000000000000000000},
{-37.00000000000000000000, 1430.00000000000000000000, -1910.00000000000000000000}},

{{1085.00000000000000000000, 23.00000000000000000000, 3009.00000000000000000000},
{-2858.00000000000000000000, -583.00000000000000000000, -224.00000000000000000000},
{-2220.00000000000000000000, -2941.00000000000000000000, -287.00000000000000000000}},

{{-3030.00000000000000000000, 1196.00000000000000000000, -1901.00000000000000000000},
{445.00000000000000000000, 1271.00000000000000000000, -589.00000000000000000000},
{2930.00000000000000000000, -3117.00000000000000000000, -156.00000000000000000000}},

{{-3000.00000000000000000000, -665.00000000000000000000, -355.00000000000000000000},
{1460.00000000000000000000, 768.00000000000000000000, 1900.00000000000000000000},
{1873.00000000000000000000, -1307.00000000000000000000, 2651.00000000000000000000}},

{{-330.00000000000000000000, 2787.00000000000000000000, -10.00000000000000000000},
{-2539.00000000000000000000, -2684.00000000000000000000, -428.00000000000000000000},
{-1347.00000000000000000000, -1969.00000000000000000000, -929.00000000000000000000}},

{{-2873.00000000000000000000, -1315.00000000000000000000, -2873.00000000000000000000},
{1549.00000000000000000000, 1172.00000000000000000000, -2178.00000000000000000000},
{-276.00000000000000000000, -517.00000000000000000000, -926.00000000000000000000}},

{{144.00000000000000000000, 1007.00000000000000000000, -2582.00000000000000000000},
{-235.00000000000000000000, -2175.00000000000000000000, 2642.00000000000000000000},
{7.00000000000000000000, 324.00000000000000000000, 408.00000000000000000000}},

{{-1571.00000000000000000000, 2444.00000000000000000000, -1269.00000000000000000000},
{1938.00000000000000000000, -1430.00000000000000000000, 2564.00000000000000000000},
{-3081.00000000000000000000, 1433.00000000000000000000, 64.00000000000000000000}}}};

const uint16_t shape_Conv2D_3_b = 1;
const int16_t Conv2D_3_b[1] = {23.00000000000000000000};
