/*
 * author : shtsno24
 * Date : 2019-10-14 20:53:17.460889
 *
 */
#pragma once
#include <stdint.h>

const uint16_t shape_Conv2D_1_w[] = {8, 16, 3, 3};
const float Conv2D_1_w[8][16][3][3] =
{{{{0.11871214210987091064, 0.06368356198072433472, -0.09572972357273101807},
{0.01625149324536323547, -0.14515438675880432129, -0.14252875745296478271},
{0.09069216251373291016, -0.04652445763349533081, 0.02005456387996673584}},

{{0.07562028616666793823, -0.09486923366785049438, 0.08555647730827331543},
{-0.16620194911956787109, -0.03382229059934616089, 0.04984866455197334290},
{-0.14188770949840545654, -0.10603622347116470337, 0.07585804164409637451}},

{{-0.13953909277915954590, 0.00706484680995345116, 0.07855228334665298462},
{-0.10552522540092468262, -0.04729741811752319336, -0.05199626088142395020},
{-0.04185953736305236816, 0.03861701488494873047, 0.02213827520608901978}},

{{0.15565088391304016113, -0.01490728743374347687, 0.05206857249140739441},
{0.02215954661369323730, -0.10300731658935546875, 0.05640561506152153015},
{-0.01343507971614599228, -0.03929332643747329712, -0.11337613314390182495}},

{{-0.00882064364850521088, 0.16371832787990570068, -0.11302090436220169067},
{-0.04041837528347969055, 0.13485425710678100586, 0.14058353006839752197},
{-0.05428927391767501831, -0.04181247577071189880, 0.01609571836888790131}},

{{-0.08933024108409881592, 0.16661699116230010986, -0.09950233995914459229},
{0.05281670764088630676, -0.08796104788780212402, 0.04259587824344635010},
{-0.08517283201217651367, -0.02908082865178585052, -0.05090966075658798218}},

{{-0.05280684679746627808, 0.07256800681352615356, -0.05559143424034118652},
{-0.03045328892767429352, -0.00893966015428304672, -0.15268346667289733887},
{0.06209523975849151611, 0.03891518712043762207, 0.05168982595205307007}},

{{-0.11558080464601516724, -0.15267676115036010742, -0.08237157762050628662},
{-0.07301080971956253052, 0.10186972469091415405, 0.00462263030931353569},
{0.10715060681104660034, 0.13029973208904266357, 0.05352145433425903320}},

{{0.08986462652683258057, 0.04334986582398414612, -0.02521232143044471741},
{-0.13396203517913818359, 0.05028327181935310364, 0.14250229299068450928},
{0.00626744888722896576, 0.04665477573871612549, -0.01413573790341615677}},

{{-0.15866120159626007080, -0.10873403400182723999, 0.08442839980125427246},
{-0.09758085757493972778, -0.09435385465621948242, 0.10484679788351058960},
{0.04429782554507255554, -0.09950449317693710327, -0.13783709704875946045}},

{{-0.02329514920711517334, 0.07317516952753067017, 0.07932947576045989990},
{-0.12141519784927368164, 0.10374456644058227539, 0.03009877540171146393},
{-0.04759549722075462341, -0.01675496436655521393, -0.16129563748836517334}},

{{0.07370293140411376953, -0.10360191762447357178, 0.13543634116649627686},
{-0.15695093572139739990, -0.06259265542030334473, -0.03136207908391952515},
{-0.09914164245128631592, 0.08579643815755844116, 0.14339132606983184814}},

{{-0.08276440203189849854, -0.13722614943981170654, -0.06098778545856475830},
{-0.16132499277591705322, 0.13360217213630676270, -0.03773692622780799866},
{0.02037697285413742065, 0.04799021407961845398, 0.01655621454119682312}},

{{0.05398351699113845825, 0.06858918815851211548, 0.09409218281507492065},
{0.05968367680907249451, -0.11972192674875259399, 0.12738355994224548340},
{0.13481011986732482910, 0.13762235641479492188, -0.06728862226009368896}},

{{0.08492408692836761475, -0.06577575206756591797, 0.10986181348562240601},
{0.04099183529615402222, 0.07601108402013778687, 0.15945984423160552979},
{-0.02163139358162879944, -0.12901727855205535889, 0.13846892118453979492}},

{{-0.03419099375605583191, -0.10827296227216720581, -0.13815201818943023682},
{-0.16147543489933013916, -0.14635014533996582031, 0.07306075841188430786},
{0.00188616139348596334, -0.15198452770709991455, 0.08397787809371948242}}},

{{{0.15664534270763397217, 0.10206338763236999512, -0.15638180077075958252},
{0.01129708252847194672, 0.09512895345687866211, 0.14442306756973266602},
{0.16555470228195190430, -0.01965837366878986359, -0.02842069789767265320}},

{{-0.11327426135540008545, 0.15089853107929229736, 0.10653464496135711670},
{0.00880932621657848358, -0.12105560302734375000, -0.05440576374530792236},
{-0.01269432995468378067, -0.06885757297277450562, -0.04888685420155525208}},

{{-0.01979096606373786926, -0.12450556457042694092, 0.16534845530986785889},
{0.16355146467685699463, 0.12841287255287170410, -0.15250094234943389893},
{-0.10502737015485763550, 0.04601591825485229492, 0.04736566543579101562}},

{{-0.01873322203755378723, 0.08555495738983154297, -0.10621038824319839478},
{0.16293814778327941895, -0.01990816742181777954, 0.12258104234933853149},
{0.00707310531288385391, 0.06778412312269210815, 0.02630153484642505646}},

{{0.05368373170495033264, -0.13357488811016082764, -0.00287200720049440861},
{-0.11146356910467147827, 0.14473880827426910400, -0.16550482809543609619},
{-0.03102355636656284332, 0.07969758659601211548, 0.10740389674901962280}},

{{0.15034243464469909668, -0.05625764653086662292, -0.12760268151760101318},
{-0.16076108813285827637, -0.10592832416296005249, 0.15557976067066192627},
{0.06827373802661895752, 0.15165904164314270020, -0.15276618301868438721}},

{{0.15642529726028442383, -0.02193135209381580353, -0.07189918309450149536},
{-0.15068627893924713135, 0.07761725038290023804, -0.11783434450626373291},
{-0.13431560993194580078, 0.07944298535585403442, -0.10581369698047637939}},

{{-0.05590859055519104004, -0.06826961785554885864, -0.07348600775003433228},
{0.14312344789505004883, 0.02050086297094821930, -0.03865908831357955933},
{0.06633621454238891602, 0.04097641631960868835, 0.00211648829281330109}},

{{0.14401045441627502441, 0.10121207684278488159, -0.01059406436979770660},
{-0.08192563802003860474, 0.14233754575252532959, 0.06424702703952789307},
{0.00098772172350436449, 0.15524233877658843994, 0.16459831595420837402}},

{{0.00762537121772766113, -0.04035056009888648987, -0.15585856139659881592},
{-0.02411470375955104828, -0.08889908343553543091, 0.10002323240041732788},
{-0.04497038200497627258, 0.01574092917144298553, -0.16339282691478729248}},

{{-0.02701938338577747345, -0.16438107192516326904, 0.00873587466776371002},
{0.06758652627468109131, -0.15971930325031280518, -0.14947181940078735352},
{-0.13929201662540435791, -0.15618659555912017822, 0.01842300035059452057}},

{{0.10933087766170501709, -0.05392397195100784302, 0.13210614025592803955},
{-0.12879157066345214844, 0.13935598731040954590, -0.05994163826107978821},
{0.02274907939136028290, 0.00153589865658432245, -0.06606144458055496216}},

{{-0.05088364332914352417, 0.16329477727413177490, -0.16024346649646759033},
{-0.08110246807336807251, -0.04272067174315452576, -0.04994801804423332214},
{0.09972348809242248535, -0.04192776232957839966, 0.09322078526020050049}},

{{0.01215749606490135193, 0.05943924188613891602, 0.04363462328910827637},
{0.03427485749125480652, 0.04047391563653945923, 0.04121973365545272827},
{0.08394511044025421143, -0.07633776217699050903, 0.07016360759735107422}},

{{-0.15529222786426544189, -0.07862880825996398926, 0.15021255612373352051},
{-0.12568733096122741699, 0.07316958159208297729, 0.11481585353612899780},
{-0.15623416006565093994, -0.08659095317125320435, 0.11272005736827850342}},

{{0.13121590018272399902, -0.14421670138835906982, -0.14135986566543579102},
{-0.11555420607328414917, -0.13225996494293212891, 0.10214626789093017578},
{-0.11186565458774566650, 0.08663245290517807007, -0.13277564942836761475}}},

{{{0.12656766176223754883, 0.13380783796310424805, 0.02379452250897884369},
{0.13809400796890258789, -0.01535262726247310638, 0.13460648059844970703},
{0.00852792430669069290, 0.14902968704700469971, -0.11503243446350097656}},

{{-0.07712864875793457031, 0.01877510547637939453, -0.14695303142070770264},
{0.05770357325673103333, -0.01281687896698713303, -0.03463982045650482178},
{-0.06981107592582702637, -0.13772277534008026123, -0.04589884728193283081}},

{{-0.01297063287347555161, -0.07969921827316284180, 0.07458885014057159424},
{-0.11077173799276351929, 0.05636382475495338440, 0.06733082234859466553},
{0.10824623703956604004, 0.14018240571022033691, 0.13877025246620178223}},

{{0.10770954191684722900, -0.06157307326793670654, 0.14418564736843109131},
{-0.10398375242948532104, -0.15793208777904510498, 0.11482653766870498657},
{-0.09746675193309783936, -0.03720141947269439697, 0.14487935602664947510}},

{{0.04388694092631340027, -0.02196269854903221130, -0.11656971275806427002},
{0.02017406001687049866, 0.07435784488916397095, -0.02221713773906230927},
{0.15809246897697448730, 0.04366100952029228210, 0.11847550421953201294}},

{{-0.02262517809867858887, -0.10539626330137252808, -0.10860917717218399048},
{-0.00302114221267402172, -0.02426123991608619690, -0.05448139458894729614},
{0.08168578892946243286, -0.09823898971080780029, 0.09379293769598007202}},

{{-0.12836946547031402588, 0.07816400378942489624, -0.07082137465476989746},
{-0.15535694360733032227, 0.04560912773013114929, 0.11857558041810989380},
{0.00074123637750744820, 0.05082681775093078613, 0.02945446223020553589}},

{{0.05546297132968902588, -0.12117175757884979248, 0.06606765836477279663},
{-0.08984293788671493530, 0.08702597767114639282, 0.07734030485153198242},
{0.02035204507410526276, 0.00578774092718958855, 0.03037811443209648132}},

{{0.00812947936356067657, 0.03744352608919143677, 0.07447549700736999512},
{0.06873450428247451782, -0.08384824544191360474, -0.03421890363097190857},
{0.07002956420183181763, -0.15246234834194183350, 0.04906286671757698059}},

{{0.10328352451324462891, -0.13581113517284393311, 0.06755688041448593140},
{-0.14440587162971496582, 0.15400640666484832764, -0.02209511585533618927},
{-0.03507604077458381653, -0.06099204346537590027, 0.03805913776159286499}},

{{-0.02715551294386386871, -0.09017587453126907349, -0.00339854788035154343},
{0.05682601034641265869, -0.12800306081771850586, 0.03127094358205795288},
{-0.03305521607398986816, 0.04846435040235519409, -0.10717716068029403687}},

{{-0.01543985586613416672, -0.02177346311509609222, 0.06244382634758949280},
{0.01847541704773902893, -0.14781723916530609131, -0.06060480326414108276},
{-0.06688212603330612183, -0.12342330068349838257, 0.16278517246246337891}},

{{0.16598440706729888916, 0.06363957375288009644, -0.05207348242402076721},
{-0.15463101863861083984, 0.02670134790241718292, -0.04039771109819412231},
{0.07137082517147064209, -0.14844557642936706543, 0.06781652569770812988}},

{{-0.09291739761829376221, -0.01201594062149524689, 0.04844167828559875488},
{0.16081301867961883545, -0.13754801452159881592, -0.10080875456333160400},
{0.03239551186561584473, 0.10371490567922592163, -0.04164648801088333130}},

{{0.03554616868495941162, -0.14119252562522888184, 0.12966115772724151611},
{-0.10605357587337493896, -0.12524004280567169189, -0.12485380470752716064},
{0.14480598270893096924, -0.14434449374675750732, 0.05992125719785690308}},

{{0.10882002860307693481, 0.07404142618179321289, -0.15500132739543914795},
{0.01773957908153533936, 0.05735263228416442871, 0.09352404624223709106},
{0.04858130589127540588, 0.10179961472749710083, 0.12645405530929565430}}},

{{{-0.03890195116400718689, 0.12089960277080535889, -0.02332375571131706238},
{-0.08178713917732238770, 0.05523935332894325256, 0.14356260001659393311},
{0.16648696362972259521, -0.03931589424610137939, 0.16240914165973663330}},

{{0.02519896812736988068, 0.02726468816399574280, 0.05779544636607170105},
{0.14409796893596649170, 0.02682220004498958588, -0.15721099078655242920},
{-0.11053268611431121826, 0.04412182420492172241, -0.09348674118518829346}},

{{0.12059804797172546387, 0.01059533469378948212, 0.12586034834384918213},
{-0.13571539521217346191, 0.12019228935241699219, -0.05792315676808357239},
{-0.01988159306347370148, -0.08954078704118728638, -0.15225654840469360352}},

{{0.13417682051658630371, -0.10779196023941040039, -0.01294087432324886322},
{-0.13341677188873291016, 0.12093847244977951050, 0.13240855932235717773},
{-0.16095815598964691162, 0.00062971771694719791, -0.07331114262342453003}},

{{0.07465898245573043823, -0.12676879763603210449, 0.12462087720632553101},
{-0.02491660043597221375, 0.14864929020404815674, -0.12116593122482299805},
{0.02753882482647895813, -0.12360834330320358276, -0.02711331099271774292}},

{{-0.06107670813798904419, -0.08354414999485015869, -0.07778491824865341187},
{-0.02680247090756893158, 0.15522521734237670898, -0.05466195940971374512},
{0.09010139107704162598, -0.01519680768251419067, -0.01879670284688472748}},

{{0.04253339394927024841, -0.01278149243444204330, -0.06144123524427413940},
{-0.09560197591781616211, 0.02370867878198623657, -0.11990350484848022461},
{-0.09195031970739364624, 0.10201017558574676514, -0.00762435095384716988}},

{{-0.15286022424697875977, 0.05432168394327163696, 0.06920760124921798706},
{0.09249560534954071045, 0.15553976595401763916, -0.11876017600297927856},
{-0.15611544251441955566, 0.09450795501470565796, 0.00772284623235464096}},

{{-0.09329174458980560303, -0.12733493745326995850, -0.13270585238933563232},
{-0.03956829011440277100, -0.10329845547676086426, -0.09868828952312469482},
{-0.07749058306217193604, 0.16447792947292327881, 0.00283247139304876328}},

{{-0.12048259377479553223, 0.03785302117466926575, 0.08137399703264236450},
{-0.14277914166450500488, 0.07135472446680068970, 0.03409051895141601562},
{-0.08755142986774444580, -0.11975025385618209839, -0.12800182402133941650}},

{{-0.04485540464520454407, -0.08499106764793395996, -0.11297007650136947632},
{0.15650437772274017334, -0.08054371923208236694, 0.15418855845928192139},
{0.06250640749931335449, 0.10969783365726470947, 0.08248756080865859985}},

{{0.02958902157843112946, 0.10165236890316009521, -0.12840251624584197998},
{0.05390102043747901917, -0.07415196299552917480, -0.00114349008072167635},
{-0.03356971591711044312, -0.06137945502996444702, -0.04838176816701889038}},

{{-0.01421112287789583206, 0.04423801228404045105, -0.06233886629343032837},
{-0.05800449103116989136, -0.14946772158145904541, -0.07632255554199218750},
{0.01582837104797363281, 0.06095990166068077087, -0.13140034675598144531}},

{{0.16559424996376037598, 0.05820265412330627441, 0.04908361285924911499},
{-0.01506849937140941620, 0.09973818063735961914, 0.09234324842691421509},
{-0.10352603346109390259, 0.04471969977021217346, 0.10320758074522018433}},

{{0.02970947697758674622, -0.01376057602465152740, 0.05911683291196823120},
{0.03301638364791870117, -0.06496752798557281494, -0.16096150875091552734},
{0.01980705559253692627, -0.12111908942461013794, 0.06858614087104797363}},

{{0.16578477621078491211, -0.13281595706939697266, -0.02975858747959136963},
{0.09812755882740020752, -0.04675628244876861572, -0.13696792721748352051},
{-0.01550154667347669601, 0.12518492341041564941, 0.01834448613226413727}}},

{{{0.10497592389583587646, -0.04514645785093307495, 0.12866218388080596924},
{0.02382899820804595947, 0.02464520744979381561, 0.07050644606351852417},
{0.00393883977085351944, 0.12011498212814331055, 0.00498760072514414787}},

{{-0.09135258942842483521, -0.07112229615449905396, 0.13727916777133941650},
{-0.11671900749206542969, -0.01368405856192111969, -0.10880770534276962280},
{0.14720147848129272461, 0.07084509730339050293, -0.11230047792196273804}},

{{-0.10759328305721282959, 0.03257288783788681030, -0.02361384406685829163},
{-0.14604166150093078613, 0.15524779260158538818, -0.01344763487577438354},
{0.05097173154354095459, 0.07040780782699584961, -0.11070774495601654053}},

{{-0.15034835040569305420, -0.13577964901924133301, 0.02564949728548526764},
{0.13852114975452423096, 0.09678841382265090942, 0.04880905896425247192},
{0.14882425963878631592, 0.01467778161168098450, 0.00796087924391031265}},

{{0.02842724695801734924, 0.08058261126279830933, 0.13417057693004608154},
{-0.07082443684339523315, 0.16528676450252532959, 0.09866040199995040894},
{0.06060207262635231018, -0.01421671174466609955, 0.00616911659017205238}},

{{0.06995175033807754517, -0.13291712105274200439, 0.12951102852821350098},
{0.09371920675039291382, -0.11393138021230697632, -0.09941031783819198608},
{0.13793328404426574707, 0.16034698486328125000, -0.08457106351852416992}},

{{-0.12057921290397644043, 0.11025299131870269775, -0.04311256483197212219},
{0.04466557875275611877, -0.15144023299217224121, 0.05830094963312149048},
{0.11131038516759872437, 0.10480417311191558838, 0.13292030990123748779}},

{{-0.11703934520483016968, 0.11204390227794647217, 0.08939403295516967773},
{-0.12823432683944702148, 0.13242682814598083496, 0.08601710200309753418},
{0.10100309550762176514, 0.09973739087581634521, 0.16019719839096069336}},

{{-0.00938500929623842239, 0.14306488633155822754, 0.16068325936794281006},
{-0.14319404959678649902, -0.06219320371747016907, 0.01027650199830532074},
{0.04148836061358451843, -0.01445421762764453888, -0.09734161943197250366}},

{{-0.06164074316620826721, -0.14414393901824951172, -0.10146193206310272217},
{0.13500078022480010986, 0.08798418194055557251, -0.06820964813232421875},
{-0.13129004836082458496, -0.02128385193645954132, -0.02792393229901790619}},

{{-0.06401776522397994995, -0.15163712203502655029, 0.03339730948209762573},
{-0.09331625699996948242, 0.05486123636364936829, 0.06361308693885803223},
{0.13633580505847930908, -0.09845170378684997559, 0.02545039914548397064}},

{{0.08710106462240219116, -0.14312501251697540283, -0.04596042633056640625},
{-0.07693355530500411987, -0.05909955129027366638, -0.05656773597002029419},
{0.01393823511898517609, -0.01851517893373966217, -0.15971696376800537109}},

{{0.10802839696407318115, 0.09642817825078964233, 0.07257999479770660400},
{-0.11765056848526000977, -0.04393355175852775574, -0.13455279171466827393},
{-0.15803636610507965088, -0.16071535646915435791, -0.02070680819451808929}},

{{0.07207799702882766724, 0.16184160113334655762, -0.16603597998619079590},
{-0.06266766786575317383, 0.09840007126331329346, 0.13733832538127899170},
{-0.03675721958279609680, 0.09993109852075576782, 0.04753354564309120178}},

{{0.06505943089723587036, -0.00191988481674343348, -0.08736160397529602051},
{0.09295488893985748291, 0.07661727070808410645, -0.13984753191471099854},
{-0.15332135558128356934, -0.07874330878257751465, -0.10359435528516769409}},

{{0.14185269176959991455, -0.03422875702381134033, -0.09893237054347991943},
{-0.01482877973467111588, -0.14702685177326202393, 0.09607461839914321899},
{-0.13576316833496093750, 0.05575165525078773499, -0.15164045989513397217}}},

{{{-0.13015326857566833496, -0.12254083901643753052, -0.08693230152130126953},
{-0.07184330374002456665, -0.02766551263630390167, -0.01314228400588035583},
{-0.15422841906547546387, 0.10839498043060302734, 0.06192070990800857544}},

{{0.09262208640575408936, -0.07832346111536026001, 0.08813549578189849854},
{0.13931478559970855713, -0.07707437127828598022, 0.14898850023746490479},
{-0.03539662063121795654, -0.07245292514562606812, 0.06239758804440498352}},

{{0.09072978049516677856, -0.16414101421833038330, -0.16239432990550994873},
{0.06310705095529556274, 0.15102654695510864258, 0.14799648523330688477},
{0.05692133307456970215, 0.02818435244262218475, -0.11449452489614486694}},

{{0.01394230686128139496, 0.13772261142730712891, 0.08757372945547103882},
{-0.11210435628890991211, -0.15282908082008361816, 0.07862727344036102295},
{-0.07225556671619415283, 0.14973330497741699219, -0.06518337130546569824}},

{{0.14324915409088134766, -0.12179537862539291382, -0.14159828424453735352},
{-0.02926814183592796326, 0.07147789001464843750, -0.04238618910312652588},
{-0.07552623748779296875, -0.08660273998975753784, 0.11474171280860900879}},

{{-0.15279671549797058105, -0.05345553532242774963, 0.09083847701549530029},
{-0.10434944927692413330, -0.08924160897731781006, -0.07193771004676818848},
{0.02003438957035541534, 0.11623959243297576904, 0.02307058125734329224}},

{{-0.09278398752212524414, -0.15753038227558135986, 0.04459672793745994568},
{0.15342861413955688477, -0.03369422256946563721, 0.00543225416913628578},
{0.12748429179191589355, 0.09573318064212799072, 0.01292169652879238129}},

{{-0.16156917810440063477, 0.03534696996212005615, -0.07447651773691177368},
{-0.13479171693325042725, 0.14043146371841430664, -0.04544584825634956360},
{-0.10141932219266891479, -0.02612689509987831116, 0.11169350147247314453}},

{{-0.13395842909812927246, 0.16494451463222503662, 0.03508588299155235291},
{0.02088316157460212708, -0.05866198241710662842, -0.02018647640943527222},
{0.02647287771105766296, -0.03767528757452964783, -0.05281813815236091614}},

{{-0.07244424521923065186, 0.09681352972984313965, 0.14419236779212951660},
{-0.05993079766631126404, 0.13595516979694366455, -0.08618106693029403687},
{-0.06120388209819793701, -0.10004080086946487427, 0.15015786886215209961}},

{{0.13604152202606201172, 0.02598593197762966156, -0.15810392796993255615},
{0.08004745095968246460, 0.05019921436905860901, 0.00804824382066726685},
{-0.16484977304935455322, 0.11096583306789398193, 0.01860190741717815399}},

{{-0.13649465143680572510, -0.13399472832679748535, -0.00127514649648219347},
{0.11011550575494766235, 0.00275008333846926689, 0.11450760811567306519},
{0.10278486460447311401, 0.09518580883741378784, -0.06937604397535324097}},

{{0.13294892013072967529, -0.06435055285692214966, 0.16166235506534576416},
{-0.15871956944465637207, 0.04586775600910186768, -0.11803698539733886719},
{-0.10864703357219696045, 0.12143416702747344971, -0.00483525963500142097}},

{{0.15292830765247344971, -0.08265170454978942871, -0.06383392959833145142},
{-0.08541979640722274780, -0.08388966321945190430, 0.16307348012924194336},
{-0.03068734705448150635, -0.02479107864201068878, -0.10750083625316619873}},

{{-0.00856088940054178238, -0.15438105165958404541, -0.13915355503559112549},
{0.05158675089478492737, 0.05793664231896400452, -0.03017387911677360535},
{0.15878796577453613281, 0.13904963433742523193, 0.00892367120832204819}},

{{0.03800522536039352417, 0.03947060555219650269, 0.06003257259726524353},
{0.16609115898609161377, 0.03095145896077156067, -0.14516006410121917725},
{0.12179475277662277222, 0.15102252364158630371, -0.10665597766637802124}}},

{{{-0.06844147294759750366, 0.06292236596345901489, -0.06506736576557159424},
{0.12877495586872100830, 0.11960080265998840332, 0.01102711074054241180},
{0.02752650715410709381, -0.09661586582660675049, 0.16228270530700683594}},

{{-0.12958937883377075195, 0.12922695279121398926, 0.11076931655406951904},
{0.07471619546413421631, -0.05141609534621238708, -0.08750986307859420776},
{-0.03043667785823345184, -0.08691049367189407349, -0.04486296698451042175}},

{{-0.07801856845617294312, -0.09254108369350433350, 0.14123623073101043701},
{-0.13761872053146362305, 0.03671900182962417603, -0.05198194831609725952},
{0.07412540167570114136, 0.00648582540452480316, -0.16109202802181243896}},

{{0.03342894837260246277, 0.09263221174478530884, -0.16240352392196655273},
{0.10141439735889434814, -0.16360484063625335693, 0.01829231716692447662},
{-0.00129959243349730968, 0.08696469664573669434, 0.14836029708385467529}},

{{0.14692527055740356445, -0.16325131058692932129, 0.13819284737110137939},
{0.05745726451277732849, -0.12687797844409942627, 0.02328950166702270508},
{-0.06393893063068389893, -0.00426308950409293175, -0.00929912645369768143}},

{{-0.06844764202833175659, -0.03947523981332778931, -0.11371177434921264648},
{-0.04924528300762176514, 0.12430367618799209595, -0.02092370390892028809},
{0.03988208994269371033, -0.03857430070638656616, -0.00739120179787278175}},

{{0.03108092583715915680, 0.09239336848258972168, -0.01304113026708364487},
{-0.12020128220319747925, -0.09578637033700942993, 0.13145054876804351807},
{-0.04668162018060684204, 0.06709973514080047607, 0.11882272362709045410}},

{{-0.07663694024085998535, 0.13466781377792358398, 0.02542501874268054962},
{0.02542891725897789001, -0.04452086240053176880, 0.01541582494974136353},
{0.02558606676757335663, -0.11701849848031997681, 0.13974489271640777588}},

{{-0.06281084567308425903, 0.06676552444696426392, -0.14947518706321716309},
{-0.09410576522350311279, 0.08671502768993377686, 0.02609044127166271210},
{0.01354129798710346222, -0.06281327456235885620, -0.07337077707052230835}},

{{-0.04917421191930770874, -0.12630471587181091309, -0.02549113146960735321},
{0.13730664551258087158, 0.05075644701719284058, -0.12199153006076812744},
{-0.07679393142461776733, -0.08661299198865890503, -0.07634073495864868164}},

{{-0.12631778419017791748, -0.07715109735727310181, 0.03312730789184570312},
{-0.08546322584152221680, -0.14679698646068572998, -0.09140300005674362183},
{0.11624716967344284058, 0.04470233619213104248, -0.03621999546885490417}},

{{-0.16115550696849822998, -0.00425617536529898643, 0.02816813252866268158},
{-0.11186321824789047241, -0.07499396800994873047, -0.13556550443172454834},
{0.02842660620808601379, 0.01346697658300399780, -0.00644825864583253860}},

{{-0.06737575680017471313, 0.01749354042112827301, -0.09415793418884277344},
{-0.12838071584701538086, 0.10490186512470245361, 0.00620388984680175781},
{-0.12656942009925842285, -0.01255237869918346405, 0.02673367038369178772}},

{{0.10408024489879608154, -0.01485351379960775375, -0.02645246498286724091},
{0.01285979337990283966, -0.14021073281764984131, 0.15426631271839141846},
{-0.11599606275558471680, -0.12197188287973403931, -0.09964612871408462524}},

{{-0.08780395239591598511, 0.15402783453464508057, 0.05811645835638046265},
{-0.03209069743752479553, 0.12533636391162872314, 0.00787371676415205002},
{-0.04026332125067710876, -0.04136117175221443176, -0.07745032012462615967}},

{{-0.15478649735450744629, -0.13838860392570495605, -0.04294450208544731140},
{-0.09924704581499099731, -0.11112237721681594849, -0.15848946571350097656},
{0.16416503489017486572, -0.00957798864692449570, -0.03019694797694683075}}},

{{{-0.13569095730781555176, -0.13766740262508392334, 0.15294620394706726074},
{0.00968485977500677109, 0.09861458837985992432, -0.10140712559223175049},
{-0.16220764815807342529, -0.12542650103569030762, 0.07442457973957061768}},

{{0.14280459284782409668, -0.15226902067661285400, -0.07193215936422348022},
{0.04252704977989196777, 0.06475941091775894165, 0.03981123492121696472},
{-0.00043994019506499171, -0.07647527009248733521, -0.01043180748820304871}},

{{0.11346084624528884888, -0.12024669349193572998, 0.15074196457862854004},
{0.12239418923854827881, 0.09357226639986038208, 0.00284177693538367748},
{-0.15937368571758270264, -0.03741833940148353577, 0.14315453171730041504}},

{{-0.10004373639822006226, -0.06883629411458969116, 0.02881387621164321899},
{-0.12161229550838470459, 0.15495498478412628174, -0.05512951686978340149},
{-0.05028690025210380554, 0.02334237471222877502, -0.01466702017933130264}},

{{-0.04471525922417640686, 0.07582858204841613770, -0.06089524552226066589},
{0.11449885368347167969, -0.13846772909164428711, 0.10203398019075393677},
{0.02863258495926856995, 0.06416007131338119507, 0.03101813234388828278}},

{{-0.06898714601993560791, -0.01852940022945404053, 0.10461913049221038818},
{-0.16210006177425384521, -0.07780724763870239258, 0.12648043036460876465},
{0.06998623162508010864, 0.00804163701832294464, -0.03517480194568634033}},

{{0.00394770409911870956, 0.06076409667730331421, -0.01528237294405698776},
{0.14382037520408630371, -0.06845352053642272949, -0.12803849577903747559},
{-0.04649852961301803589, -0.09357944130897521973, -0.07182412594556808472}},

{{0.03925776481628417969, -0.14381273090839385986, -0.00369473174214363098},
{0.15731023252010345459, -0.15035551786422729492, -0.03648486733436584473},
{-0.06040664017200469971, 0.12436837702989578247, -0.02861366979777812958}},

{{0.15734195709228515625, -0.07341306656599044800, 0.06537528336048126221},
{0.06686108559370040894, 0.06642990559339523315, -0.13426826894283294678},
{-0.08850157260894775391, -0.13415150344371795654, -0.08032182604074478149}},

{{0.15716846287250518799, 0.03146104142069816589, -0.08119481056928634644},
{0.11859905719757080078, -0.05275319516658782959, -0.12890863418579101562},
{-0.08503776788711547852, 0.08699040114879608154, 0.04134124889969825745}},

{{0.16384048759937286377, -0.01322660315781831741, -0.15109047293663024902},
{0.14226147532463073730, -0.15269534289836883545, -0.04376234859228134155},
{-0.14629098773002624512, -0.16109913587570190430, 0.13487774133682250977}},

{{-0.04546329379081726074, 0.04182168841361999512, -0.15235818922519683838},
{0.15997926890850067139, 0.12544827163219451904, -0.15199488401412963867},
{-0.14948149025440216064, 0.02320204861462116241, -0.13804614543914794922}},

{{-0.09375085681676864624, 0.10924915224313735962, 0.12916247546672821045},
{0.03357085958123207092, -0.07983709871768951416, -0.13215349614620208740},
{-0.10584268718957901001, 0.03308314830064773560, -0.16315934062004089355}},

{{-0.10935708135366439819, 0.07810053974390029907, 0.13169814646244049072},
{-0.06745427101850509644, -0.04112034291028976440, -0.00726237660273909569},
{-0.07929078489542007446, -0.04308962449431419373, 0.14319120347499847412}},

{{-0.16313470900058746338, 0.13334408402442932129, 0.14027670025825500488},
{0.11524258553981781006, 0.13927398622035980225, 0.15282438695430755615},
{-0.00537032773718237877, 0.01725238002836704254, 0.02283739671111106873}},

{{0.15008842945098876953, 0.16446565091609954834, 0.11369426548480987549},
{-0.07785932719707489014, -0.02532244287431240082, 0.15228207409381866455},
{0.11154340952634811401, 0.00818122923374176025, 0.07672903686761856079}}}};

const uint16_t shape_Conv2D_1_b = 8;
const float Conv2D_1_b[8] = {0.00149773783050477505, -0.00102704914752393961, -0.00034727519960142672, 0.00147787365131080151, 0.00166065199300646782, 0.00135646143462508917, -0.00125969236250966787, -0.00039961148286238313};
