/*
 * author : shtsno24
 * Date : 2019-10-14 20:53:17.446606
 * array_type : int16
 * fractal_width : 14 bit
 * bit_width : 16 bit
 *
 */
#pragma once
#include <stdint.h>

#define data_width_Conv2D_0 16
#define fractal_width_Conv2D_0 14

const uint16_t shape_Conv2D_0_w[] = {16, 1, 3, 3};
const int16_t Conv2D_0_w[16][1][3][3] =
{{{{3212.00000000000000000000, -1003.00000000000000000000, 1997.00000000000000000000},
{-992.00000000000000000000, -1059.00000000000000000000, 2676.00000000000000000000},
{1880.00000000000000000000, 3202.00000000000000000000, 3178.00000000000000000000}}},

{{{-1440.00000000000000000000, -1611.00000000000000000000, -455.00000000000000000000},
{-738.00000000000000000000, 986.00000000000000000000, 1318.00000000000000000000},
{-1788.00000000000000000000, -2193.00000000000000000000, -761.00000000000000000000}}},

{{{-1817.00000000000000000000, -1792.00000000000000000000, -1925.00000000000000000000},
{-1864.00000000000000000000, 2585.00000000000000000000, 198.00000000000000000000},
{-2340.00000000000000000000, -107.00000000000000000000, 1269.00000000000000000000}}},

{{{2173.00000000000000000000, -654.00000000000000000000, 2999.00000000000000000000},
{-453.00000000000000000000, -2371.00000000000000000000, -3192.00000000000000000000},
{-2356.00000000000000000000, 1765.00000000000000000000, 250.00000000000000000000}}},

{{{3002.00000000000000000000, 2087.00000000000000000000, 3152.00000000000000000000},
{-1647.00000000000000000000, -558.00000000000000000000, -1017.00000000000000000000},
{3086.00000000000000000000, -2454.00000000000000000000, -1056.00000000000000000000}}},

{{{2702.00000000000000000000, -1336.00000000000000000000, -2822.00000000000000000000},
{-1748.00000000000000000000, -928.00000000000000000000, -1773.00000000000000000000},
{-452.00000000000000000000, 1622.00000000000000000000, -1105.00000000000000000000}}},

{{{-1378.00000000000000000000, -2376.00000000000000000000, 173.00000000000000000000},
{1371.00000000000000000000, 1319.00000000000000000000, 1072.00000000000000000000},
{2343.00000000000000000000, -2406.00000000000000000000, -2753.00000000000000000000}}},

{{{-1282.00000000000000000000, 2529.00000000000000000000, 1738.00000000000000000000},
{-3142.00000000000000000000, -713.00000000000000000000, 2631.00000000000000000000},
{-3041.00000000000000000000, 2536.00000000000000000000, -2874.00000000000000000000}}},

{{{-1260.00000000000000000000, -536.00000000000000000000, 3192.00000000000000000000},
{1944.00000000000000000000, 2816.00000000000000000000, -585.00000000000000000000},
{-658.00000000000000000000, 443.00000000000000000000, 1696.00000000000000000000}}},

{{{-1937.00000000000000000000, 2036.00000000000000000000, -2958.00000000000000000000},
{-2084.00000000000000000000, -1178.00000000000000000000, -1343.00000000000000000000},
{485.00000000000000000000, -690.00000000000000000000, -165.00000000000000000000}}},

{{{-1097.00000000000000000000, -193.00000000000000000000, -1502.00000000000000000000},
{-2515.00000000000000000000, -2919.00000000000000000000, -965.00000000000000000000},
{1385.00000000000000000000, 482.00000000000000000000, -239.00000000000000000000}}},

{{{-2613.00000000000000000000, 418.00000000000000000000, -176.00000000000000000000},
{-1486.00000000000000000000, 1064.00000000000000000000, 2754.00000000000000000000},
{2983.00000000000000000000, -1807.00000000000000000000, -2183.00000000000000000000}}},

{{{3154.00000000000000000000, 539.00000000000000000000, 542.00000000000000000000},
{534.00000000000000000000, 1426.00000000000000000000, -3147.00000000000000000000},
{2832.00000000000000000000, 1444.00000000000000000000, 1293.00000000000000000000}}},

{{{1773.00000000000000000000, 2387.00000000000000000000, 2037.00000000000000000000},
{1667.00000000000000000000, 3136.00000000000000000000, 494.00000000000000000000},
{1232.00000000000000000000, -1980.00000000000000000000, -2699.00000000000000000000}}},

{{{2903.00000000000000000000, 2497.00000000000000000000, -2717.00000000000000000000},
{2269.00000000000000000000, -3131.00000000000000000000, 1843.00000000000000000000},
{3260.00000000000000000000, 2033.00000000000000000000, 2035.00000000000000000000}}},

{{{-3201.00000000000000000000, -2578.00000000000000000000, -490.00000000000000000000},
{641.00000000000000000000, 2511.00000000000000000000, 1144.00000000000000000000},
{-335.00000000000000000000, 2348.00000000000000000000, 819.00000000000000000000}}}};

const uint16_t shape_Conv2D_0_b = 16;
const int16_t Conv2D_0_b[16] = {-11.00000000000000000000, -4.00000000000000000000, -1.00000000000000000000, -15.00000000000000000000, 15.00000000000000000000, 0.00000000000000000000, -4.00000000000000000000, 8.00000000000000000000, -19.00000000000000000000, 0.00000000000000000000, 21.00000000000000000000, 0.00000000000000000000, -24.00000000000000000000, 29.00000000000000000000, 7.00000000000000000000, 7.00000000000000000000};
