/*
 * author : shtsno24
 * Date : 2019-10-16 13:24:46.362503
 * array_type : int16
 * fractal_width : 14 bit
 * bit_width : 16 bit
 *
 */
#pragma once
#include <stdint.h>

#define data_width_Conv2D_2 16
#define fractal_width_Conv2D_2 14

const uint16_t shape_Conv2D_2_w[] = {16, 8, 3, 3};
const int16_t Conv2D_2_w[16][8][3][3] =
{{{{2561, 2111, -1171},
{800, -1658, 1523},
{365, 1024, 1286}},

{{1282, 451, 661},
{2623, -575, 2235},
{1171, -585, -1705}},

{{1030, 38, 1074},
{-2478, -1677, -71},
{-185, -2651, 1465}},

{{-929, -2548, 1347},
{1345, 1652, 1927},
{-1110, 2209, -253}},

{{678, 2025, -409},
{-241, 2510, 923},
{-1124, 2102, 148}},

{{-89, 1050, 2379},
{-595, -148, 802},
{-481, -1617, -1851}},

{{-2313, 232, -1939},
{-818, 431, 2228},
{2734, -885, -1756}},

{{1725, -1994, 1553},
{-131, -1203, -1529},
{1736, 500, 354}}},

{{{-10, -2685, 1357},
{-853, -655, 1345},
{1176, -1722, -2159}},

{{1348, 92, 1557},
{1535, -1887, -2416},
{-1724, -942, -445}},

{{1509, -278, -711},
{-910, 2729, 780},
{-1158, 2251, 1701}},

{{375, -2251, 1678},
{1275, 1370, 2630},
{-1816, -2234, -899}},

{{392, -210, -187},
{1340, 400, 1808},
{-1065, 900, 1236}},

{{1737, -1130, 865},
{1913, -2553, -2628},
{807, 432, -617}},

{{1547, -411, -1802},
{-220, 641, 1183},
{-906, -2258, -1145}},

{{2360, 2436, 2262},
{1659, -1602, -817},
{501, 1728, 2406}}},

{{{456, 134, 1185},
{2188, -2652, -2400},
{276, 649, 2615}},

{{177, -2541, 553},
{2145, -1553, 656},
{-55, -1477, 729}},

{{15, 2161, 1508},
{237, 634, 1757},
{2337, -2434, -2406}},

{{2099, -938, 35},
{-1386, -2077, -1004},
{-177, -776, -1450}},

{{-1053, -2671, -381},
{-106, -1270, -821},
{83, -1762, -779}},

{{2482, -1344, 2635},
{-1257, -1365, 2709},
{-1497, -817, 2246}},

{{-188, -1521, 944},
{-2671, 1048, -948},
{865, 1943, 199}},

{{-621, -2469, 2356},
{-1131, 1853, 687},
{-414, -343, -2114}}},

{{{1042, 686, -1800},
{-416, -791, 2238},
{-2583, -473, 996}},

{{-678, 2483, 1022},
{2479, -800, 93},
{-1710, 678, -1753}},

{{2169, -1351, 1898},
{-1739, 835, 1014},
{1781, 1371, -2364}},

{{2355, 1861, 1346},
{-1790, 210, -743},
{-118, 2077, 2053}},

{{2232, 1260, -527},
{-487, -2511, 1106},
{753, -2334, -116}},

{{2413, -2010, -951},
{-1173, -1082, 860},
{-901, 659, 1190}},

{{1444, 999, -2283},
{1109, 2034, -109},
{-1344, -2700, -1185}},

{{-227, 1298, 626},
{-1143, 2195, 2212},
{2230, -1962, 1467}}},

{{{-1998, 959, 2142},
{2160, 1491, 722},
{-2483, -2455, 893}},

{{200, 2543, -515},
{930, -2063, -633},
{-830, 2155, 948}},

{{-923, -213, -1461},
{2504, -2462, -1778},
{-1273, -782, -371}},

{{2170, -450, -812},
{-268, 2257, -916},
{-526, -2344, -2701}},

{{-1296, 1310, 1},
{-1105, 1353, 1074},
{-2042, -1427, 1727}},

{{425, -2635, -592},
{1317, -1010, 578},
{1472, -42, 1463}},

{{-1815, 782, 1989},
{156, 86, -708},
{2180, 694, -1111}},

{{-2213, 1934, -477},
{-136, 233, 131},
{288, 2227, -1076}}},

{{{-2479, -681, 890},
{1688, -1706, 1830},
{-593, 1787, -2735}},

{{1051, 251, 2702},
{1674, -2027, -101},
{-770, -1660, -2592}},

{{1539, 2309, -961},
{-1840, 2170, -2528},
{178, 1780, -953}},

{{-1060, 110, 2051},
{1402, 366, 990},
{-2240, 1220, -1077}},

{{1450, 1417, 535},
{106, 511, 1715},
{1154, 1628, 1843}},

{{806, 1151, 1753},
{-1354, -2281, -2302},
{-2515, -704, -1018}},

{{166, 1415, 2201},
{-1543, 740, -115},
{1806, -2655, -1437}},

{{-773, -2347, 936},
{267, -2729, -1200},
{-2157, 861, 2652}}},

{{{-2287, 2335, -617},
{831, -63, 2004},
{2522, -2025, 795}},

{{-2172, 2257, 504},
{2689, -1379, -2227},
{257, 808, 905}},

{{-540, 1355, -1691},
{2214, -589, -1592},
{2637, -598, 1073}},

{{-965, 258, 156},
{1372, -665, -236},
{1476, -2743, -449}},

{{-169, -578, 961},
{1299, 937, 365},
{1286, 43, -1508}},

{{-1147, -1289, 68},
{398, -2571, 1964},
{665, -2085, -1388}},

{{811, 580, 2519},
{2016, -1070, -1025},
{-2387, 1996, -90}},

{{119, -1115, 1244},
{1799, -2408, 132},
{928, 2541, 130}}},

{{{-906, 2387, 521},
{-2524, -1955, -1044},
{2189, 2140, 2637}},

{{-1355, -181, -663},
{474, 984, -18},
{2249, -1061, -643}},

{{-2657, -1759, -2491},
{-871, 1472, 2185},
{2263, 526, 1292}},

{{-1759, 1505, -1584},
{460, 562, 1253},
{-1495, -1005, -1108}},

{{1229, 2565, 2322},
{-378, -2243, 376},
{1309, -1583, -2176}},

{{2282, -1516, -1742},
{-2019, -2451, -1109},
{2211, 555, 2653}},

{{-1459, 781, -2078},
{2071, 491, 120},
{-1138, -884, 618}},

{{-422, -1489, -2309},
{1312, -605, 1639},
{2636, -370, 1402}}},

{{{-2263, 1911, -973},
{2586, 79, -585},
{2195, -383, -2574}},

{{-1388, -1237, 846},
{-1727, -1315, 1659},
{841, 2478, 296}},

{{-931, -1158, 1334},
{-735, 1895, -2357},
{-378, -1096, -1050}},

{{727, 1205, -561},
{-1225, 2305, 481},
{349, 427, 1774}},

{{-1547, -1184, 2241},
{1477, 1726, -2400},
{1143, 1545, 2651}},

{{800, 1188, -1628},
{-821, 1288, -286},
{1047, 912, -535}},

{{467, -2504, -1389},
{594, 1656, -2275},
{-1707, -2496, -451}},

{{-758, 174, -2546},
{-469, -1200, 136},
{551, -1670, 441}}},

{{{-1854, 389, -1313},
{-351, 1454, 1028},
{-163, 640, 1416}},

{{1638, -416, 1780},
{-540, -2501, 2358},
{-1262, 2016, 1388}},

{{-2704, -2303, 1635},
{-670, -1893, -803},
{-2261, 1306, 1639}},

{{2093, 1914, 2299},
{-2311, -203, -47},
{1238, -883, 194}},

{{205, -2589, 1716},
{972, 683, -1506},
{1383, -1073, 547}},

{{1922, 921, -947},
{-1142, 1074, -1948},
{2429, 1687, -350}},

{{-1821, -595, 871},
{109, -2678, 389},
{-2596, -943, 2169}},

{{821, 2502, 1378},
{-759, -1972, 1738},
{1870, 1658, 2116}}},

{{{-340, -1248, -2092},
{-1660, 804, -1913},
{1804, -363, 1340}},

{{1495, 1997, -2607},
{1609, 890, 1104},
{2181, -105, -1345}},

{{-997, -1169, -41},
{2702, -644, -2378},
{-1579, 2465, 884}},

{{-1379, 2096, -1273},
{271, 249, 193},
{-253, -1185, 1387}},

{{1235, 1690, -1431},
{-1287, 2011, 1109},
{-1867, -2226, -2187}},

{{-1924, -1689, 164},
{1368, -2662, -2190},
{1690, 1094, -2184}},

{{2012, -238, 1832},
{-2207, 1679, -1607},
{1199, 879, 846}},

{{-162, 2074, 1152},
{424, -1073, 1561},
{1603, 1402, -1595}}},

{{{2119, 1592, 2041},
{2518, -2045, -2147},
{2230, -1209, 1506}},

{{1467, -316, -2530},
{-1145, 1222, 1249},
{2033, -988, -1345}},

{{-1526, -2077, -170},
{-1934, -2471, 1107},
{-27, 1167, 2492}},

{{-2584, 2276, -831},
{209, -29, 1911},
{-2081, -395, 1287}},

{{-95, 1472, 2255},
{565, -833, 2030},
{-1496, -2451, 423}},

{{-1069, -924, -1615},
{2036, -1447, 473},
{442, -568, -2679}},

{{-1490, -376, 206},
{-1809, -2689, 1142},
{-1985, 1049, -2621}},

{{-801, 2283, -1663},
{240, -1526, 299},
{2373, 603, -1620}}},

{{{-1847, -2326, 1484},
{-215, -1219, 1863},
{-2214, 1484, 2343}},

{{387, -2370, -909},
{-505, -2651, 130},
{-2587, 2158, -152}},

{{-1968, -570, -1420},
{-689, 842, 972},
{-224, 861, 1940}},

{{-275, -229, 1390},
{1520, -2677, -1233},
{-44, 2117, 757}},

{{-1331, 11, 2322},
{37, -2472, -314},
{-942, 1785, 943}},

{{1144, 1299, -2674},
{-480, -981, 1230},
{2115, -558, 934}},

{{42, 777, 2286},
{-2313, -361, 61},
{711, -637, -981}},

{{1745, -415, -629},
{1095, 2685, -624},
{-874, -329, 1288}}},

{{{895, -444, -916},
{-2409, -1661, 757},
{-1131, -1253, -1917}},

{{-266, -2484, 2630},
{1323, 823, 1160},
{-557, 1110, 1778}},

{{-984, 1653, -255},
{-1173, 752, 1461},
{-838, -204, -1196}},

{{-2384, 2621, 1476},
{2111, 2386, -296},
{625, 2569, -1657}},

{{-2113, -1085, -1618},
{1645, -2002, -2117},
{-355, 377, -711}},

{{-2135, -1886, 186},
{-1218, -1653, -872},
{533, 731, 2338}},

{{1961, 2244, 509},
{418, 671, 2719},
{-365, -1113, -2464}},

{{-1140, 1481, 2337},
{1534, -1584, 1957},
{-318, -2730, -2009}}},

{{{-938, 148, 1552},
{-1676, 549, 879},
{-1661, 724, -407}},

{{1243, 430, 1837},
{46, -2018, -238},
{-479, -1870, 219}},

{{-758, -1286, 947},
{-876, 2298, 1514},
{2525, 1273, -1067}},

{{-1163, 10, -1885},
{-2597, -331, -751},
{29, -1067, -249}},

{{2732, 562, -840},
{-133, 1150, 518},
{81, -207, 353}},

{{1284, 327, 1166},
{-2255, -2672, 1469},
{1603, -935, 1445}},

{{-1082, -687, -2177},
{-557, -1935, -1880},
{-1321, -2329, 1084}},

{{-2610, 1211, 232},
{465, 2662, 927},
{-1630, -2557, 618}}},

{{{1040, -387, 1186},
{71, 1019, 765},
{-1605, 580, 1814}},

{{2699, 941, -2084},
{1561, 1743, 901},
{-253, 1262, 976}},

{{141, -1822, -20},
{136, -2156, -2279},
{-1171, 1583, 552}},

{{-1108, 1975, 269},
{142, 1222, 1895},
{-1113, -992, -1195}},

{{1431, -1922, 1438},
{506, 1629, -1377},
{-1846, -2473, -863}},

{{1176, 1453, 1857},
{345, 920, -2068},
{-1725, 975, -1147}},

{{1413, -1595, 2527},
{-230, 762, -2540},
{2336, -875, 791}},

{{2438, -2473, 168},
{2556, -818, 1168},
{2151, 2331, -532}}}};

const uint16_t shape_Conv2D_2_b = 16;
const int16_t Conv2D_2_b[16] = {23, 23, -7, 23, -17, -21, -22, 24, 25, -23, -21, 22, 2, -19, -5, 22};
