/*
 * author : shtsno24
 * Date : 2019-10-16 13:24:46.334428
 *
 */
#pragma once
#include <stdint.h>

const uint16_t shape_Conv2D_0_w[] = {16, 1, 3, 3};
const float Conv2D_0_w[16][1][3][3] =
{{{{0.19611056149005889893, -0.06127909198403358459, 0.12191308289766311646},
{-0.06060874462127685547, -0.06468145549297332764, 0.16336713731288909912},
{0.11477982997894287109, 0.19545894861221313477, 0.19400690495967864990}}},

{{{-0.08790918439626693726, -0.09834134578704833984, -0.02779578603804111481},
{-0.04510282725095748901, 0.06019368022680282593, 0.08048280328512191772},
{-0.10914043337106704712, -0.13386070728302001953, -0.04648076370358467102}}},

{{{-0.11092070490121841431, -0.10939804464578628540, -0.11755797266960144043},
{-0.11383142322301864624, 0.15783677995204925537, 0.01212669909000396729},
{-0.14286158978939056396, -0.00654367124661803246, 0.07747986912727355957}}},

{{{0.13268928229808807373, -0.03996368497610092163, 0.18308907747268676758},
{-0.02766286209225654602, -0.14473566412925720215, -0.19488610327243804932},
{-0.14384080469608306885, 0.10777430236339569092, 0.01531619578599929810}}},

{{{0.18326227366924285889, 0.12744182348251342773, 0.19245356321334838867},
{-0.10055597871541976929, -0.03410200774669647217, -0.06208531931042671204},
{0.18839710950851440430, -0.14980433881282806396, -0.06450310349464416504}}},

{{{0.16493473947048187256, -0.08155619353055953979, -0.17231164872646331787},
{-0.10673695802688598633, -0.05667196959257125854, -0.10825998336076736450},
{-0.02764164656400680542, 0.09906207025051116943, -0.06747306883335113525}}},

{{{-0.08415263146162033081, -0.14506421983242034912, 0.01061851810663938522},
{0.08372183144092559814, 0.08051557838916778564, 0.06546573340892791748},
{0.14306221902370452881, -0.14688736200332641602, -0.16809228062629699707}}},

{{{-0.07827954739332199097, 0.15439535677433013916, 0.10611397027969360352},
{-0.19180187582969665527, -0.04353196173906326294, 0.16063928604125976562},
{-0.18567603826522827148, 0.15482516586780548096, -0.17545665800571441650}}},

{{{-0.07694259285926818848, -0.03276272863149642944, 0.19484968483448028564},
{0.11866601556539535522, 0.17189706861972808838, -0.03576549142599105835},
{-0.04017601162195205688, 0.02704311721026897430, 0.10356666892766952515}}},

{{{-0.11829192936420440674, 0.12431012094020843506, -0.18057978153228759766},
{-0.12721917033195495605, -0.07193692773580551147, -0.08202854543924331665},
{0.02966012805700302124, -0.04217389598488807678, -0.01011690776795148849}}},

{{{-0.06701105833053588867, -0.01181769184768199921, -0.09170150011777877808},
{-0.15351310372352600098, -0.17819625139236450195, -0.05895510315895080566},
{0.08458375185728073120, 0.02947150729596614838, -0.01460631005465984344}}},

{{{-0.15955367684364318848, 0.02554571628570556641, -0.01077838987112045288},
{-0.09073161333799362183, 0.06498403102159500122, 0.16810420155525207520},
{0.18208159506320953369, -0.11034372448921203613, -0.13329930603504180908}}},

{{{0.19253358244895935059, 0.03290963545441627502, 0.03311385214328765869},
{0.03260804712772369385, 0.08704607188701629639, -0.19210229814052581787},
{0.17286711931228637695, 0.08814606815576553345, 0.07893811166286468506}}},

{{{0.10824344307184219360, 0.14573235809803009033, 0.12439472228288650513},
{0.10176219046115875244, 0.19147689640522003174, 0.03018094226717948914},
{0.07522020488977432251, -0.12086720764636993408, -0.16476722061634063721}}},

{{{0.17725282907485961914, 0.15243560075759887695, -0.16587315499782562256},
{0.13849787414073944092, -0.19115732610225677490, 0.11252154409885406494},
{0.19903016090393066406, 0.12412197142839431763, 0.12424435466527938843}}},

{{{-0.19543029367923736572, -0.15738952159881591797, -0.02996327355504035950},
{0.03918632119894027710, 0.15327756106853485107, 0.06985194981098175049},
{-0.02045504003763198853, 0.14335435628890991211, 0.04999493807554244995}}}};

const uint16_t shape_Conv2D_0_b = 16;
const float Conv2D_0_b[16] = {-0.00070372963091358542, -0.00026108033489435911, -0.00007013306458247826, -0.00095371075440198183, 0.00094547076150774956, -0.00000050735332024487, -0.00029555437504313886, 0.00050564296543598175, -0.00120693305507302284, -0.00000935462776396889, 0.00132624595426023006, -0.00000231099807024293, -0.00149841303937137127, 0.00178810046054422855, 0.00046542542986571789, 0.00043502042535692453};
