/*
 * author : shtsno24
 * Date : 2019-10-15 15:54:48.704188
 * array_type : int16
 * fractal_width : 14 bit
 * bit_width : 16 bit
 *
 */
#pragma once
#include <stdint.h>

#define data_width_Conv2D_1 16
#define fractal_width_Conv2D_1 14

const uint16_t shape_Conv2D_1_w[] = {8, 16, 3, 3};
const int16_t Conv2D_1_w[8][16][3][3] =
{{{{1944, 1043, -1568},
{266, -2378, -2335},
{1485, -762, 328}},

{{1238, -1554, 1401},
{-2722, -554, 816},
{-2324, -1737, 1242}},

{{-2286, 115, 1286},
{-1728, -774, -851},
{-685, 632, 362}},

{{2550, -244, 853},
{363, -1687, 924},
{-220, -643, -1857}},

{{-144, 2682, -1851},
{-662, 2209, 2303},
{-889, -685, 263}},

{{-1463, 2729, -1630},
{865, -1441, 697},
{-1395, -476, -834}},

{{-865, 1188, -910},
{-498, -146, -2501},
{1017, 637, 846}},

{{-1893, -2501, -1349},
{-1196, 1668, 75},
{1755, 2134, 876}},

{{1472, 710, -413},
{-2194, 823, 2334},
{102, 764, -231}},

{{-2599, -1781, 1383},
{-1598, -1545, 1717},
{725, -1630, -2258}},

{{-381, 1198, 1299},
{-1989, 1699, 493},
{-779, -274, -2642}},

{{1207, -1697, 2218},
{-2571, -1025, -513},
{-1624, 1405, 2349}},

{{-1355, -2248, -999},
{-2642, 2188, -618},
{333, 786, 271}},

{{884, 1123, 1541},
{977, -1961, 2086},
{2208, 2254, -1102}},

{{1391, -1077, 1799},
{671, 1245, 2612},
{-354, -2113, 2268}},

{{-560, -1773, -2263},
{-2645, -2397, 1196},
{30, -2489, 1375}}},

{{{2566, 1672, -2562},
{185, 1558, 2366},
{2712, -322, -465}},

{{-1855, 2472, 1745},
{144, -1983, -891},
{-207, -1128, -800}},

{{-324, -2039, 2708},
{2679, 2103, -2498},
{-1720, 753, 775}},

{{-306, 1401, -1740},
{2669, -326, 2008},
{115, 1110, 430}},

{{879, -2188, -47},
{-1826, 2371, -2711},
{-508, 1305, 1759}},

{{2463, -921, -2090},
{-2633, -1735, 2548},
{1118, 2484, -2502}},

{{2562, -359, -1177},
{-2468, 1271, -1930},
{-2200, 1301, -1733}},

{{-915, -1118, -1203},
{2344, 335, -633},
{1086, 671, 34}},

{{2359, 1658, -173},
{-1342, 2331, 1052},
{16, 2543, 2696}},

{{124, -661, -2553},
{-395, -1456, 1638},
{-736, 257, -2676}},

{{-442, -2693, 143},
{1107, -2616, -2448},
{-2282, -2558, 301}},

{{1791, -883, 2164},
{-2109, 2283, -982},
{372, 25, -1082}},

{{-833, 2675, -2625},
{-1328, -699, -818},
{1633, -686, 1527}},

{{199, 973, 714},
{561, 663, 675},
{1375, -1250, 1149}},

{{-2544, -1288, 2460},
{-2059, 1198, 1881},
{-2559, -1418, 1846}},

{{2149, -2362, -2315},
{-1893, -2166, 1673},
{-1832, 1419, -2175}}},

{{{2073, 2192, 389},
{2262, -251, 2205},
{139, 2441, -1884}},

{{-1263, 307, -2407},
{945, -209, -567},
{-1143, -2256, -751}},

{{-212, -1305, 1221},
{-1814, 923, 1103},
{1773, 2296, 2273}},

{{1764, -1008, 2362},
{-1703, -2587, 1881},
{-1596, -609, 2373}},

{{718, -359, -1909},
{330, 1218, -363},
{2590, 715, 1940}},

{{-370, -1726, -1779},
{-49, -397, -892},
{1338, -1609, 1536}},

{{-2103, 1280, -1160},
{-2545, 747, 1942},
{12, 832, 482}},

{{908, -1985, 1082},
{-1471, 1425, 1267},
{333, 94, 497}},

{{133, 613, 1220},
{1126, -1373, -560},
{1147, -2497, 803}},

{{1692, -2224, 1106},
{-2365, 2523, -361},
{-574, -999, 623}},

{{-444, -1477, -55},
{930, -2097, 512},
{-541, 793, -1755}},

{{-252, -356, 1023},
{302, -2421, -992},
{-1095, -2022, 2666}},

{{2719, 1042, -853},
{-2533, 437, -661},
{1169, -2431, 1111}},

{{-1522, -196, 793},
{2634, -2253, -1651},
{530, 1699, -682}},

{{582, -2313, 2124},
{-1737, -2051, -2045},
{2372, -2364, 981}},

{{1782, 1213, -2539},
{290, 939, 1532},
{795, 1667, 2071}}},

{{{-637, 1980, -382},
{-1339, 904, 2351},
{2727, -644, 2660}},

{{412, 446, 946},
{2360, 439, -2575},
{-1810, 722, -1531}},

{{1975, 173, 2061},
{-2223, 1969, -948},
{-325, -1466, -2494}},

{{2198, -1765, -212},
{-2185, 1981, 2169},
{-2636, 10, -1201}},

{{1223, -2076, 2041},
{-408, 2435, -1985},
{451, -2025, -444}},

{{-1000, -1368, -1274},
{-439, 2543, -895},
{1476, -248, -307}},

{{696, -209, -1006},
{-1566, 388, -1964},
{-1506, 1671, -124}},

{{-2504, 889, 1133},
{1515, 2548, -1945},
{-2557, 1548, 126}},

{{-1528, -2086, -2174},
{-648, -1692, -1616},
{-1269, 2694, 46}},

{{-1973, 620, 1333},
{-2339, 1169, 558},
{-1434, -1961, -2097}},

{{-734, -1392, -1850},
{2564, -1319, 2526},
{1024, 1797, 1351}},

{{484, 1665, -2103},
{883, -1214, -18},
{-549, -1005, -792}},

{{-232, 724, -1021},
{-950, -2448, -1250},
{259, 998, -2152}},

{{2712, 953, 804},
{-246, 1634, 1512},
{-1696, 732, 1690}},

{{486, -225, 968},
{540, -1064, -2637},
{324, -1984, 1123}},

{{2716, -2175, -487},
{1607, -766, -2243},
{-253, 2050, 300}}},

{{{1719, -739, 2107},
{390, 403, 1155},
{64, 1967, 81}},

{{-1496, -1165, 2249},
{-1912, -224, -1782},
{2411, 1160, -1839}},

{{-1762, 533, -386},
{-2392, 2543, -220},
{835, 1153, -1813}},

{{-2463, -2224, 420},
{2269, 1585, 799},
{2438, 240, 130}},

{{465, 1320, 2198},
{-1160, 2707, 1616},
{992, -232, 101}},

{{1146, -2177, 2121},
{1535, -1866, -1628},
{2259, 2626, -1385}},

{{-1975, 1806, -706},
{731, -2481, 955},
{1823, 1717, 2177}},

{{-1917, 1835, 1464},
{-2100, 2169, 1409},
{1654, 1633, 2624}},

{{-153, 2343, 2632},
{-2345, -1018, 168},
{679, -236, -1594}},

{{-1009, -2361, -1662},
{2211, 1441, -1117},
{-2150, -348, -457}},

{{-1048, -2484, 547},
{-1528, 898, 1042},
{2233, -1612, 416}},

{{1426, -2344, -752},
{-1260, -968, -926},
{228, -303, -2616}},

{{1769, 1579, 1189},
{-1927, -719, -2204},
{-2589, -2632, -339}},

{{1180, 2651, -2720},
{-1026, 1612, 2250},
{-602, 1637, 778}},

{{1065, -31, -1431},
{1522, 1255, -2291},
{-2511, -1290, -1697}},

{{2323, -560, -1620},
{-242, -2408, 1573},
{-2224, 913, -2484}}},

{{{-2132, -2007, -1424},
{-1177, -453, -215},
{-2526, 1775, 1014}},

{{1517, -1283, 1443},
{2282, -1262, 2440},
{-579, -1186, 1022}},

{{1486, -2689, -2660},
{1033, 2474, 2424},
{932, 461, -1875}},

{{228, 2256, 1434},
{-1836, -2503, 1288},
{-1183, 2453, -1067}},

{{2346, -1995, -2319},
{-479, 1171, -694},
{-1237, -1418, 1879}},

{{-2503, -875, 1488},
{-1709, -1462, -1178},
{328, 1904, 377}},

{{-1520, -2580, 730},
{2513, -552, 88},
{2088, 1568, 211}},

{{-2646, 579, -1220},
{-2208, 2300, -744},
{-1661, -428, 1829}},

{{-2194, 2702, 574},
{342, -961, -330},
{433, -617, -865}},

{{-1186, 1586, 2362},
{-981, 2227, -1411},
{-1002, -1638, 2460}},

{{2228, 425, -2590},
{1311, 822, 131},
{-2700, 1817, 304}},

{{-2236, -2195, -20},
{1804, 45, 1875},
{1683, 1559, -1136}},

{{2178, -1054, 2648},
{-2600, 751, -1933},
{-1779, 1989, -79}},

{{2505, -1354, -1045},
{-1399, -1374, 2671},
{-502, -406, -1761}},

{{-140, -2529, -2279},
{845, 949, -494},
{2601, 2278, 146}},

{{622, 646, 983},
{2721, 507, -2378},
{1995, 2474, -1747}}},

{{{-1121, 1030, -1065},
{2109, 1959, 180},
{450, -1582, 2658}},

{{-2123, 2117, 1814},
{1224, -842, -1433},
{-498, -1423, -734}},

{{-1278, -1516, 2313},
{-2254, 601, -851},
{1214, 106, -2639}},

{{547, 1517, -2660},
{1661, -2680, 299},
{-21, 1424, 2430}},

{{2407, -2674, 2264},
{941, -2078, 381},
{-1047, -69, -152}},

{{-1121, -646, -1862},
{-806, 2036, -342},
{653, -631, -121}},

{{509, 1513, -213},
{-1969, -1569, 2153},
{-764, 1099, 1946}},

{{-1255, 2206, 416},
{416, -729, 252},
{419, -1917, 2289}},

{{-1029, 1093, -2448},
{-1541, 1420, 427},
{221, -1029, -1202}},

{{-805, -2069, -417},
{2249, 831, -1998},
{-1258, -1418, -1250}},

{{-2069, -1263, 542},
{-1400, -2404, -1497},
{1904, 732, -593}},

{{-2640, -69, 461},
{-1832, -1228, -2220},
{465, 220, -105}},

{{-1103, 286, -1542},
{-2103, 1718, 101},
{-2073, -205, 437}},

{{1705, -243, -433},
{210, -2297, 2527},
{-1900, -1998, -1632}},

{{-1438, 2523, 952},
{-525, 2053, 128},
{-659, -677, -1268}},

{{-2535, -2267, -703},
{-1625, -1820, -2596},
{2689, -156, -494}}},

{{{-2223, -2255, 2505},
{158, 1615, -1661},
{-2657, -2054, 1219}},

{{2339, -2494, -1178},
{696, 1060, 652},
{-7, -1252, -170}},

{{1858, -1970, 2469},
{2005, 1532, 46},
{-2611, -613, 2345}},

{{-1639, -1127, 472},
{-1992, 2538, -903},
{-823, 382, -240}},

{{-732, 1242, -997},
{1875, -2268, 1671},
{469, 1051, 508}},

{{-1130, -303, 1713},
{-2655, -1274, 2072},
{1146, 131, -576}},

{{64, 995, -250},
{2356, -1121, -2097},
{-761, -1533, -1176}},

{{643, -2356, -60},
{2577, -2463, -597},
{-989, 2037, -468}},

{{2577, -1202, 1071},
{1095, 1088, -2199},
{-1449, -2197, -1315}},

{{2574, 515, -1330},
{1943, -864, -2111},
{-1393, 1425, 677}},

{{2684, -216, -2475},
{2330, -2501, -716},
{-2396, -2639, 2209}},

{{-744, 685, -2496},
{2620, 2055, -2490},
{-2448, 380, -2261}},

{{-1535, 1789, 2116},
{549, -1307, -2165},
{-1734, 542, -2673}},

{{-1791, 1279, 2157},
{-1105, -673, -118},
{-1299, -705, 2345}},

{{-2672, 2184, 2298},
{1888, 2281, 2503},
{-87, 282, 374}},

{{2458, 2694, 1862},
{-1275, -414, 2494},
{1827, 134, 1257}}}};

const uint16_t shape_Conv2D_1_b = 8;
const int16_t Conv2D_1_b[8] = {24, -16, -5, 24, 27, 22, -20, -6};
